genomestart 1
trait 1 0.1 0 0 0 0 0 0 0
trait 2 0.2 0 0 0 0 0 0 0
trait 3 0.3 0 0 0 0 0 0 0
node 1 0 1 3 #bias?
node 2 0 1 1 #vx
node 3 0 1 1 #vy
node 4 0 1 1 #yawrate
node 5 0 1 1 #leftcone1x
node 6 0 1 1 #leftcone1y
node 7 0 1 1 #leftcone2x
node 8 0 1 1 #leftcone2y
node 9 0 1 1 #leftcone3x
node 10 0 1 1 #leftcone3y
node 11 0 1 1 #leftcone4x
node 12 0 1 1 #leftcone4y
node 13 0 1 1 #leftcone5x
node 14 0 1 1 #leftcone5y
node 15 0 1 1 #rightcone1x
node 16 0 1 1 #rightcone1y
node 17 0 1 1 #rightcone2x
node 18 0 1 1 #rightcone2y
node 19 0 1 1 #rightcone3x
node 20 0 1 1 #rightcone3y
node 21 0 1 1 #rightcone4x
node 22 0 1 1 #rightcone4y
node 23 0 1 1 #rightcone5x
node 24 0 1 1 #rightcone5y
node 25 0 0 2 #steeringrequest
node 26 0 0 2 #accelerationrequest
gene 1 1 25 0.0 0 1 0 1
gene 2 2 25 0.0 0 2 0 1
gene 3 3 25 0.0 0 3 0 1
gene 1 4 25 0.0 0 4 0 1
gene 2 5 25 0.0 0 5 0 1
gene 3 6 25 0.0 0 6 0 1
gene 1 7 25 0.0 0 7 0 1
gene 2 8 25 0.0 0 8 0 1
gene 3 9 25 0.0 0 9 0 1
gene 1 10 25 0.0 0 10 0 1
gene 2 11 25 0.0 0 11 0 1
gene 3 12 25 0.0 0 12 0 1
gene 1 13 25 0.0 0 13 0 1
gene 2 14 25 0.0 0 14 0 1
gene 3 15 25 0.0 0 15 0 1
gene 1 16 25 0.0 0 16 0 1
gene 2 17 25 0.0 0 17 0 1
gene 3 18 25 0.0 0 18 0 1
gene 1 19 25 0.0 0 19 0 1
gene 2 20 25 0.0 0 20 0 1
gene 3 21 25 0.0 0 21 0 1
gene 1 22 25 0.0 0 22 0 1
gene 2 23 25 0.0 0 23 0 1
gene 3 24 25 0.0 0 24 0 1
gene 1 1 26 0.0 0 25 0 1
gene 2 2 26 0.0 0 26 0 1
gene 3 3 26 0.0 0 27 0 1
gene 1 4 26 0.0 0 28 0 1
gene 2 5 26 0.0 0 29 0 1
gene 3 6 26 0.0 0 30 0 1
gene 1 7 26 0.0 0 31 0 1
gene 2 8 26 0.0 0 32 0 1
gene 3 9 26 0.0 0 33 0 1
gene 1 10 26 0.0 0 34 0 1
gene 2 11 26 0.0 0 35 0 1
gene 3 12 26 0.0 0 36 0 1
gene 1 13 26 0.0 0 37 0 1
gene 2 14 26 0.0 0 38 0 1
gene 3 15 26 0.0 0 39 0 1
gene 1 16 26 0.0 0 40 0 1
gene 2 17 26 0.0 0 41 0 1
gene 3 18 26 0.0 0 42 0 1
gene 1 19 26 0.0 0 43 0 1
gene 2 20 26 0.0 0 44 0 1
gene 3 21 26 0.0 0 45 0 1
gene 1 22 26 0.0 0 46 0 1
gene 2 23 26 0.0 0 47 0 1
gene 3 24 26 0.0 0 48 0 1
genomeend 1








