genomestart 1
trait 1 0 0.542811 0.498154 0.15974 0.506172 0.970022 1 0.330226
trait 2 0.960689 0.161191 0.90689 0.901337 0.815753 0.34941 0.65416 0.504929
trait 3 1 0.267951 0.808773 0.0173407 0.0495337 0.517183 0.4997 0.812892
node 1 1 1 3
node 2 2 1 1
node 3 1 1 1
node 4 2 1 1
node 5 3 1 1
node 6 1 1 1
node 7 3 1 1
node 8 3 1 1
node 9 2 1 1
node 10 2 1 1
node 11 1 1 1
node 12 2 1 1
node 13 1 1 1
node 14 1 1 1
node 15 1 1 1
node 16 2 1 1
node 17 1 1 1
node 18 1 1 1
node 19 3 1 1
node 20 3 1 1
node 21 1 1 1
node 22 3 1 1
node 23 2 1 1
node 24 1 1 1
node 25 2 0 2
node 26 1 0 2
node 27 1 0 0
node 56 1 0 0
node 120 2 0 0
node 149 1 0 0
node 203 3 0 0
node 208 2 0 0
node 286 1 0 0
node 298 1 0 0
node 343 1 0 0
node 378 3 0 0
node 390 3 0 0
node 396 1 0 0
node 459 2 0 0
node 476 1 0 0
node 526 1 0 0
node 539 1 0 0
node 675 1 0 0
node 697 1 0 0
node 744 1 0 0
node 752 2 0 0
node 772 1 0 0
node 847 1 0 0
node 876 1 0 0
node 974 3 0 0
node 980 1 0 0
node 1049 1 0 0
node 1123 1 0 0
node 1168 1 0 0
node 1207 1 0 0
node 1250 3 0 0
node 1313 1 0 0
node 1328 1 0 0
node 1372 1 0 0
node 1412 1 0 0
node 1466 1 0 0
node 1515 1 0 0
node 1587 1 0 0
node 1603 1 0 0
node 1630 1 0 0
node 1647 2 0 0
node 1704 1 0 0
node 1735 3 0 0
node 1784 1 0 0
node 1831 2 0 0
node 1840 2 0 0
node 1931 1 0 0
node 1965 1 0 0
node 1969 1 0 0
node 2090 1 0 0
node 2132 1 0 0
node 2181 1 0 0
node 2253 1 0 0
node 2314 3 0 0
node 2333 1 0 0
node 2381 1 0 0
node 2394 3 0 0
node 2420 1 0 0
node 2478 3 0 0
node 2489 1 0 0
node 2543 1 0 0
node 2631 1 0 0
node 2676 1 0 0
node 2708 1 0 0
node 2765 1 0 0
node 2806 1 0 0
node 2834 1 0 0
node 2931 1 0 0
node 2986 1 0 0
node 3001 1 0 0
node 3025 1 0 0
node 3078 1 0 0
node 3134 1 0 0
node 3145 1 0 0
node 3222 1 0 0
node 3254 1 0 0
node 3278 1 0 0
node 3407 1 0 0
node 3414 1 0 0
node 3484 3 0 0
node 3497 1 0 0
node 3554 1 0 0
node 3627 3 0 0
node 3667 1 0 0
node 3674 1 0 0
node 3695 1 0 0
node 3713 1 0 0
node 3722 1 0 0
node 3785 1 0 0
node 3839 1 0 0
node 3861 3 0 0
node 3957 1 0 0
node 3961 1 0 0
node 3981 1 0 0
node 3987 1 0 0
node 3993 1 0 0
node 4005 1 0 0
node 4033 1 0 0
node 4114 2 0 0
node 4148 1 0 0
node 4151 1 0 0
node 4156 1 0 0
node 4204 1 0 0
node 4285 1 0 0
node 4315 1 0 0
node 4346 2 0 0
node 4356 1 0 0
node 4368 1 0 0
node 4472 1 0 0
node 4494 1 0 0
node 4588 2 0 0
node 4602 1 0 0
node 4607 1 0 0
node 4614 1 0 0
node 4662 3 0 0
node 4702 1 0 0
node 4745 1 0 0
node 4750 1 0 0
node 4753 3 0 0
node 4839 1 0 0
node 4849 1 0 0
node 4870 1 0 0
node 4924 1 0 0
node 4931 2 0 0
node 4944 1 0 0
node 5033 1 0 0
node 5074 3 0 0
node 5142 1 0 0
node 5146 1 0 0
node 5178 1 0 0
node 5200 1 0 0
node 5240 1 0 0
node 5244 3 0 0
node 5347 3 0 0
node 5406 1 0 0
node 5413 1 0 0
node 5462 1 0 0
node 5550 1 0 0
node 5630 1 0 0
node 5640 1 0 0
node 5662 1 0 0
node 5732 1 0 0
node 5734 1 0 0
node 5784 1 0 0
node 5807 2 0 0
node 5849 1 0 0
node 5868 3 0 0
node 5899 1 0 0
node 5912 1 0 0
node 5935 1 0 0
node 5939 1 0 0
node 5948 1 0 0
node 5963 1 0 0
node 5976 1 0 0
node 6025 1 0 0
node 6111 2 0 0
node 6116 1 0 0
node 6152 1 0 0
node 6184 1 0 0
node 6225 1 0 0
node 6261 1 0 0
node 6307 1 0 0
node 6312 1 0 0
node 6360 1 0 0
node 6369 1 0 0
node 6546 1 0 0
node 6597 1 0 0
node 6611 1 0 0
node 6635 1 0 0
node 6672 1 0 0
node 6697 1 0 0
node 6741 1 0 0
node 6742 1 0 0
node 6752 1 0 0
node 6824 1 0 0
node 6828 1 0 0
node 6911 1 0 0
node 6932 1 0 0
node 7057 1 0 0
node 7077 1 0 0
node 7084 1 0 0
node 7103 1 0 0
node 7106 1 0 0
node 7111 1 0 0
node 7139 1 0 0
node 7146 1 0 0
node 7170 1 0 0
node 7210 1 0 0
node 7315 1 0 0
node 7349 1 0 0
node 7358 1 0 0
node 7372 1 0 0
node 7377 1 0 0
node 7384 1 0 0
node 7417 1 0 0
node 7423 1 0 0
node 7471 2 0 0
node 7478 2 0 0
node 7506 1 0 0
node 7524 2 0 0
node 7576 1 0 0
node 7601 1 0 0
node 7649 1 0 0
node 7744 1 0 0
node 7751 1 0 0
node 7757 1 0 0
node 7783 1 0 0
node 7803 1 0 0
node 7821 1 0 0
node 7858 1 0 0
node 7861 1 0 0
node 7883 1 0 0
node 7900 1 0 0
node 7905 1 0 0
node 7960 1 0 0
node 8014 1 0 0
node 8025 1 0 0
node 8029 1 0 0
node 8060 1 0 0
node 8099 1 0 0
node 8123 1 0 0
node 8146 1 0 0
node 8178 1 0 0
node 8182 1 0 0
node 8186 1 0 0
node 8238 1 0 0
node 8243 1 0 0
node 8261 1 0 0
node 8279 1 0 0
node 8337 1 0 0
node 8382 2 0 0
node 8434 1 0 0
node 8443 1 0 0
node 8488 1 0 0
node 8533 1 0 0
node 8618 1 0 0
node 8673 1 0 0
node 8685 1 0 0
node 8691 1 0 0
node 8696 1 0 0
node 8805 1 0 0
node 8832 1 0 0
node 8833 3 0 0
node 8914 1 0 0
node 8945 1 0 0
node 8972 1 0 0
node 8977 1 0 0
node 9098 1 0 0
node 9102 1 0 0
node 9114 1 0 0
node 9144 1 0 0
node 9150 1 0 0
node 9157 1 0 0
node 9175 1 0 0
node 9184 1 0 0
node 9188 1 0 0
node 9192 1 0 0
node 9202 1 0 0
node 9263 3 0 0
node 9317 3 0 0
node 9326 1 0 0
node 9334 1 0 0
node 9357 1 0 0
node 9361 1 0 0
node 9410 1 0 0
node 9420 1 0 0
node 9428 1 0 0
node 9459 1 0 0
node 9470 1 0 0
node 9473 1 0 0
node 9508 2 0 0
node 9570 1 0 0
node 9642 1 0 0
node 9644 1 0 0
node 9658 3 0 0
node 9669 1 0 0
node 9682 1 0 0
node 9694 1 0 0
node 9762 1 0 0
node 9772 1 0 0
node 9803 1 0 0
node 9939 1 0 0
node 9943 1 0 0
node 9973 2 0 0
node 10017 1 0 0
node 10064 1 0 0
node 10066 1 0 0
node 10160 2 0 0
node 10165 1 0 0
node 10264 1 0 0
node 10328 3 0 0
node 10376 1 0 0
node 10381 1 0 0
node 10384 1 0 0
node 10520 1 0 0
node 10523 1 0 0
node 10531 1 0 0
node 10582 1 0 0
node 10619 1 0 0
node 10640 1 0 0
node 10693 1 0 0
node 10773 1 0 0
node 10783 1 0 0
node 10813 1 0 0
node 10819 2 0 0
node 10839 1 0 0
node 10876 1 0 0
node 10888 1 0 0
node 10918 1 0 0
node 11006 1 0 0
node 11088 1 0 0
node 11139 1 0 0
node 11233 1 0 0
node 11250 1 0 0
node 11254 1 0 0
node 11294 1 0 0
node 11314 2 0 0
node 11322 2 0 0
node 11340 1 0 0
node 11367 1 0 0
node 11372 1 0 0
node 11377 1 0 0
node 11378 1 0 0
node 11412 1 0 0
node 11473 1 0 0
node 11478 1 0 0
node 11485 1 0 0
node 11506 1 0 0
node 11545 1 0 0
node 11569 1 0 0
node 11579 1 0 0
node 11620 1 0 0
node 11640 1 0 0
node 11666 1 0 0
node 11696 1 0 0
node 11699 1 0 0
node 11783 1 0 0
node 11820 1 0 0
node 11929 1 0 0
node 11942 1 0 0
node 11948 2 0 0
node 12020 1 0 0
node 12028 1 0 0
node 12034 1 0 0
node 12058 1 0 0
node 12134 1 0 0
node 12135 3 0 0
node 12220 1 0 0
node 12316 1 0 0
node 12388 1 0 0
node 12411 1 0 0
node 12438 1 0 0
node 12534 1 0 0
node 12559 1 0 0
node 12596 1 0 0
node 12602 1 0 0
node 12620 1 0 0
node 12629 1 0 0
node 12669 1 0 0
node 12711 2 0 0
node 12749 1 0 0
node 12824 2 0 0
node 12853 1 0 0
node 12925 1 0 0
node 12939 1 0 0
node 12945 1 0 0
node 13008 1 0 0
node 13017 1 0 0
node 13042 1 0 0
node 13050 1 0 0
node 13054 1 0 0
node 13098 1 0 0
node 13103 1 0 0
node 13148 1 0 0
node 13161 1 0 0
node 13258 1 0 0
node 13284 1 0 0
node 13293 1 0 0
node 13376 1 0 0
node 13394 1 0 0
node 13398 1 0 0
node 13405 1 0 0
node 13423 1 0 0
node 13506 2 0 0
node 13535 1 0 0
node 13575 1 0 0
node 13636 1 0 0
node 13666 1 0 0
node 13745 1 0 0
node 13789 1 0 0
node 13809 1 0 0
node 13888 1 0 0
node 13900 1 0 0
node 13949 1 0 0
node 13957 1 0 0
node 14009 1 0 0
node 14037 1 0 0
node 14098 3 0 0
node 14160 1 0 0
node 14165 1 0 0
node 14186 1 0 0
node 14200 1 0 0
node 14266 1 0 0
node 14305 1 0 0
node 14341 1 0 0
node 14360 3 0 0
node 14430 1 0 0
node 14505 1 0 0
node 14514 1 0 0
node 14523 1 0 0
node 14645 1 0 0
node 14667 3 0 0
node 14678 1 0 0
node 14710 1 0 0
node 14744 1 0 0
node 14770 1 0 0
node 14776 1 0 0
node 14803 1 0 0
node 14880 1 0 0
node 14960 3 0 0
node 15053 1 0 0
node 15061 1 0 0
node 15073 1 0 0
node 15083 1 0 0
node 15100 1 0 0
node 15143 1 0 0
node 15151 1 0 0
node 15156 2 0 0
node 15191 1 0 0
node 15226 1 0 0
node 15231 1 0 0
node 15244 1 0 0
node 15252 1 0 0
node 15260 1 0 0
node 15272 1 0 0
node 15317 1 0 0
node 15413 1 0 0
node 15426 1 0 0
node 15518 1 0 0
node 15564 1 0 0
node 15667 1 0 0
node 15752 1 0 0
node 15820 1 0 0
node 15863 1 0 0
node 15914 1 0 0
node 16003 1 0 0
node 16045 2 0 0
node 16167 1 0 0
node 16242 1 0 0
node 16306 1 0 0
node 16326 1 0 0
node 16485 1 0 0
node 16502 1 0 0
node 16541 1 0 0
node 16590 1 0 0
node 16624 1 0 0
node 16793 1 0 0
node 16836 1 0 0
node 16839 1 0 0
node 16908 1 0 0
node 16932 1 0 0
node 16939 1 0 0
node 16994 1 0 0
node 16997 1 0 0
node 17058 1 0 0
node 17068 1 0 0
node 17126 1 0 0
node 17134 1 0 0
node 17149 1 0 0
node 17198 2 0 0
node 17217 1 0 0
node 17221 1 0 0
node 17242 1 0 0
node 17275 1 0 0
node 17294 1 0 0
node 17339 1 0 0
node 17356 1 0 0
node 17394 1 0 0
node 17423 1 0 0
node 17483 1 0 0
node 17563 1 0 0
node 17603 1 0 0
node 17627 1 0 0
node 17695 1 0 0
node 17744 1 0 0
node 17800 1 0 0
node 17826 1 0 0
node 17831 1 0 0
node 17836 1 0 0
node 17844 1 0 0
node 17875 1 0 0
node 17890 1 0 0
node 17911 1 0 0
node 18060 1 0 0
node 18087 1 0 0
node 18179 1 0 0
node 18208 2 0 0
node 18262 3 0 0
node 18298 1 0 0
node 18309 1 0 0
node 18317 1 0 0
node 18493 1 0 0
node 18497 1 0 0
node 18559 1 0 0
node 18634 1 0 0
node 18658 1 0 0
node 18689 1 0 0
node 18700 1 0 0
node 18704 1 0 0
node 18840 2 0 0
node 18875 1 0 0
node 18902 1 0 0
node 18907 1 0 0
node 18970 1 0 0
node 18976 1 0 0
node 18984 1 0 0
node 19034 1 0 0
node 19061 1 0 0
node 19075 1 0 0
node 19135 1 0 0
node 19242 1 0 0
node 19247 1 0 0
node 19268 1 0 0
node 19411 1 0 0
node 19420 1 0 0
node 19505 1 0 0
node 19515 1 0 0
node 19555 1 0 0
node 19637 1 0 0
node 19641 1 0 0
node 19675 1 0 0
node 19697 1 0 0
node 19749 3 0 0
node 19792 1 0 0
node 19800 1 0 0
node 19806 1 0 0
node 19820 1 0 0
node 19856 1 0 0
node 19901 1 0 0
node 19946 1 0 0
node 19965 1 0 0
node 20012 1 0 0
node 20032 1 0 0
node 20067 1 0 0
node 20069 1 0 0
node 20159 1 0 0
node 20227 1 0 0
node 20244 1 0 0
node 20263 1 0 0
node 20265 1 0 0
node 20287 1 0 0
node 20343 1 0 0
node 20356 1 0 0
node 20387 1 0 0
node 20463 1 0 0
node 20502 1 0 0
node 20508 1 0 0
node 20515 1 0 0
node 20530 1 0 0
node 20546 1 0 0
node 20607 1 0 0
node 20718 1 0 0
node 20736 1 0 0
node 20791 1 0 0
node 20797 1 0 0
node 20871 1 0 0
node 20956 1 0 0
node 20982 1 0 0
node 20991 1 0 0
node 21096 1 0 0
node 21098 1 0 0
node 21171 1 0 0
node 21177 1 0 0
node 21189 1 0 0
node 21240 1 0 0
node 21264 1 0 0
node 21343 1 0 0
node 21352 1 0 0
node 21500 1 0 0
node 21506 1 0 0
node 21592 1 0 0
node 21639 1 0 0
node 21718 1 0 0
node 21879 1 0 0
node 21969 1 0 0
node 22083 1 0 0
node 22162 1 0 0
node 22198 1 0 0
node 22202 1 0 0
node 22250 1 0 0
node 22297 1 0 0
node 22304 1 0 0
node 22313 1 0 0
node 22317 1 0 0
node 22403 1 0 0
node 22471 1 0 0
node 22549 1 0 0
node 22556 1 0 0
node 22643 1 0 0
node 22708 1 0 0
node 22718 1 0 0
node 22793 1 0 0
node 22848 1 0 0
node 22929 1 0 0
node 22936 1 0 0
node 22966 1 0 0
node 23014 1 0 0
node 23100 1 0 0
node 23158 1 0 0
node 23167 1 0 0
node 23259 1 0 0
node 23305 1 0 0
node 23325 1 0 0
node 23386 1 0 0
node 23413 1 0 0
node 23427 1 0 0
node 23433 1 0 0
node 23441 1 0 0
node 23487 1 0 0
node 23557 1 0 0
node 23603 1 0 0
node 23609 1 0 0
node 23706 1 0 0
node 23757 1 0 0
node 23764 1 0 0
node 23793 1 0 0
node 23802 1 0 0
node 23816 1 0 0
node 23856 1 0 0
node 23897 1 0 0
node 23911 1 0 0
node 23959 1 0 0
node 23965 1 0 0
node 23984 2 0 0
node 24065 1 0 0
node 24103 1 0 0
node 24124 1 0 0
node 24155 1 0 0
node 24204 1 0 0
node 24209 1 0 0
node 24278 1 0 0
node 24430 1 0 0
node 24458 1 0 0
node 24597 1 0 0
node 24605 1 0 0
node 24659 1 0 0
node 24663 1 0 0
node 24680 1 0 0
node 24727 1 0 0
node 24799 1 0 0
node 24802 1 0 0
node 24867 1 0 0
node 24975 1 0 0
node 25020 1 0 0
node 25034 1 0 0
node 25073 1 0 0
node 25122 1 0 0
node 25162 1 0 0
node 25209 1 0 0
node 25282 1 0 0
node 25311 1 0 0
node 25332 1 0 0
node 25347 1 0 0
node 25414 1 0 0
node 25423 3 0 0
node 25487 1 0 0
node 25505 1 0 0
node 25509 1 0 0
node 25586 1 0 0
node 25642 1 0 0
node 25702 1 0 0
node 25742 1 0 0
node 25745 1 0 0
node 25780 1 0 0
node 25790 1 0 0
node 25893 1 0 0
node 25903 1 0 0
node 25908 1 0 0
node 25930 1 0 0
node 25936 1 0 0
node 26008 1 0 0
node 26070 3 0 0
node 26133 1 0 0
node 26210 1 0 0
node 26282 1 0 0
node 26325 1 0 0
node 26331 1 0 0
node 26353 1 0 0
node 26360 1 0 0
node 26377 1 0 0
node 26401 1 0 0
node 26446 1 0 0
node 26529 1 0 0
node 26602 1 0 0
node 26616 1 0 0
node 26625 1 0 0
node 26656 1 0 0
node 26683 1 0 0
node 26708 1 0 0
node 26710 1 0 0
node 26773 1 0 0
node 26833 1 0 0
node 26880 1 0 0
node 26883 1 0 0
node 26891 1 0 0
node 26976 1 0 0
node 26984 1 0 0
node 27018 1 0 0
node 27064 1 0 0
node 27075 1 0 0
node 27121 1 0 0
node 27230 1 0 0
node 27235 1 0 0
node 27245 1 0 0
node 27266 1 0 0
node 27272 1 0 0
node 27303 1 0 0
node 27322 1 0 0
node 27376 1 0 0
node 27390 1 0 0
node 27424 1 0 0
node 27429 1 0 0
node 27453 1 0 0
node 27468 1 0 0
node 27478 1 0 0
node 27545 1 0 0
node 27633 1 0 0
node 27680 2 0 0
node 27819 1 0 0
node 27844 1 0 0
node 27929 1 0 0
node 27947 1 0 0
node 27953 1 0 0
node 27957 1 0 0
node 28095 1 0 0
node 28108 1 0 0
node 28163 1 0 0
node 28173 1 0 0
node 28271 1 0 0
node 28301 1 0 0
node 28321 1 0 0
node 28330 1 0 0
node 28338 1 0 0
node 28342 1 0 0
node 28352 1 0 0
node 28386 1 0 0
node 28414 1 0 0
node 28420 1 0 0
node 28448 1 0 0
node 28468 1 0 0
node 28500 1 0 0
node 28562 1 0 0
node 28576 1 0 0
node 28582 1 0 0
node 28682 1 0 0
node 28712 1 0 0
node 28717 1 0 0
node 28774 1 0 0
node 28849 1 0 0
node 28882 1 0 0
node 28934 1 0 0
node 28958 1 0 0
node 28979 1 0 0
node 28987 1 0 0
node 28995 1 0 0
node 29108 1 0 0
node 29168 1 0 0
node 29190 1 0 0
node 29266 1 0 0
node 29344 1 0 0
node 29386 1 0 0
node 29425 1 0 0
node 29427 1 0 0
node 29485 1 0 0
node 29491 1 0 0
node 29505 1 0 0
node 29521 1 0 0
node 29548 1 0 0
node 29551 1 0 0
node 29568 1 0 0
node 29646 1 0 0
node 29746 1 0 0
node 29793 1 0 0
node 29909 1 0 0
node 29937 1 0 0
node 29960 1 0 0
node 29977 1 0 0
node 30028 1 0 0
node 30061 1 0 0
node 30104 1 0 0
node 30106 1 0 0
node 30133 1 0 0
node 30143 1 0 0
node 30150 1 0 0
node 30164 3 0 0
node 30196 1 0 0
node 30208 1 0 0
node 30241 1 0 0
node 30281 1 0 0
node 30313 1 0 0
node 30347 1 0 0
node 30422 1 0 0
node 30506 1 0 0
node 30517 1 0 0
node 30525 1 0 0
node 30605 1 0 0
node 30617 1 0 0
node 30667 1 0 0
node 30681 1 0 0
node 30730 1 0 0
node 30740 1 0 0
node 30822 1 0 0
node 30931 1 0 0
node 30940 1 0 0
node 30944 1 0 0
node 30969 1 0 0
node 30980 1 0 0
node 30985 1 0 0
node 30995 1 0 0
node 31017 1 0 0
node 31061 1 0 0
node 31064 1 0 0
node 31094 1 0 0
node 31108 1 0 0
node 31113 1 0 0
node 31148 1 0 0
node 31156 1 0 0
node 31189 1 0 0
node 31197 1 0 0
node 31203 1 0 0
node 31259 1 0 0
node 31357 1 0 0
node 31405 1 0 0
node 31409 1 0 0
node 31513 1 0 0
node 31584 1 0 0
node 31678 1 0 0
node 31703 1 0 0
node 31717 1 0 0
node 31731 1 0 0
node 31757 1 0 0
node 31773 1 0 0
node 31805 1 0 0
node 31835 1 0 0
node 31858 1 0 0
node 31931 1 0 0
node 32003 1 0 0
node 32090 1 0 0
node 32117 1 0 0
node 32127 1 0 0
node 32150 1 0 0
node 32174 1 0 0
node 32228 1 0 0
node 32240 1 0 0
node 32252 1 0 0
node 32380 1 0 0
node 32386 1 0 0
node 32395 1 0 0
node 32411 1 0 0
node 32436 1 0 0
node 32450 1 0 0
node 32508 1 0 0
node 32543 1 0 0
node 32667 1 0 0
node 32708 1 0 0
node 32729 1 0 0
node 32740 1 0 0
gene 2 1 25 3.98683 0 1 3.98683 1
gene 2 2 25 -2.54242 0 2 -2.54242 1
gene 2 3 25 -8 0 3 -8 1
gene 1 4 25 5.17812 0 4 5.17812 1
gene 3 5 25 -1.26947 0 5 -1.26947 1
gene 1 6 25 3.78059 0 6 3.78059 1
gene 1 7 25 -7.70182 0 7 -7.70182 1
gene 1 8 25 6.84923 0 8 6.84923 1
gene 3 9 25 -7.81054 0 9 -7.81054 1
gene 3 10 25 5.38289 0 10 5.38289 1
gene 3 11 25 -2.67264 0 11 -2.67264 1
gene 2 12 25 2.92178 0 12 2.92178 1
gene 3 13 25 7.16941 0 13 7.16941 1
gene 2 14 25 -5.13665 0 14 -5.13665 1
gene 2 15 25 -1.43602 0 15 -1.43602 1
gene 1 16 25 -1.34433 0 16 -1.34433 1
gene 2 17 25 0.314387 0 17 0.314387 1
gene 3 18 25 3.08848 0 18 3.08848 1
gene 3 19 25 7.03964 0 19 7.03964 1
gene 2 20 25 7.75694 0 20 7.75694 1
gene 2 21 25 7.91613 0 21 7.91613 1
gene 2 22 25 -5.83457 0 22 -5.83457 1
gene 3 23 25 -7.94125 0 23 -7.94125 1
gene 3 24 25 5.5749 0 24 5.5749 1
gene 2 1 26 -4.56576 0 25 -4.56576 1
gene 1 2 26 -7.95335 0 26 -7.95335 1
gene 2 3 26 4.35982 0 27 4.35982 1
gene 3 4 26 -0.563962 0 28 -0.563962 1
gene 3 5 26 4.20471 0 29 4.20471 1
gene 2 6 26 -0.943165 0 30 -0.943165 1
gene 2 7 26 6.70488 0 31 6.70488 1
gene 3 8 26 -3.84987 0 32 -3.84987 1
gene 1 9 26 0.572231 0 33 0.572231 1
gene 2 10 26 -4.04212 0 34 -4.04212 1
gene 2 11 26 -1.88988 0 35 -1.88988 1
gene 1 12 26 2.50015 0 36 2.50015 1
gene 2 13 26 1.64453 0 37 1.64453 1
gene 1 14 26 3.82133 0 38 3.82133 1
gene 1 15 26 1.48642 0 39 1.48642 1
gene 1 16 26 2.78987 0 40 2.78987 1
gene 2 17 26 -6.39905 0 41 -6.39905 1
gene 2 18 26 -6.49576 0 42 -6.49576 1
gene 1 19 26 7.69953 0 43 7.69953 1
gene 3 20 26 -0.362564 0 44 -0.362564 1
gene 2 21 26 3.10666 0 45 3.10666 1
gene 1 22 26 0.582799 0 46 0.582799 1
gene 3 23 26 -2.78809 0 47 -2.78809 1
gene 3 24 26 -2.75305 0 48 -2.75305 1
gene 2 6 27 3.42135 0 50 3.42135 1
gene 2 27 26 -7.6557 0 51 -7.6557 1
gene 3 17 27 -0.8653 0 60 -0.8653 1
gene 1 10 27 3.71378 0 91 3.71378 1
gene 2 13 56 5.91972 0 143 5.91972 1
gene 2 56 26 -0.924893 0 144 -0.924893 1
gene 2 11 120 -6.07932 0 345 -6.07932 1
gene 2 120 26 -2.0111 0 346 -2.0111 1
gene 2 6 56 0.839311 0 357 0.839311 1
gene 3 24 149 3.69518 0 436 3.69518 1
gene 3 149 26 -1.85504 0 437 -1.85504 1
gene 1 15 149 -2.48422 0 548 -2.48422 1
gene 1 14 120 -1.61953 0 572 -1.61953 1
gene 2 8 56 4.28873 0 589 4.28873 1
gene 2 120 25 -0.144517 0 635 -0.144517 1
gene 2 15 203 -7.73236 0 655 -7.73236 1
gene 2 203 25 -0.213417 0 656 -0.213417 1
gene 3 149 208 2.38076 0 671 2.38076 1
gene 3 208 26 -1.53743 0 672 -1.53743 1
gene 3 10 120 -4.79439 0 921 -4.79439 1
gene 1 22 56 3.87705 0 950 3.87705 1
gene 1 4 286 -0.237123 0 984 -0.237123 1
gene 1 286 25 1.1383 0 985 1.1383 1
gene 1 23 298 -5.60141 0 1026 -5.60141 1
gene 3 298 26 -1.27878 0 1027 -1.27878 1
gene 2 298 27 -1.73358 0 1041 -1.73358 1
gene 2 7 203 -2.67774 0 1053 -2.67774 1
gene 3 56 208 -2.33428 0 1173 -2.33428 1
gene 2 15 343 -4.22219 0 1178 -4.22219 1
gene 2 343 203 7.90727 0 1179 7.90727 1
gene 1 13 27 -7.96783 0 1320 -7.96783 1
gene 1 9 378 -2.74591 0 1355 -2.74591 1
gene 1 378 26 -0.748622 0 1356 -0.748622 1
gene 2 4 390 -0.473271 0 1395 -0.473271 1
gene 2 390 26 -2.52803 0 1396 -2.52803 1
gene 2 17 396 -7.33822 0 1410 -7.33822 1
gene 2 396 26 0.254115 0 1411 0.254115 1
gene 1 396 120 -4.72383 0 1662 -4.72383 1
gene 2 10 459 -0.129777 0 1666 -0.129777 1
gene 2 459 26 7.39461 0 1667 7.39461 1
gene 1 286 390 -7.88271 0 1707 -7.88271 1
gene 3 298 476 -1.33364 0 1720 -1.33364 1
gene 3 476 26 -1.48765 0 1721 -1.48765 1
gene 3 21 56 -7.68356 0 1753 -7.68356 1
gene 2 27 149 1.75215 0 1923 1.75215 1
gene 3 390 343 1.37062 0 1951 1.37062 1
gene 1 286 526 2.86378 0 1954 2.86378 1
gene 2 526 25 -7.57156 0 1955 -7.57156 1
gene 3 149 343 -2.76647 0 1980 -2.76647 1
gene 2 8 539 7.9924 0 2000 7.9924 1
gene 1 539 25 -7.87135 0 2001 -7.87135 1
gene 2 56 286 -6.77956 0 2008 -6.77956 1
gene 1 2 526 4.73441 0 2035 4.73441 1
gene 2 56 149 1.74063 0 2235 1.74063 1
gene 2 539 208 -5.94622 0 2254 -5.94622 1
gene 2 9 56 5.48789 0 2477 5.48789 1
gene 1 526 675 0.30662 0 2492 0.30662 1
gene 1 675 25 -3.99001 0 2493 -3.99001 1
gene 1 4 203 7.97359 0 2520 7.97359 1
gene 3 286 459 -4.6569 0 2541 -4.6569 1
gene 3 22 675 -2.83725 0 2594 -2.83725 1
gene 1 526 697 1.75837 0 2613 1.75837 1
gene 3 697 25 5.27551 0 2614 5.27551 1
gene 3 12 208 -6.38171 0 2795 -6.38171 1
gene 2 13 744 3.61741 0 2822 3.61741 1
gene 2 744 56 7.06784 0 2823 7.06784 1
gene 3 27 675 -0.30405 0 2846 -0.30405 1
gene 1 2 752 1.43793 0 2859 1.43793 1
gene 1 752 526 1.87635 0 2860 1.87635 1
gene 3 697 539 -4.53197 0 2919 -4.53197 1
gene 3 10 772 -0.997548 0 2950 -0.997548 1
gene 3 772 25 -0.458582 0 2951 -0.458582 1
gene 1 12 378 -7.41723 0 3019 -7.41723 1
gene 2 459 203 7.23651 0 3157 7.23651 1
gene 2 149 526 6.58832 0 3221 6.58832 1
gene 3 298 847 -5.84515 0 3235 -5.84515 1
gene 3 847 476 3.53318 0 3236 3.53318 1
gene 1 12 876 0.653487 0 3329 0.653487 1
gene 1 876 378 -0.525477 0 3330 -0.525477 1
gene 1 3 526 2.66619 0 3340 2.66619 1
gene 1 9 876 5.91317 0 3356 5.91317 1
gene 1 21 203 4.34208 0 3687 4.34208 1
gene 3 149 974 1.12353 0 3720 1.12353 1
gene 3 974 208 -0.57672 0 3721 -0.57672 1
gene 1 9 980 6.14207 0 3741 6.14207 1
gene 1 980 378 4.22782 0 3742 4.22782 1
gene 2 752 396 -6.00655 0 3982 -6.00655 1
gene 2 15 1049 -2.7927 0 4031 -2.7927 1
gene 2 1049 203 2.18428 0 4032 2.18428 1
gene 2 23 1049 0.374506 0 4212 0.374506 1
gene 1 1049 208 5.71061 0 4257 5.71061 1
gene 2 7 744 -4.03057 0 4269 -4.03057 1
gene 3 286 1123 -4.21121 0 4345 -4.21121 1
gene 3 1123 459 0.753526 0 4346 0.753526 1
gene 3 390 772 -0.259939 0 4529 -0.259939 1
gene 2 56 1168 3.67614 0 4543 3.67614 1
gene 2 1168 149 1.65344 0 4544 1.65344 1
gene 3 539 459 6.5101 0 4568 6.5101 1
gene 3 2 974 5.12601 0 4683 5.12601 1
gene 3 24 1207 1.7304 0 4700 1.7304 1
gene 3 1207 149 0.891093 0 4701 0.891093 1
gene 1 10 526 -1.97854 0 4810 -1.97854 1
gene 3 5 208 1.84377 0 4819 1.84377 1
gene 2 18 1250 6.5437 0 4885 6.5437 1
gene 2 1250 26 -6.89643 0 4886 -6.89643 1
gene 3 675 539 -1.70599 0 4926 -1.70599 1
gene 1 3 1168 -0.531833 0 4994 -0.531833 1
gene 2 16 1049 -3.02948 0 5071 -3.02948 1
gene 1 16 1313 4.73732 0 5120 4.73732 1
gene 1 1313 26 -8 0 5121 -8 1
gene 1 286 1328 -6.98124 0 5203 -6.98124 1
gene 1 1328 526 1.0207 0 5204 1.0207 1
gene 2 1250 1168 -3.7428 0 5361 -3.7428 1
gene 1 343 1049 4.14724 0 5376 4.14724 1
gene 3 5 1207 -1.43918 0 5393 -1.43918 1
gene 3 390 1372 1.1756 0 5405 1.1756 1
gene 3 1372 343 0.15512 0 5406 0.15512 1
gene 1 286 1412 -1.92177 0 5550 -1.92177 1
gene 1 1412 1328 1.00109 0 5551 1.00109 1
gene 1 1313 390 -7.2031 0 5643 -7.2031 1
gene 3 847 744 -5.5792 0 5769 -5.5792 1
gene 3 396 1466 6.84204 0 5789 6.84204 1
gene 3 1466 120 0.582758 0 5790 0.582758 1
gene 2 1412 378 1.79392 0 5926 1.79392 1
gene 3 4 149 -3.519 0 5941 -3.519 1
gene 1 286 1515 -6.74019 0 6014 -6.74019 1
gene 1 1515 390 -3.16517 0 6015 -3.16517 1
gene 2 876 539 5.29548 0 6028 5.29548 1
gene 2 697 1313 7.55949 0 6204 7.55949 1
gene 3 1207 1587 7.19117 0 6323 7.19117 1
gene 3 1587 149 0.0180218 0 6324 0.0180218 1
gene 2 298 744 0.297427 0 6361 0.297427 1
gene 1 1168 752 -5.60514 0 6376 -5.60514 1
gene 2 396 1603 -1.98802 0 6388 -1.98802 1
gene 1 1603 26 6.50217 0 6389 6.50217 1
gene 2 752 1630 2.56854 0 6498 2.56854 1
gene 2 1630 396 -1.04987 0 6499 -1.04987 1
gene 3 27 1313 -0.60885 0 6518 -0.60885 1
gene 2 8 1647 -5.92206 0 6565 -5.92206 1
gene 2 1647 56 -7.92201 0 6566 -7.92201 1
gene 3 13 149 6.73535 0 6596 6.73535 1
gene 2 343 1603 -5.02082 0 6779 -5.02082 1
gene 2 13 1466 1.87892 0 6794 1.87892 1
gene 1 1049 1704 2.54349 0 6800 2.54349 1
gene 1 1704 208 2.83305 0 6801 2.83305 1
gene 1 476 1049 3.25755 0 6883 3.25755 1
gene 1 23 1735 -7.75577 0 6924 -7.75577 1
gene 1 1735 298 -3.47374 0 6925 -3.47374 1
gene 2 1168 1630 -3.98164 0 7075 -3.98164 1
gene 1 980 1784 -8 0 7103 -8 1
gene 1 1784 378 -5.41068 0 7104 -5.41068 1
gene 2 3 1313 -1.64027 0 7226 -1.64027 1
gene 2 697 1831 -1.19098 0 7306 -1.19098 1
gene 2 1831 1313 1.20455 0 7307 1.20455 1
gene 3 396 149 -3.31532 0 7312 -3.31532 1
gene 2 18 1840 -0.186369 0 7337 -0.186369 1
gene 2 1840 1250 -3.26979 0 7338 -3.26979 1
gene 1 18 539 5.92319 0 7625 5.92319 1
gene 2 1250 1931 -1.41713 0 7638 -1.41713 1
gene 2 1931 1168 4.85045 0 7639 4.85045 1
gene 3 1647 1515 1.84792 0 7706 1.84792 1
gene 3 149 1965 4.15008 0 7765 4.15008 1
gene 3 1965 26 5.0849 0 7766 5.0849 1
gene 3 15 752 3.15264 0 7793 3.15264 1
gene 3 1965 1969 -2.58826 0 7810 -2.58826 1
gene 3 1969 26 -0.307719 0 7811 -0.307719 1
gene 1 1647 1466 -2.05783 0 7917 -2.05783 1
gene 2 298 396 5.14251 0 7979 5.14251 1
gene 1 1840 1603 2.74169 0 7987 2.74169 1
gene 1 1250 298 7.94368 0 8008 7.94368 1
gene 3 8 974 3.40559 0 8014 3.40559 1
gene 1 2 1372 5.56556 0 8271 5.56556 1
gene 3 22 208 3.69436 0 8304 3.69436 1
gene 3 298 2090 -7.3044 0 8330 -7.3044 1
gene 3 2090 476 2.93964 0 8331 2.93964 1
gene 1 4 1931 -4.92434 0 8359 -4.92434 1
gene 3 4 2132 7.6983 0 8475 7.6983 1
gene 3 2132 149 -7.91821 0 8476 -7.91821 1
gene 1 4 1412 5.40745 0 8571 5.40745 1
gene 2 19 1704 4.07098 0 8676 4.07098 1
gene 1 772 1603 6.6516 0 8679 6.6516 1
gene 3 390 2181 -7.71796 0 8692 -7.71796 1
gene 3 2181 772 -4.92439 0 8693 -4.92439 1
gene 2 17 1372 2.88316 0 8799 2.88316 1
gene 2 1587 2090 -5.47034 0 8954 -5.47034 1
gene 1 675 2253 -2.88062 0 8984 -2.88062 1
gene 1 2253 25 0.0316322 0 8985 0.0316322 1
gene 1 752 1328 -0.179087 0 9107 -0.179087 1
gene 3 1412 390 -5.6211 0 9192 -5.6211 1
gene 1 9 2314 -3.60117 0 9197 -3.60117 1
gene 1 2314 876 -8 0 9198 -8 1
gene 3 1784 1466 -3.12613 0 9264 -3.12613 1
gene 2 7 2253 4.6819 0 9280 4.6819 1
gene 1 1515 2333 3.34106 0 9307 3.34106 1
gene 1 2333 390 -5.47597 0 9308 -5.47597 1
gene 3 24 1412 -4.39072 0 9405 -4.39072 1
gene 3 396 2381 -1.82483 0 9490 -1.82483 1
gene 3 2381 120 0.243667 0 9491 0.243667 1
gene 2 4 56 5.88316 0 9509 5.88316 1
gene 1 13 1313 -1.1792 0 9549 -1.1792 1
gene 2 4 2394 4.87154 0 9566 4.87154 1
gene 2 2394 390 -1.27561 0 9567 -1.27561 1
gene 2 9 27 -3.05891 0 9640 -3.05891 1
gene 3 10 2420 5.74936 0 9656 5.74936 1
gene 3 2420 772 0.0538388 0 9657 0.0538388 1
gene 1 27 203 4.71747 0 9850 4.71747 1
gene 1 1207 1969 -6.23941 0 9864 -6.23941 1
gene 3 203 2478 -5.88753 0 9896 -5.88753 1
gene 2 2478 25 -7.27415 0 9897 -7.27415 1
gene 1 2314 675 -0.291318 0 9915 -0.291318 1
gene 2 18 2489 0.879539 0 9927 0.879539 1
gene 1 2489 26 -3.03683 0 9928 -3.03683 1
gene 3 744 1969 6.61361 0 9980 6.61361 1
gene 1 476 1965 0.905878 0 10108 0.905878 1
gene 3 2181 2253 3.61872 0 10137 3.61872 1
gene 1 1515 2543 -6.35951 0 10150 -6.35951 1
gene 1 2543 390 -4.44046 0 10151 -4.44046 1
gene 3 6 1207 -2.89498 0 10428 -2.89498 1
gene 3 2489 56 -4.96851 0 10444 -4.96851 1
gene 2 390 2631 0.760573 0 10456 0.760573 1
gene 2 2631 26 5.85823 0 10457 5.85823 1
gene 2 2489 1969 2.68755 0 10470 2.68755 1
gene 2 7 675 -4.95445 0 10587 -4.95445 1
gene 1 149 2676 2.40027 0 10636 2.40027 1
gene 3 2676 974 -2.71108 0 10637 -2.71108 1
gene 3 1123 980 -2.9646 0 10691 -2.9646 1
gene 2 13 2090 -3.62382 0 10721 -3.62382 1
gene 1 2631 2381 -6.41926 0 10772 -6.41926 1
gene 1 1735 2708 -3.52373 0 10788 -3.52373 1
gene 1 2708 298 -6.45433 0 10789 -6.45433 1
gene 3 539 772 1.70417 0 10878 1.70417 1
gene 1 1207 2394 -1.27174 0 10956 -1.27174 1
gene 1 1313 2765 -0.55082 0 11010 -0.55082 1
gene 1 2765 26 -0.601537 0 11011 -0.601537 1
gene 1 4 2420 2.29732 0 11143 2.29732 1
gene 3 298 2806 -2.20697 0 11170 -2.20697 1
gene 3 2806 476 -4.1627 0 11171 -4.1627 1
gene 1 286 2834 -4.05078 0 11248 -4.05078 1
gene 1 2834 390 -3.04311 0 11249 -3.04311 1
gene 2 10 203 6.17159 0 11267 6.17159 1
gene 3 1587 1647 4.20991 0 11457 4.20991 1
gene 2 1603 980 -7.91509 0 11495 -7.91509 1
gene 2 56 2931 3.07851 0 11646 3.07851 1
gene 2 2931 286 -2.34225 0 11647 -2.34225 1
gene 3 2381 1784 -6.09724 0 11675 -6.09724 1
gene 3 526 539 -1.56153 0 11843 -1.56153 1
gene 1 23 2986 -5.6572 0 11854 -5.6572 1
gene 1 2986 298 -0.372891 0 11855 -0.372891 1
gene 3 697 3001 -1.70338 0 11906 -1.70338 1
gene 3 3001 539 -5.77856 0 11907 -5.77856 1
gene 3 2394 2489 -2.67239 0 11949 -2.67239 1
gene 3 21 3025 -2.43506 0 11976 -2.43506 1
gene 3 3025 56 -2.43267 0 11977 -2.43267 1
gene 3 5 390 -0.564544 0 12075 -0.564544 1
gene 1 3025 208 -5.29642 0 12134 -5.29642 1
gene 3 6 2631 -2.41176 0 12169 -2.41176 1
gene 3 2181 3078 -5.27155 0 12203 -5.27155 1
gene 3 3078 2253 -2.97294 0 12204 -2.97294 1
gene 3 21 1313 1.07001 0 12405 1.07001 1
gene 2 343 3134 1.36223 0 12416 1.36223 1
gene 2 3134 1603 3.25262 0 12417 3.25262 1
gene 2 459 3145 -5.33142 0 12465 -5.33142 1
gene 2 3145 26 3.44593 0 12466 3.44593 1
gene 1 15 298 6.04718 0 12482 6.04718 1
gene 1 27 25 -2.06892 0 12643 -2.06892 1
gene 3 24 1784 3.5488 0 12700 3.5488 1
gene 3 2333 396 -7.10837 0 12720 -7.10837 1
gene 3 1372 2253 -5.1974 0 12760 -5.1974 1
gene 1 1630 2834 1.89324 0 12793 1.89324 1
gene 2 3145 3222 4.35088 0 12810 4.35088 1
gene 2 3222 26 6.64503 0 12811 6.64503 1
gene 3 25 1965 -8 0 12932 -8 1
gene 2 1831 3254 -1.75832 0 12946 -1.75832 1
gene 2 3254 1313 -1.67293 0 12947 -1.67293 1
gene 1 24 974 0.95184 0 13017 0.95184 1
gene 1 2708 203 -1.62595 0 13033 -1.62595 1
gene 2 56 2676 1.0041 0 13048 1.0041 1
gene 1 396 3001 7.45974 0 13061 7.45974 1
gene 3 24 3278 3.72737 0 13071 3.72737 1
gene 1 3278 26 1.57761 0 13072 1.57761 1
gene 2 19 1931 -0.930404 0 13228 -0.930404 1
gene 3 2333 980 2.69774 0 13562 2.69774 1
gene 1 27 3407 3.52469 0 13591 3.52469 0
gene 1 3407 25 0.0152292 0 13592 0.0152292 1
gene 3 15 974 -3.10058 0 13615 -3.10058 1
gene 1 1207 3414 -0.25339 0 13629 -0.25339 1
gene 1 3414 1969 1.58362 0 13630 1.58362 1
gene 2 15 2394 3.64623 0 13645 3.64623 1
gene 3 27 2420 0.693507 0 13687 0.693507 1
gene 3 772 3407 0.125413 0 13727 0.125413 1
gene 2 1 2181 2.92175 0 13892 2.92175 1
gene 2 2333 3484 0.871029 0 13908 0.871029 1
gene 2 3484 980 0.521845 0 13909 0.521845 1
gene 1 476 974 0.503537 0 13919 0.503537 1
gene 3 3078 3497 2.10322 0 13964 2.10322 1
gene 3 3497 2253 7.94574 0 13965 7.94574 1
gene 1 1049 3407 2.66641 0 14021 2.66641 1
gene 3 21 1168 4.77038 0 14028 4.77038 1
gene 3 18 2931 -0.37739 0 14169 -0.37739 1
gene 2 3145 3554 -2.75855 0 14212 -2.75855 1
gene 2 3554 3222 -1.08238 0 14213 -1.08238 1
gene 3 3 1603 -6.74173 0 14253 -6.74173 1
gene 3 120 3484 -1.82598 0 14445 -1.82598 1
gene 1 2676 3134 5.74891 0 14510 5.74891 1
gene 2 17 3627 4.7684 0 14535 4.7684 1
gene 2 3627 1372 1.56984 0 14536 1.56984 1
gene 3 847 1965 -1.10771 0 14666 -1.10771 1
gene 2 19 3667 -3.13598 0 14677 -3.13598 1
gene 2 3667 1931 -2.90042 0 14678 -2.90042 1
gene 2 120 3674 0.377055 0 14704 0.377055 1
gene 2 3674 25 -2.70287 0 14705 -2.70287 1
gene 3 3278 1704 -0.215899 0 14761 -0.215899 1
gene 3 3278 3695 -5.55736 0 14785 -5.55736 1
gene 3 3695 1704 5.59652 0 14786 5.59652 1
gene 1 2834 3713 -2.13537 0 14849 -2.13537 1
gene 1 3713 390 1.04488 0 14850 1.04488 1
gene 3 2420 3722 -2.38422 0 14869 -2.38422 1
gene 3 3722 772 -1.36917 0 14870 -1.36917 1
gene 2 3674 2381 -1.18261 0 15061 -1.18261 1
gene 3 7 2132 -1.8448 0 15085 -1.8448 1
gene 1 744 675 1.23092 0 15103 1.23092 1
gene 3 5 3785 -3.35834 0 15116 -3.35834 1
gene 3 3785 26 -0.0905299 0 15117 -0.0905299 1
gene 3 16 3713 -3.23952 0 15129 -3.23952 1
gene 3 744 3839 -2.79549 0 15301 -2.79549 1
gene 3 3839 1969 -1.71842 0 15302 -1.71842 1
gene 1 10 378 -0.103613 0 15368 -0.103613 1
gene 2 14 3861 2.71525 0 15410 2.71525 1
gene 2 3861 120 2.51892 0 15411 2.51892 1
gene 3 3414 526 1.04303 0 15438 1.04303 1
gene 2 2181 1704 7.01867 0 15485 7.01867 1
gene 2 3627 2090 -3.29064 0 15675 -3.29064 1
gene 2 10 744 6.62789 0 15689 6.62789 1
gene 1 149 980 -5.45726 0 15691 -5.45726 1
gene 2 3414 2931 1.61068 0 15712 1.61068 1
gene 2 980 2478 -1.54708 0 15762 -1.54708 1
gene 1 149 3957 4.70106 0 15787 4.70106 1
gene 1 3957 980 -3.86455 0 15788 -3.86455 1
gene 3 24 3961 -4.39581 0 15799 -4.39581 1
gene 3 3961 3278 4.13258 0 15800 4.13258 1
gene 2 18 3981 -2.17643 0 15856 -2.17643 1
gene 2 3981 1250 -0.370815 0 15857 -0.370815 1
gene 3 1587 3987 -0.366655 0 15871 -0.366655 1
gene 3 3987 1647 4.85049 0 15872 4.85049 1
gene 2 2132 203 -0.348195 0 15882 -0.348195 1
gene 1 1735 3993 2.61984 0 15899 2.61984 1
gene 1 3993 298 -0.432763 0 15900 -0.432763 1
gene 2 3 4005 4.18561 0 15980 4.18561 1
gene 2 4005 25 5.14782 0 15981 5.14782 1
gene 2 6 4033 3.10421 0 16059 3.10421 1
gene 2 4033 26 1.06808 0 16060 1.06808 1
gene 1 2708 3785 2.9224 0 16154 2.9224 1
gene 2 2090 772 4.13047 0 16353 4.13047 1
gene 3 23 4114 -1.96588 0 16389 -1.96588 1
gene 1 4114 2986 -2.89101 0 16390 -2.89101 1
gene 1 3957 3134 2.51597 0 16411 2.51597 1
gene 2 3674 4148 0.155064 0 16527 0.155064 1
gene 2 4148 25 3.11047 0 16528 3.11047 1
gene 1 4 4151 3.41429 0 16538 3.41429 1
gene 1 4151 1931 4.58653 0 16539 4.58653 1
gene 2 14 4156 0.655205 0 16557 0.655205 1
gene 2 4156 3861 1.56922 0 16558 1.56922 1
gene 2 18 2333 -2.69812 0 16673 -2.69812 1
gene 3 2333 2420 -0.0660485 0 16698 -0.0660485 1
gene 3 396 4204 -2.18275 0 16737 -2.18275 1
gene 3 4204 149 -3.76572 0 16738 -3.76572 1
gene 1 459 1603 6.589 0 16980 6.589 1
gene 2 2765 974 -5.25932 0 16996 -5.25932 1
gene 2 3484 4285 4.02009 0 17080 4.02009 1
gene 2 4285 980 0.330526 0 17081 0.330526 1
gene 2 3554 3078 -3.89072 0 17112 -3.89072 1
gene 1 20 697 0.82012 0 17138 0.82012 1
gene 2 7 4315 -1.20045 0 17178 -1.20045 1
gene 2 4315 2253 0.561497 0 17179 0.561497 1
gene 1 3025 3722 -0.593424 0 17197 -0.593424 1
gene 2 4114 4315 -1.38715 0 17217 -1.38715 1
gene 1 17 675 5.08084 0 17288 5.08084 1
gene 3 18 1969 4.69706 0 17320 4.69706 1
gene 1 675 4346 4.1945 0 17332 4.1945 1
gene 1 4346 2253 1.1472 0 17333 1.1472 1
gene 2 3 4356 3.10107 0 17361 3.10107 1
gene 2 4356 4005 0.885248 0 17362 0.885248 1
gene 3 3785 2132 2.06765 0 17395 2.06765 1
gene 3 3497 4368 5.17966 0 17404 5.17966 1
gene 3 4368 2253 5.9195 0 17405 5.9195 1
gene 2 23 3254 -4.01907 0 17485 -4.01907 1
gene 1 3695 4315 -7.53827 0 17503 -7.53827 1
gene 3 396 3278 -3.81793 0 17582 -3.81793 1
gene 2 752 4156 -0.477673 0 17611 -0.477673 1
gene 3 15 396 -2.27996 0 17645 -2.27996 1
gene 1 4156 2333 2.92341 0 17689 2.92341 1
gene 3 1647 343 -0.674922 0 17696 -0.674922 1
gene 2 1735 1412 -2.31665 0 17770 -2.31665 1
gene 1 286 4472 3.59526 0 17820 3.59526 1
gene 1 4472 25 -4.38202 0 17821 -4.38202 1
gene 1 3001 390 5.63747 0 17889 5.63747 1
gene 3 10 4494 1.96229 0 17915 1.96229 1
gene 3 4494 120 -0.839587 0 17916 -0.839587 1
gene 1 3497 3861 2.9156 0 17941 2.9156 1
gene 1 1840 3278 0.339387 0 17947 0.339387 1
gene 1 18 2543 0.603223 0 18018 0.603223 1
gene 2 13 208 -3.65297 0 18043 -3.65297 1
gene 2 286 1704 -3.28132 0 18217 -3.28132 1
gene 1 149 1704 -1.9171 0 18234 -1.9171 1
gene 2 2765 3961 -2.76132 0 18263 -2.76132 1
gene 3 24 4588 2.97839 0 18276 2.97839 1
gene 3 4588 3961 -0.159591 0 18277 -0.159591 1
gene 3 149 4602 0.447898 0 18325 0.447898 0
gene 3 4602 208 1.55904 0 18326 1.55904 1
gene 1 18 4607 5.94606 0 18344 5.94606 1
gene 1 4607 539 -1.91487 0 18345 -1.91487 1
gene 1 1049 4614 -2.53 0 18367 -2.53 1
gene 1 4614 203 4.13561 0 18368 4.13561 1
gene 3 2489 752 -0.638216 0 18387 -0.638216 1
gene 3 2181 3961 -3.06909 0 18513 -3.06909 1
gene 1 876 390 -4.82673 0 18534 -4.82673 1
gene 3 539 4662 6.25504 0 18558 6.25504 1
gene 3 4662 772 0.660796 0 18559 0.660796 1
gene 3 3025 4662 -1.64706 0 18580 -1.64706 1
gene 3 2181 4702 0.433988 0 18681 0.433988 1
gene 3 4702 772 -7.01125 0 18682 -7.01125 1
gene 3 396 2090 0.0456315 0 18691 0.0456315 1
gene 2 3134 4472 -3.91634 0 18853 -3.91634 1
gene 1 15 4745 1.98076 0 18865 1.98076 1
gene 1 4745 149 2.15426 0 18866 2.15426 1
gene 2 2181 4750 -0.0822739 0 18882 -0.0822739 1
gene 2 4750 1704 -1.76037 0 18883 -1.76037 1
gene 3 2 4753 -4.07071 0 18893 -4.07071 1
gene 3 4753 974 -2.57758 0 18894 -2.57758 1
gene 2 752 2806 -2.3457 0 18965 -2.3457 1
gene 1 27 3713 5.7216 0 19040 5.7216 1
gene 3 1587 4148 0.844572 0 19178 0.844572 1
gene 3 2181 4839 -3.70824 0 19198 -3.70824 1
gene 3 4839 3078 1.27579 0 19199 1.27579 1
gene 1 15 3134 5.072 0 19214 5.072 1
gene 2 3254 4849 2.61554 0 19229 2.61554 1
gene 2 4849 1313 2.00419 0 19230 2.00419 1
gene 1 56 343 -0.721033 0 19247 -0.721033 1
gene 1 4156 4870 3.12651 0 19290 3.12651 1
gene 1 4870 2333 -1.79243 0 19291 -1.79243 1
gene 2 298 974 0.471602 0 19476 0.471602 1
gene 1 4114 4924 3.37191 0 19504 3.37191 1
gene 1 4924 2986 2.78315 0 19505 2.78315 1
gene 2 3987 2489 2.43887 0 19520 2.43887 1
gene 3 22 4931 -0.173385 0 19529 -0.173385 1
gene 3 4931 675 0.73526 0 19530 0.73526 1
gene 3 390 4944 -3.50249 0 19564 -3.50249 1
gene 3 4944 2181 -3.80464 0 19565 -3.80464 1
gene 1 24 3713 -0.727616 0 19579 -0.727616 1
gene 3 2314 1647 2.14159 0 19672 2.14159 1
gene 3 3627 3667 -1.97259 0 19781 -1.97259 1
gene 3 20 390 1.06557 0 19794 1.06557 1
gene 2 4356 4870 -2.21629 0 19910 -2.21629 1
gene 1 10 5033 7.11119 0 19921 7.11119 1
gene 1 5033 526 -6.13178 0 19922 -6.13178 1
gene 3 3981 1603 0.0248119 0 19949 0.0248119 1
gene 2 526 2676 2.60715 0 20062 2.60715 1
gene 2 1250 5074 -0.675114 0 20077 -0.675114 1
gene 2 5074 1931 -0.080182 0 20078 -0.080182 1
gene 1 1840 2132 5.16117 0 20105 5.16117 1
gene 3 4368 1969 1.75397 0 20193 1.75397 1
gene 3 744 5142 -2.10727 0 20355 -2.10727 1
gene 3 5142 1969 5.47222 0 20356 5.47222 1
gene 2 203 5146 3.81296 0 20369 3.81296 1
gene 2 5146 2478 0.20557 0 20370 0.20557 1
gene 1 2253 5178 2.81396 0 20509 2.81396 1
gene 1 5178 25 -3.22947 0 20510 -3.22947 1
gene 3 3 5200 -4.71262 0 20594 -4.71262 1
gene 3 5200 1603 -6.95501 0 20595 -6.95501 1
gene 3 2090 3484 -3.62384 0 20620 -3.62384 1
gene 3 3674 2631 -6.59271 0 20660 -6.59271 1
gene 2 459 5240 -0.916966 0 20724 -0.916966 1
gene 2 5240 203 1.58102 0 20725 1.58102 1
gene 1 286 5244 -2.2978 0 20746 -2.2978 1
gene 1 5244 526 -0.150468 0 20747 -0.150468 1
gene 3 1931 4285 -0.51628 0 20773 -0.51628 1
gene 3 1412 4839 -0.695322 0 20961 -0.695322 1
gene 2 3134 3278 -0.490575 0 20986 -0.490575 1
gene 2 2333 5347 3.36574 0 21125 3.36574 1
gene 2 5347 3484 2.42906 0 21126 2.42906 1
gene 3 4702 1466 0.40883 0 21274 0.40883 1
gene 2 2986 980 0.929046 0 21290 0.929046 1
gene 1 1515 5406 0.0916637 0 21342 0.0916637 1
gene 1 5406 390 -4.64571 0 21343 -4.64571 1
gene 1 149 5413 0.00218833 0 21363 0.00218833 1
gene 1 5413 3957 7.25685 0 21364 7.25685 1
gene 2 22 2765 -2.84866 0 21548 -2.84866 1
gene 3 24 5462 2.04497 0 21568 2.04497 1
gene 3 5462 3961 -1.96237 0 21569 -1.96237 1
gene 1 5406 3695 1.52753 0 21612 1.52753 1
gene 3 4472 3554 1.62229 0 21625 1.62229 1
gene 2 744 4931 0.242969 0 21872 0.242969 1
gene 3 16 5550 1.84936 0 21922 1.84936 1
gene 3 5550 3713 3.73833 0 21923 3.73833 1
gene 1 6 1412 -1.26774 0 21937 -1.26774 1
gene 3 5240 1372 -1.2604 0 22192 -1.2604 1
gene 2 56 5630 -2.43786 0 22229 -2.43786 1
gene 2 5630 26 1.20415 0 22230 1.20415 1
gene 1 16 5640 -0.725583 0 22265 -0.725583 1
gene 1 5640 1313 6.82709 0 22266 6.82709 1
gene 1 2986 5662 -0.456929 0 22349 -0.456929 1
gene 1 5662 298 -6.51956 0 22350 -6.51956 1
gene 1 1630 4588 -1.32283 0 22523 -1.32283 1
gene 3 675 4702 -4.38889 0 22538 -4.38889 1
gene 1 4745 3407 0.630106 0 22586 0.630106 1
gene 2 11 5732 2.34784 0 22625 2.34784 1
gene 2 5732 26 -0.46782 0 22626 -0.46782 1
gene 2 4148 5734 1.74027 0 22635 1.74027 1
gene 2 5734 25 4.72949 0 22636 4.72949 1
gene 2 3961 4285 -0.335542 0 22680 -0.335542 1
gene 3 2765 4346 0.602774 0 22720 0.602774 1
gene 2 5142 2181 0.241546 0 22785 0.241546 1
gene 1 675 5784 -0.323342 0 22824 -0.323342 1
gene 1 5784 2253 -2.78281 0 22825 -2.78281 1
gene 3 3627 476 1.07786 0 22872 1.07786 1
gene 2 2394 5807 0.786674 0 22908 0.786674 1
gene 2 5807 390 1.70814 0 22909 1.70814 1
gene 2 1831 459 -1.04523 0 22927 -1.04523 1
gene 3 3987 1831 -0.104831 0 22966 -0.104831 1
gene 3 2834 980 -0.620001 0 22980 -0.620001 1
gene 3 3484 4148 0.224585 0 23012 0.224585 1
gene 3 5 5849 -0.748874 0 23041 -0.748874 1
gene 3 5849 25 -3.81274 0 23042 -3.81274 1
gene 2 18 5868 2.35076 0 23098 2.35076 1
gene 2 5868 1840 2.14767 0 23099 2.14767 1
gene 2 3695 4662 -1.61693 0 23144 -1.61693 1
gene 2 2931 5732 -0.208072 0 23233 -0.208072 1
gene 2 203 5899 0.333155 0 23243 0.333155 1
gene 2 5899 5146 4.18327 0 23244 4.18327 1
gene 2 4 5912 -0.57788 0 23315 -0.57788 1
gene 2 5912 390 -1.59369 0 23316 -1.59369 1
gene 3 23 2631 -4.65406 0 23405 -4.65406 1
gene 2 16 5935 -1.14418 0 23426 -1.14418 1
gene 2 5935 1049 2.20951 0 23427 2.20951 1
gene 2 5868 5939 4.61353 0 23439 4.61353 1
gene 2 5939 1840 -1.63453 0 23440 -1.63453 1
gene 3 3 5948 3.23683 0 23477 3.23683 1
gene 3 5948 5200 -3.19101 0 23478 -3.19101 1
gene 2 4148 5963 0.52712 0 23527 0.52712 1
gene 2 5963 5734 0.685246 0 23528 0.685246 1
gene 3 149 5976 0.482421 0 23572 0.482421 1
gene 3 5976 974 -3.1563 0 23573 -3.1563 1
gene 1 3 208 -1.89825 0 23766 -1.89825 1
gene 2 4114 6025 1.24504 0 23796 1.24504 1
gene 2 6025 4315 -3.09651 0 23797 -3.09651 1
gene 1 2986 2314 -0.787935 0 23988 -0.787935 1
gene 2 2394 6111 -1.03526 0 24153 -1.03526 1
gene 2 6111 5807 0.899 0 24154 0.899 1
gene 1 396 6116 2.16753 0 24171 2.16753 1
gene 1 6116 120 -3.12749 0 24172 -3.12749 1
gene 2 1587 56 -0.754104 0 24205 -0.754104 1
gene 1 1207 6152 1.50258 0 24315 1.50258 1
gene 1 6152 1969 0.0870747 0 24316 0.0870747 1
gene 1 1784 476 -2.52827 0 24416 -2.52827 1
gene 2 298 6184 2.36689 0 24437 2.36689 1
gene 2 6184 396 2.93543 0 24438 2.93543 1
gene 2 5939 3145 -0.184783 0 24504 -0.184783 1
gene 1 5640 4151 -0.549895 0 24581 -0.549895 1
gene 3 2489 6225 1.47107 0 24599 1.47107 1
gene 3 6225 56 -0.216919 0 24600 -0.216919 1
gene 1 5948 4156 1.29113 0 24651 1.29113 1
gene 1 1328 6261 -1.14157 0 24766 -1.14157 1
gene 1 6261 526 2.18397 0 24767 2.18397 1
gene 1 4931 539 -3.40766 0 24852 -3.40766 1
gene 2 1840 6307 -1.15643 0 24962 -1.15643 1
gene 2 6307 1250 -4.15879 0 24963 -4.15879 1
gene 3 149 6312 3.36953 0 24979 3.36953 1
gene 3 6312 4602 -1.69945 0 24980 -1.69945 1
gene 3 3 3674 -0.357564 0 25009 -0.357564 1
gene 2 6 5807 1.44039 0 25159 1.44039 1
gene 3 3695 6360 3.78359 0 25171 3.78359 1
gene 3 6360 1704 5.11395 0 25172 5.11395 1
gene 3 1313 5550 -1.49773 0 25183 -1.49773 1
gene 3 2181 6369 2.77665 0 25199 2.77665 1
gene 3 6369 772 -4.99874 0 25200 -4.99874 1
gene 1 675 1965 0.545286 0 25387 0.545286 1
gene 1 2676 3713 0.786166 0 25486 0.786166 1
gene 1 4285 25 1.19418 0 25505 1.19418 1
gene 1 1735 3861 1.49483 0 25511 1.49483 1
gene 2 5912 5630 1.89101 0 25542 1.89101 1
gene 1 13 5976 4.44066 0 25646 4.44066 1
gene 1 1250 27 -0.471588 0 25679 -0.471588 1
gene 3 1466 6546 -0.653965 0 25845 -0.653965 1
gene 3 6546 120 2.15239 0 25846 2.15239 1
gene 1 5347 980 -0.192247 0 25859 -0.192247 1
gene 2 15 5662 -3.11382 0 25874 -3.11382 1
gene 3 4745 3713 -1.50148 0 26014 -1.50148 1
gene 1 2631 6597 2.24965 0 26108 2.24965 1
gene 1 6597 2381 2.3236 0 26109 2.3236 1
gene 2 2765 6611 -1.01094 0 26152 -1.01094 1
gene 2 6611 3961 -4.02239 0 26153 -4.02239 1
gene 1 1168 6635 0.625804 0 26240 0.625804 1
gene 1 6635 752 -3.92159 0 26241 -3.92159 1
gene 2 5899 6672 -1.78303 0 26415 -1.78303 1
gene 2 6672 5146 5.4657 0 26416 5.4657 1
gene 3 4033 876 -0.227854 0 26427 -0.227854 1
gene 3 1630 3254 -1.18083 0 26431 -1.18083 1
gene 2 19 6697 1.57268 0 26542 1.57268 1
gene 2 6697 1704 2.35523 0 26543 2.35523 1
gene 1 3145 120 0.073846 0 26702 0.073846 0
gene 2 2181 6741 -1.32825 0 26728 -1.32825 1
gene 2 6741 1704 5.16559 0 26729 5.16559 1
gene 2 3 6742 -1.99336 0 26735 -1.99336 1
gene 2 6742 4356 -0.720471 0 26736 -0.720471 1
gene 3 3674 6752 2.85866 0 26781 2.85866 1
gene 3 6752 2631 -3.06158 0 26782 -3.06158 1
gene 2 5939 5074 -3.30036 0 26980 -3.30036 1
gene 3 56 4750 -4.99961 0 27034 -4.99961 1
gene 1 1207 6824 0.786717 0 27058 0.786717 1
gene 1 6824 6152 2.79815 0 27059 2.79815 1
gene 3 390 6828 0.738382 0 27070 0.738382 1
gene 3 6828 343 2.77762 0 27071 2.77762 1
gene 2 4924 4033 0.394928 0 27096 0.394928 1
gene 3 4356 3839 -3.43948 0 27130 -3.43948 1
gene 3 2834 1969 2.3175 0 27333 2.3175 1
gene 1 2253 6911 0.165418 0 27357 0.165418 1
gene 1 6911 25 0.195895 0 27358 0.195895 1
gene 2 7 6111 -0.338647 0 27391 -0.338647 1
gene 1 2834 6932 2.22529 0 27425 2.22529 1
gene 1 6932 3713 -3.12903 0 27426 -3.12903 1
gene 3 1630 6116 -0.151715 0 27565 -0.151715 1
gene 1 5 6546 -1.28749 0 27610 -1.28749 1
gene 2 2314 3497 -1.51692 0 27665 -1.51692 1
gene 2 1965 4285 -4.53791 0 27692 -4.53791 1
gene 2 3414 4602 2.04796 0 27707 2.04796 1
gene 3 5935 5074 0.73606 0 27922 0.73606 1
gene 1 1250 6225 -0.0482063 0 27930 -0.0482063 1
gene 2 396 7057 -2.39985 0 27938 -2.39985 1
gene 2 7057 26 2.2121 0 27939 2.2121 1
gene 3 16 7077 -1.04936 0 28004 -1.04936 1
gene 1 7077 5640 2.17992 0 28005 2.17992 1
gene 3 298 7084 3.48367 0 28025 3.48367 1
gene 3 7084 847 -6.07444 0 28026 -6.07444 1
gene 2 2333 7103 -1.59465 0 28087 -1.59465 1
gene 2 7103 5347 -0.981561 0 28088 -0.981561 1
gene 1 1313 7106 -0.998994 0 28100 -0.998994 1
gene 1 7106 390 -7.72536 0 28101 -7.72536 1
gene 1 286 7111 0.342208 0 28113 0.342208 1
gene 1 7111 5244 1.70809 0 28114 1.70809 1
gene 1 2986 7139 1.43222 0 28202 1.43222 1
gene 1 7139 5662 -1.21687 0 28203 -1.21687 1
gene 3 3839 120 -0.880634 0 28233 -0.880634 1
gene 2 2489 7146 0.116933 0 28258 0.116933 1
gene 2 7146 1969 3.82712 0 28259 3.82712 1
gene 1 3722 6360 0.0909849 0 28309 0.0909849 1
gene 3 3987 2420 0.596361 0 28322 0.596361 1
gene 2 1587 7170 4.65831 0 28352 4.65831 1
gene 2 7170 2090 -3.69501 0 28353 -3.69501 1
gene 2 7 4151 -3.08838 0 28509 -3.08838 1
gene 3 772 7210 0.603146 0 28532 0.603146 1
gene 3 7210 25 0.946363 0 28533 0.946363 1
gene 1 4204 5976 -1.59615 0 28619 -1.59615 1
gene 2 2708 3145 1.48318 0 28742 1.48318 1
gene 1 7210 2253 0.772531 0 28796 0.772531 1
gene 1 378 4368 0.0450262 0 28838 0.0450262 1
gene 1 4745 1603 1.6389 0 28868 1.6389 1
gene 1 3484 5963 -1.12138 0 28943 -1.12138 1
gene 1 675 7315 -1.32292 0 28964 -1.32292 1
gene 1 7315 25 -0.57712 0 28965 -0.57712 1
gene 1 2489 4285 -2.33733 0 29076 -2.33733 1
gene 2 22 7349 1.74419 0 29085 1.74419 1
gene 2 7349 2765 -1.37604 0 29086 -1.37604 1
gene 2 6369 1603 -1.34284 0 29113 -1.34284 1
gene 3 3713 120 -1.13942 0 29125 -1.13942 1
gene 1 23 7358 0.218198 0 29143 0.218198 1
gene 1 7358 298 -1.69995 0 29144 -1.69995 1
gene 3 5807 203 1.45321 0 29173 1.45321 1
gene 1 3957 7372 0.723213 0 29192 0.723213 1
gene 2 7372 3134 0.446233 0 29193 0.446233 1
gene 1 3 7377 -0.210263 0 29213 -0.210263 1
gene 1 7377 1168 -1.77118 0 29214 -1.77118 1
gene 3 3 7384 0.66043 0 29230 0.66043 1
gene 3 7384 3674 0.836545 0 29231 0.836545 1
gene 3 396 6611 -2.47354 0 29328 -2.47354 1
gene 2 3001 5899 -2.92082 0 29387 -2.92082 1
gene 3 18 7417 2.89824 0 29404 2.89824 1
gene 3 7417 25 0.626731 0 29405 0.626731 1
gene 1 2676 7423 -2.22301 0 29422 -2.22301 1
gene 1 7423 3134 7.7839 0 29423 7.7839 1
gene 1 675 7471 1.02712 0 29581 1.02712 1
gene 1 7471 5784 0.35767 0 29582 0.35767 1
gene 2 18 7478 3.08497 0 29606 3.08497 1
gene 2 7478 2489 -0.994369 0 29607 -0.994369 1
gene 2 6307 5200 1.03313 0 29656 1.03313 1
gene 1 7358 5784 -3.62361 0 29711 -3.62361 1
gene 3 7210 7506 0.754573 0 29729 0.754573 1
gene 3 7506 25 1.61498 0 29730 1.61498 1
gene 3 24 7524 2.51476 0 29794 2.51476 1
gene 3 7524 3961 0.881946 0 29795 0.881946 1
gene 3 3278 6369 2.31113 0 29811 2.31113 1
gene 3 4602 4005 -1.42227 0 29866 -1.42227 1
gene 2 876 1630 0.931446 0 29992 0.931446 1
gene 3 4931 7576 2.2738 0 30019 2.2738 1
gene 3 7576 675 -4.2312 0 30020 -4.2312 1
gene 1 5033 5948 1.0611 0 30093 1.0611 1
gene 2 4356 7601 2.59057 0 30108 2.59057 1
gene 2 7601 4005 2.36742 0 30109 2.36742 1
gene 2 5033 1969 1.87769 0 30125 1.87769 1
gene 3 876 6828 0.871903 0 30143 0.871903 1
gene 2 5347 6111 -1.39033 0 30239 -1.39033 1
gene 1 2708 56 -1.77796 0 30271 -1.77796 1
gene 1 18 7649 0.381415 0 30297 0.381415 1
gene 2 7649 1250 6.9273 0 30298 6.9273 1
gene 1 8 5630 0.744442 0 30413 0.744442 1
gene 2 1647 2489 0.355444 0 30555 0.355444 1
gene 2 5413 2253 0.265507 0 30584 0.265507 1
gene 3 3987 343 -2.28929 0 30600 -2.28929 1
gene 3 4924 5732 -1.72895 0 30662 -1.72895 1
gene 1 1049 7744 2.45799 0 30681 2.45799 1
gene 1 7744 1704 2.7054 0 30682 2.7054 1
gene 2 23 7751 -1.01402 0 30704 -1.01402 1
gene 2 7751 1049 0.387882 0 30705 0.387882 1
gene 2 539 3861 -2.38959 0 30721 -2.38959 1
gene 2 1840 7757 2.13589 0 30730 2.13589 1
gene 2 7757 1250 -5.09655 0 30731 -5.09655 1
gene 3 1647 5074 2.2919 0 30774 2.2919 1
gene 2 120 7783 2.213 0 30816 2.213 1
gene 2 7783 3674 -3.87179 0 30817 -3.87179 1
gene 2 6261 5963 -1.48011 0 30843 -1.48011 1
gene 2 6824 1328 0.5245 0 30877 0.5245 1
gene 1 1168 7803 1.94274 0 30901 1.94274 1
gene 2 7803 6635 -0.228689 0 30902 -0.228689 1
gene 2 7377 5734 1.73061 0 30927 1.73061 1
gene 1 1515 7821 2.72509 0 30959 2.72509 1
gene 1 7821 390 1.36381 0 30960 1.36381 1
gene 2 18 847 3.80092 0 30967 3.80092 1
gene 1 2834 7146 -1.122 0 31090 -1.122 1
gene 2 7 4750 0.236659 0 31105 0.236659 1
gene 1 11 4494 -0.352656 0 31142 -0.352656 1
gene 3 298 7858 0.676469 0 31157 0.676469 1
gene 3 7858 7084 0.570832 0 31158 0.570832 1
gene 2 3674 7744 -1.35724 0 31170 -1.35724 1
gene 1 2676 7861 2.7862 0 31177 2.7862 1
gene 1 7861 7423 -0.302196 0 31178 -0.302196 1
gene 2 1831 7883 -0.332071 0 31266 -0.332071 1
gene 2 7883 1313 -0.000353184 0 31267 -0.000353184 1
gene 2 1123 6261 -1.70298 0 31286 -1.70298 1
gene 3 298 7900 -0.846765 0 31321 -0.846765 1
gene 3 7900 2090 -7.68828 0 31322 -7.68828 1
gene 3 3981 7905 1.69401 0 31334 1.69401 1
gene 3 7905 1603 -5.36487 0 31335 -5.36487 1
gene 1 5912 2132 -0.464135 0 31358 -0.464135 1
gene 1 396 2806 -0.562821 0 31460 -0.562821 1
gene 2 2631 3484 2.79674 0 31512 2.79674 1
gene 3 4839 7960 0.100794 0 31537 0.100794 1
gene 3 7960 3078 -0.393631 0 31538 -0.393631 1
gene 3 23 876 -1.69434 0 31573 -1.69434 1
gene 1 675 8014 1.80571 0 31739 1.80571 1
gene 1 8014 2253 -2.95049 0 31740 -2.95049 1
gene 3 476 1466 2.36953 0 31797 2.36953 1
gene 3 18 8025 0.737764 0 31819 0.737764 1
gene 3 8025 7417 -1.35579 0 31820 -1.35579 1
gene 1 1840 8029 -0.883391 0 31833 -0.883391 1
gene 1 8029 2132 4.17945 0 31834 4.17945 0
gene 3 8029 8014 2.22868 0 31929 2.22868 1
gene 3 149 8060 1.40507 0 31944 1.40507 1
gene 3 8060 974 0.781486 0 31945 0.781486 1
gene 3 120 5732 -1.66115 0 32087 -1.66115 1
gene 2 5912 8099 -1.32725 0 32103 -1.32725 1
gene 2 8099 390 -1.3035 0 32104 -1.3035 1
gene 2 6225 27 -1.09234 0 32126 -1.09234 1
gene 2 7077 378 0.381224 0 32191 0.381224 1
gene 1 3484 3861 -0.475308 0 32212 -0.475308 1
gene 2 120 8123 0.367835 0 32224 0.367835 1
gene 2 8123 7783 -2.44643 0 32225 -2.44643 1
gene 1 7 7757 0.868087 0 32254 0.868087 1
gene 1 4931 6025 -0.186076 0 32280 -0.186076 1
gene 3 539 8146 -0.0957239 0 32307 -0.0957239 0
gene 3 8146 772 0.0510528 0 32308 0.0510528 1
gene 2 3484 6116 -0.848185 0 32340 -0.848185 1
gene 2 459 8178 1.07671 0 32437 1.07671 1
gene 2 8178 3145 -5.46355 0 32438 -5.46355 1
gene 2 7478 6741 1.72617 0 32460 1.72617 1
gene 3 2181 8182 3.52603 0 32490 3.52603 1
gene 3 8182 3961 -0.962571 0 32491 -0.962571 1
gene 3 4702 8186 1.1737 0 32502 1.1737 1
gene 3 8186 1466 0.908065 0 32503 0.908065 1
gene 2 18 876 0.49418 0 32531 0.49418 1
gene 3 3981 56 -0.257996 0 32659 -0.257996 1
gene 1 526 8238 1.1943 0 32680 1.1943 1
gene 1 8238 25 -7.38262 0 32681 -7.38262 1
gene 3 20 8243 1.39112 0 32696 1.39112 1
gene 3 8243 26 -1.38969 0 32697 -1.38969 1
gene 3 2765 3134 2.27929 0 32784 2.27929 1
gene 2 8123 8261 0.572334 0 32798 0.572334 1
gene 2 8261 7783 2.08422 0 32799 2.08422 1
gene 2 390 8279 1.44479 0 32860 1.44479 1
gene 2 8279 26 -0.58569 0 32861 -0.58569 1
gene 1 5178 6111 -0.171585 0 33101 -0.171585 1
gene 1 2543 8337 1.3901 0 33119 1.3901 1
gene 1 8337 390 2.0289 0 33120 2.0289 1
gene 1 7103 1603 -0.877683 0 33207 -0.877683 1
gene 1 1515 8382 1.1182 0 33297 1.1182 1
gene 1 8382 2333 2.33986 0 33298 2.33986 1
gene 3 4005 7106 -1.68444 0 33434 -1.68444 1
gene 3 675 8434 0.528077 0 33519 0.528077 1
gene 1 8434 8014 -0.861372 0 33520 -0.861372 1
gene 3 1587 3695 -2.572 0 33534 -2.572 1
gene 2 1831 8443 0.823068 0 33555 0.823068 1
gene 2 8443 1313 -0.369062 0 33556 -0.369062 1
gene 2 4005 6152 2.73625 0 33586 2.73625 1
gene 3 396 8488 0.717112 0 33725 0.717112 1
gene 3 8488 2381 -0.855043 0 33726 -0.855043 1
gene 2 3695 208 -2.46558 0 33841 -2.46558 1
gene 2 6752 7384 -1.34872 0 33873 -1.34872 1
gene 3 396 8533 0.551502 0 33897 0.551502 1
gene 3 8533 6611 -1.20998 0 33898 -1.20998 1
gene 1 4368 4839 0.936327 0 34016 0.936327 1
gene 2 120 8618 1.86852 0 34212 1.86852 1
gene 2 8618 3674 -3.01397 0 34213 -3.01397 1
gene 2 7417 6597 3.01043 0 34226 3.01043 1
gene 3 6824 6312 0.0246266 0 34274 0.0246266 1
gene 2 476 6741 -0.526464 0 34294 -0.526464 1
gene 2 6261 6697 -0.786898 0 34311 -0.786898 1
gene 2 4156 4750 -0.858778 0 34438 -0.858778 1
gene 1 1207 8673 1.03871 0 34452 1.03871 1
gene 1 8673 1969 2.04775 0 34453 2.04775 1
gene 1 4 8685 2.0015 0 34488 2.0015 1
gene 1 8685 4151 4.07709 0 34489 4.07709 1
gene 1 1735 8691 2.96654 0 34513 2.96654 1
gene 1 8691 298 -4.34086 0 34514 -4.34086 1
gene 3 4702 8696 2.38374 0 34536 2.38374 1
gene 3 8696 1466 -0.669694 0 34537 -0.669694 1
gene 1 7783 3484 -1.81645 0 34557 -1.81645 1
gene 3 8146 4148 -1.86467 0 34570 -1.86467 1
gene 1 5640 980 0.0971279 0 34874 0.0971279 1
gene 1 1704 8673 1.0224 0 34900 1.0224 1
gene 3 5939 3497 0.596775 0 34910 0.596775 1
gene 2 876 1168 1.71224 0 34929 1.71224 1
gene 1 24 8805 -2.14418 0 35022 -2.14418 1
gene 1 8805 974 0.888157 0 35023 0.888157 1
gene 1 5074 4753 4.02318 0 35035 4.02318 0
gene 2 5935 8832 1.19376 0 35118 1.19376 1
gene 2 8832 1049 0.0378901 0 35119 0.0378901 1
gene 3 1372 8833 2.95977 0 35125 2.95977 1
gene 3 8833 343 0.286374 0 35126 0.286374 1
gene 1 2931 7315 4.16273 0 35179 4.16273 1
gene 2 1 5784 1.01107 0 35292 1.01107 1
gene 3 6025 7210 -0.904346 0 35321 -0.904346 1
gene 1 2181 7106 -1.47469 0 35355 -1.47469 1
gene 1 1168 8914 -0.252004 0 35447 -0.252004 1
gene 1 8914 7803 -0.674806 0 35448 -0.674806 1
gene 2 8029 7576 -0.656817 0 35489 -0.656817 1
gene 2 23 7139 0.550359 0 35563 0.550359 1
gene 2 6307 8945 3.36618 0 35580 3.36618 1
gene 2 8945 5200 0.0407924 0 35581 0.0407924 1
gene 1 16 6360 0.481717 0 35624 0.481717 1
gene 3 4750 772 1.20321 0 35642 1.20321 1
gene 2 13 8972 0.335397 0 35669 0.335397 1
gene 2 8972 1466 -1.30316 0 35670 -1.30316 1
gene 2 1840 8977 1.86041 0 35687 1.86041 1
gene 2 8977 1250 -2.51382 0 35688 -2.51382 1
gene 3 11 3407 -0.688912 0 35852 -0.688912 1
gene 3 286 5630 0.710196 0 35886 0.710196 1
gene 1 4607 5200 0.405341 0 35999 0.405341 1
gene 1 4931 5807 0.679912 0 36163 0.679912 1
gene 2 203 9098 2.6225 0 36176 2.6225 1
gene 2 9098 5899 -0.0454675 0 36177 -0.0454675 1
gene 2 8178 9102 1.14352 0 36191 1.14352 1
gene 2 9102 3145 -3.76228 0 36192 -3.76228 1
gene 3 1372 9114 -2.17707 0 36231 -2.17707 1
gene 3 9114 2253 -4.1196 0 36232 -4.1196 1
gene 3 5784 1372 -1.28972 0 36278 -1.28972 1
gene 1 675 9144 0.621698 0 36342 0.621698 1
gene 1 9144 8434 -0.327158 0 36343 -0.327158 1
gene 3 390 9150 4.01822 0 36365 4.01822 1
gene 3 9150 2181 1.39219 0 36366 1.39219 1
gene 1 2931 9157 1.6537 0 36390 1.6537 1
gene 1 9157 7315 1.79766 0 36391 1.79766 1
gene 1 7803 4614 0.765722 0 36416 0.765722 1
gene 3 120 9175 3.18748 0 36457 3.18748 1
gene 3 9175 3484 0.0467685 0 36458 0.0467685 1
gene 3 2806 5178 0.287081 0 36485 0.287081 1
gene 2 752 9184 1.97731 0 36507 1.97731 1
gene 2 9184 4156 1.27566 0 36508 1.27566 1
gene 3 5 9188 -0.166649 0 36522 -0.166649 1
gene 3 9188 3785 -1.95751 0 36523 -1.95751 1
gene 2 3414 9192 -1.62527 0 36534 -1.62527 1
gene 2 9192 2931 2.51456 0 36535 2.51456 1
gene 1 1049 9202 1.29332 0 36576 1.29332 1
gene 1 9202 208 6.98913 0 36577 6.98913 1
gene 3 12 3222 -1.75586 0 36626 -1.75586 1
gene 2 1735 9263 -0.339872 0 36843 -0.339872 1
gene 2 9263 1412 -0.99488 0 36844 -0.99488 1
gene 2 6752 1969 1.59235 0 36873 1.59235 1
gene 3 4839 2253 -0.235293 0 36933 -0.235293 1
gene 3 3078 9317 0.598173 0 37030 0.598173 1
gene 3 9317 2253 -4.1275 0 37031 -4.1275 1
gene 2 5347 7384 -0.256759 0 37073 -0.256759 1
gene 3 5807 9326 1.61058 0 37097 1.61058 1
gene 3 9326 203 0.588743 0 37098 0.588743 1
gene 3 5807 9334 0.805017 0 37117 0.805017 1
gene 3 9334 9326 1 0 37118 1 1
gene 1 4870 9357 -0.268236 0 37205 -0.268236 1
gene 1 9357 2333 -3.05312 0 37206 -3.05312 1
gene 3 7900 9361 1.29425 0 37221 1.29425 1
gene 3 9361 2090 -8 0 37222 -8 1
gene 3 2765 3001 0.698114 0 37262 0.698114 1
gene 2 13 6312 -0.982144 0 37397 -0.982144 1
gene 2 752 9410 -1.21681 0 37405 -1.21681 1
gene 2 9410 1630 3.79237 0 37406 3.79237 1
gene 3 8186 3484 0.649224 0 37422 0.649224 1
gene 3 1313 9420 2.42325 0 37438 2.42325 1
gene 3 9420 5550 -0.818709 0 37439 -0.818709 1
gene 1 1168 9428 1.74002 0 37470 1.74002 1
gene 1 9428 6635 1.34819 0 37471 1.34819 1
gene 2 9098 7170 -3.08602 0 37491 -3.08602 1
gene 3 1840 4156 0.423634 0 37594 0.423634 1
gene 1 9202 9459 2.15789 0 37603 2.15789 1
gene 1 9459 208 7.44378 0 37604 7.44378 1
gene 1 3025 9470 -0.0269673 0 37642 -0.0269673 1
gene 1 9470 208 -7.12713 0 37643 -7.12713 1
gene 1 343 9473 2.23693 0 37653 2.23693 1
gene 1 9473 1049 4.3076 0 37654 4.3076 1
gene 1 9326 4702 -0.245173 0 37803 -0.245173 1
gene 1 5640 9508 1.22806 0 37814 1.22806 1
gene 1 9508 980 0.257913 0 37815 0.257913 1
gene 2 5406 9157 -0.437873 0 37833 -0.437873 1
gene 3 4745 6111 2.83135 0 38051 2.83135 1
gene 1 9 9570 1.14211 0 38070 1.14211 1
gene 1 9570 876 -2.75162 0 38071 -2.75162 1
gene 3 1931 9184 -1.56318 0 38085 -1.56318 1
gene 3 4033 9642 2.98357 0 38333 2.98357 1
gene 3 9642 876 -0.145268 0 38334 -0.145268 1
gene 2 3 9644 0.754344 0 38345 0.754344 1
gene 2 9644 6742 0.942738 0 38346 0.942738 1
gene 2 7858 5912 0.0671474 0 38363 0.0671474 1
gene 3 396 9658 2.09473 0 38396 2.09473 1
gene 3 9658 6611 -0.258677 0 38397 -0.258677 1
gene 3 9570 4315 0.559361 0 38406 0.559361 1
gene 1 4588 9669 0.994318 0 38431 0.994318 1
gene 3 9669 3961 -0.857545 0 38432 -0.857545 1
gene 1 9317 3278 2.09419 0 38487 2.09419 1
gene 2 752 9682 1.09444 0 38511 1.09444 1
gene 2 9682 9410 0.938206 0 38512 0.938206 1
gene 3 5807 9694 3.36581 0 38561 3.36581 1
gene 1 9694 9334 3.47052 0 38562 3.47052 1
gene 1 18 1168 -0.715565 0 38615 -0.715565 1
gene 2 4944 3254 -1.76771 0 38786 -1.76771 1
gene 3 396 9762 0.974099 0 38833 0.974099 1
gene 3 9762 3278 -5.13883 0 38834 -5.13883 1
gene 3 1587 9772 0.716482 0 38862 0.716482 1
gene 3 9772 3987 0.110182 0 38863 0.110182 1
gene 2 3695 6752 -2.68306 0 38878 -2.68306 1
gene 1 4151 5912 -0.34914 0 38939 -0.34914 1
gene 1 286 9803 1 0 38970 1 1
gene 1 9803 25 -2.29759 0 38971 -2.29759 1
gene 2 9 9326 0.245887 0 39016 0.245887 1
gene 3 3713 8533 1.29016 0 39120 1.29016 1
gene 1 1466 8238 0.528636 0 39145 0.528636 1
gene 3 9263 4148 0.232888 0 39174 0.232888 1
gene 2 2314 5948 1.3256 0 39411 1.3256 1
gene 3 4931 9357 3.20394 0 39454 3.20394 1
gene 3 2420 6152 0.115416 0 39470 0.115416 1
gene 2 7 9939 -1.11674 0 39572 -1.11674 1
gene 2 9939 7757 1.92199 0 39573 1.92199 1
gene 2 2765 9943 0.346389 0 39587 0.346389 1
gene 2 9943 6611 1.70354 0 39588 1.70354 1
gene 1 6312 26 -1.17071 0 39604 -1.17071 1
gene 2 7103 7170 -1.61784 0 39716 -1.61784 1
gene 2 2478 9973 -0.394058 0 39737 -0.394058 1
gene 2 9973 25 -7.35721 0 39738 -7.35721 1
gene 2 7821 3785 0.169558 0 39759 0.169558 1
gene 2 14 10017 1.4847 0 39877 0.734701 1
gene 2 10017 3861 2.82873 0 39878 1.71506 1
gene 1 6611 8025 0.335943 0 40054 0.335943 1
gene 2 203 10064 1.05285 0 40089 0.115349 1
gene 2 10064 25 0.607656 0 40090 0.817844 1
gene 1 56 10066 1.2861 0 40100 0.610441 1
gene 1 10066 343 -1.04237 0 40101 -0.0607467 1
gene 2 9939 9694 -0.712943 0 40164 -0.712943 1
gene 2 16 5244 0.262852 0 40178 0.262852 1
gene 1 56 4931 1.84009 0 40201 1.84009 1
gene 1 23 539 -0.756445 0 40424 -0.756445 1
gene 2 1250 10160 1.31692 0 40443 0.660674 1
gene 2 10160 5074 -0.47507 0 40444 0.0329492 1
gene 1 5178 10165 0.734759 0 40456 0.0337402 1
gene 1 10165 25 -3.14641 0 40457 -1.97321 1
gene 3 1969 1831 0.413635 0 40670 0.413635 1
gene 2 4005 7905 0.691204 0 40713 0.691204 1
gene 1 4285 9508 0.293728 0 40747 0.293728 1
gene 3 17 9772 0.414538 0 40837 0.414538 1
gene 2 5074 10264 -1.47195 0 40863 -1.47195 1
gene 2 10264 1931 -0.245879 0 40864 0.039476 1
gene 2 5732 5630 -0.145504 0 40895 -0.145504 1
gene 3 7349 3484 -0.562725 0 40935 -0.562725 1
gene 3 9192 5807 0.622458 0 40950 0.622458 1
gene 3 7858 5413 0.0731094 0 40959 0.0731094 1
gene 3 9188 9410 -0.275747 0 41032 -0.275747 1
gene 3 8805 2489 -0.274219 0 41056 -0.274219 1
gene 2 10160 6261 0.781284 0 41076 0.781284 1
gene 2 120 10328 1.60194 0 41097 0.974357 1
gene 2 10328 8123 1.49657 0 41098 0.944048 1
gene 2 9772 4602 0.0979311 0 41119 0.0979311 1
gene 2 8533 4346 -0.0885114 0 41260 -0.0885114 1
gene 1 2986 10376 1.43976 0 41268 0.804022 1
gene 1 10376 5662 0.146798 0 41269 -0.261375 1
gene 2 13 10381 1.27088 0 41286 0.544318 1
gene 2 10381 2090 -3.63934 0 41287 -0.081324 1
gene 2 1965 10384 0.54964 0 41303 -0.20036 1
gene 2 10384 4285 -3.82471 0 41304 -0.159819 1
gene 1 9184 8533 0.502467 0 41338 0.502467 1
gene 1 6360 7170 -0.97096 0 41490 -0.97096 1
gene 1 9 7900 0.22025 0 41515 0.22025 1
gene 2 7210 203 0.504032 0 41675 0.504032 1
gene 1 5849 6152 -0.672232 0 41839 -0.672232 1
gene 3 149 10520 -0.503035 0 41867 -0.503035 1
gene 3 10520 208 1.20216 0 41868 -0.0994242 1
gene 3 876 10523 1.3026 0 41884 0.552599 1
gene 2 10523 1168 2.57144 0 41885 1.25006 1
gene 2 9644 10531 0.960507 0 41908 0.245663 1
gene 2 10531 6742 1.70361 0 41909 0.919623 1
gene 2 2806 772 -0.523474 0 41929 -0.523474 1
gene 3 1168 2543 1.25322 0 41941 1.25322 1
gene 2 2381 3861 -0.459733 0 41959 -0.459733 1
gene 1 1412 10582 0.863091 0 42156 0.499809 1
gene 1 10582 1328 1.15661 0 42157 0.302412 1
gene 3 396 10619 0.99592 0 42282 0.24592 1
gene 3 10619 149 -3.93192 0 42283 -0.62112 1
gene 3 5244 5807 0.311412 0 42330 0.311412 1
gene 2 5347 10640 2.08167 0 42349 2.08167 1
gene 2 10640 7384 0.0390564 0 42350 -0.0653039 1
gene 1 9317 8261 -0.35644 0 42395 -0.35644 1
gene 3 8832 7372 0.702502 0 42411 0.702502 1
gene 2 9326 4839 0.212213 0 42467 0.212213 1
gene 1 8914 6369 0.955122 0 42511 0.955122 1
gene 2 4614 10693 1.05007 0 42549 0.346947 1
gene 2 10693 203 4.10088 0 42550 0.44495 1
gene 3 56 1630 1.32148 0 42742 1.32148 1
gene 2 4745 459 0.440005 0 42767 0.440005 1
gene 2 15 7146 0.573787 0 42793 0.573787 1
gene 2 4204 5240 0.383994 0 42832 0.383994 1
gene 1 7358 8945 -0.242096 0 42847 -0.242096 1
gene 3 390 10773 1.10989 0 42868 0.383323 1
gene 3 10773 9150 0.743055 0 42869 -0.164145 1
gene 1 1168 10783 1.25184 0 42902 0.47254 1
gene 1 10783 7803 2.34961 0 42903 1.07392 1
gene 2 10640 6741 -0.884986 0 43010 -0.884986 1
gene 1 2676 10813 0.984408 0 43041 0.0156576 1
gene 1 10813 3713 -0.719072 0 43042 -0.852894 1
gene 2 5912 10819 0.483656 0 43067 -0.000718923 1
gene 2 10819 8099 -0.681529 0 43068 0.297572 1
gene 3 2333 4285 -0.891415 0 43076 -0.891415 1
gene 2 12 9098 -0.553346 0 43119 -0.553346 1
gene 2 6307 10839 1.79161 0 43138 1.42833 1
gene 2 10839 8945 3.56906 0 43139 0.351143 1
gene 1 1630 6911 -0.71466 0 43169 -0.71466 1
gene 1 1784 3078 -0.81738 0 43292 -0.81738 1
gene 2 744 10876 1.34059 0 43307 0.590591 1
gene 2 10876 4931 -0.152699 0 43308 -0.316532 1
gene 1 5 10328 -0.258137 0 43341 -0.258137 1
gene 2 4 10888 1.01265 0 43353 0.0751465 1
gene 2 10888 56 5.96131 0 43354 2.41338 1
gene 1 10 10918 0.921142 0 43454 0.0834342 1
gene 1 10918 5033 6.64755 0 43455 1.9791 1
gene 1 7524 4588 -0.614871 0 43582 -0.614871 1
gene 1 4750 4614 -1.30423 0 43752 -1.30423 1
gene 3 697 11006 0.805391 0 43786 -0.0442187 1
gene 3 11006 3001 -2.22379 0 43787 -0.103803 1
gene 1 9682 3278 -0.41873 0 43792 -0.41873 1
gene 3 4356 3627 2.23863 0 43815 2.23863 1
gene 3 5244 6742 -0.64237 0 43829 -0.64237 1
gene 3 286 697 -0.0910176 0 43891 -0.0910176 1
gene 3 6635 3145 0.210973 0 44071 0.210973 1
gene 1 6611 11088 1.16682 0 44100 0.311599 1
gene 1 11088 8025 -0.0679164 0 44101 0.0391896 1
gene 2 9644 3713 0.586617 0 44122 0.586617 1
gene 2 744 1784 -0.598093 0 44133 -0.598093 1
gene 1 476 5732 0.804209 0 44191 0.804209 1
gene 1 10376 4870 0.659393 0 44241 0.659393 1
gene 2 10 11139 1.38409 0 44279 0.634095 1
gene 2 11139 744 6.56729 0 44280 0.718057 1
gene 1 3861 7170 0.138559 0 44393 0.138559 1
gene 3 4151 8146 0.750721 0 44414 0.750721 1
gene 2 6741 7601 0.00728323 0 44596 0.00728323 1
gene 2 7 11233 1.4446 0 44644 0.694599 1
gene 2 11233 6111 -0.378286 0 44645 -0.121993 1
gene 1 9939 6932 -0.548349 0 44688 -0.548349 1
gene 2 2314 9939 1.38375 0 44728 1.38375 1
gene 1 2 11250 1.07606 0 44741 0.137579 1
gene 1 11250 526 3.99907 0 44742 0.533434 1
gene 1 1168 11254 1.01808 0 44759 0.0644632 1
gene 1 11254 10783 1.34966 0 44760 0.674 1
gene 2 2 2478 0.251558 0 44799 0.251558 1
gene 3 6312 11294 1.02677 0 44905 0.148837 1
gene 3 11294 4602 -1.81598 0 44906 -0.113499 1
gene 1 7372 9098 -0.0514405 0 44963 -0.0514405 1
gene 3 22 11314 1.34775 0 45008 0.621192 1
gene 3 11314 208 3.47816 0 45009 0.930288 1
gene 1 9 11322 1.04766 0 45035 0.143123 1
gene 1 11322 7900 0.796941 0 45036 0.542598 1
gene 2 1587 11340 1.48389 0 45101 0.733891 1
gene 2 11340 7170 3.55736 0 45102 1.35753 1
gene 3 10582 6911 -0.238904 0 45124 -0.238904 1
gene 2 17 11367 0.311295 0 45182 -0.403549 1
gene 2 11367 25 0.528103 0 45183 0 1
gene 3 8243 11372 1 0 45198 0.0625 1
gene 3 11372 26 -1.93201 0 45199 0 1
gene 2 19 11377 1.07837 0 45218 0.14087 1
gene 2 11377 3667 -3.32519 0 45219 -0.976129 1
gene 1 11294 4204 -0.692244 0 45226 -0.692244 1
gene 3 6635 11378 0.930872 0 45237 -0.00662806 1
gene 3 11378 3145 -0.433366 0 45238 -0.388266 1
gene 1 7649 5912 1.2182 0 45257 1.2182 1
gene 2 7139 7358 -0.0253734 0 45287 -0.0253734 1
gene 3 8025 120 0.578792 0 45302 0.578792 1
gene 1 6360 5899 -0.759861 0 45362 -0.759861 1
gene 2 10693 11412 0.485284 0 45394 -0.0404808 1
gene 2 11412 203 3.53486 0 45395 0.9702 1
gene 2 2806 7384 0.752242 0 45579 0.752242 1
gene 1 1207 11473 1.06024 0 45640 0.125551 1
gene 1 11473 1969 -6.60745 0 45641 -2.06452 1
gene 3 2181 11478 0.651431 0 45656 0.000491557 1
gene 3 11478 2253 4.2002 0 45657 1.62419 1
gene 1 4 11485 1 0 45676 0 1
gene 1 11485 25 4.62871 0 45677 1.19363 1
gene 3 11372 11506 1.3298 0 45743 0.694056 1
gene 3 11506 26 -2.48418 0 45744 -1.03517 1
gene 2 1250 3414 -0.462311 0 45918 -0.462311 1
gene 3 5142 11545 -1.22874 0 45931 -1.71116 1
gene 3 11545 1969 4.50612 0 45932 0.182454 1
gene 3 9658 8618 0.463029 0 45963 0.463029 1
gene 2 10888 11569 1.23639 0 46008 0.710624 1
gene 2 11569 56 5.66524 0 46009 1.47531 1
gene 2 10693 9473 -0.24041 0 46037 -0.24041 1
gene 1 23 11579 1.44651 0 46048 1.44651 1
gene 3 11579 4114 -2.4473 0 46049 -1.0996 1
gene 1 4750 11294 1.24775 0 46188 1.24775 1
gene 1 2333 11620 1 0 46209 0 1
gene 1 11620 390 -5.43149 0 46210 -0.148506 1
gene 2 4702 7883 0.65184 0 46224 0.65184 1
gene 3 1207 9772 0.680018 0 46259 0.680018 1
gene 3 1412 11640 1.43877 0 46290 0.712208 1
gene 3 11640 390 -6.06837 0 46291 -2.61008 1
gene 2 2 11666 1.09695 0 46374 1.09695 1
gene 2 11666 2478 0.231731 0 46375 0.0280686 1
gene 3 697 10520 -0.330863 0 46437 -0.330863 1
gene 3 390 11696 1.11414 0 46466 0.264526 1
gene 3 11696 6828 0.748689 0 46467 0 1
gene 3 9420 11699 1.00027 0 46480 0.250275 1
gene 2 11699 5550 -1.03243 0 46481 -0.468033 1
gene 1 7423 5178 -0.213252 0 46561 -0.213252 1
gene 2 4346 3484 -3.07508 0 46588 -3.07508 1
gene 2 5662 8014 1.298 0 46639 1.298 1
gene 3 9508 5240 -0.398148 0 46744 -0.398148 1
gene 3 9184 4931 0.438565 0 46786 0.438565 1
gene 3 6824 11783 1.1271 0 46807 0.42397 1
gene 3 11783 6312 0.446141 0 46808 0.471266 1
gene 2 11696 5630 0.674258 0 46924 0.674258 1
gene 1 2631 11820 0.692637 0 46935 0.00123062 1
gene 1 11820 2381 -6.73775 0 46936 -1.27567 1
gene 3 2478 11294 -0.540434 0 46958 -0.540434 1
gene 2 5630 8014 0.306539 0 47135 0.306539 1
gene 3 4151 7084 0.859797 0 47360 0.859797 1
gene 2 9644 11929 1 0 47386 0 1
gene 2 11929 10531 1.29355 0 47387 0.543551 1
gene 1 9470 11942 1.23717 0 47429 0.522325 1
gene 1 11942 208 -7.36961 0 47430 -2.30375 1
gene 1 675 11948 1.02142 0 47448 0.306206 1
gene 1 11948 8434 0.540358 0 47449 -0.01171 1
gene 2 10264 7858 -0.941441 0 47473 -0.941441 1
gene 3 980 3078 -0.116326 0 47662 -0.116326 1
gene 1 2708 1704 0.580397 0 47691 0.580397 1
gene 2 7524 8488 -0.27157 0 47702 -0.27157 1
gene 3 2489 12020 1.01975 0 47783 0.0510016 1
gene 3 12020 752 -0.634481 0 47784 -0.150902 1
gene 2 7057 12028 0.86892 0 47811 0.11892 1
gene 2 12028 26 2.28916 0 47812 0.119097 1
gene 2 9682 12034 0.601523 0 47836 -0.0711149 1
gene 2 12034 9410 0.522206 0 47837 -0.192637 1
gene 3 5976 12058 0.316736 0 47924 -0.386389 1
gene 3 12058 974 -2.89993 0 47925 0 1
gene 1 10066 7146 -0.465331 0 48184 -0.465331 1
gene 2 4033 390 -0.243659 0 48189 -0.243659 1
gene 1 1412 6116 -0.288961 0 48201 -0.288961 1
gene 3 8182 12134 1.02903 0 48216 0.0915287 1
gene 3 12134 3961 -0.991566 0 48217 -0.102786 1
gene 2 5939 8014 -0.360424 0 48243 -0.360424 1
gene 1 1515 12135 1.20903 0 48255 0.459029 1
gene 1 12135 8382 0.833308 0 48256 0.00764328 1
gene 3 9762 8279 -0.654673 0 48285 -0.654673 1
gene 2 1840 4870 -0.628366 0 48313 -0.628366 1
gene 3 5142 7146 -1.09772 0 48544 -1.09772 1
gene 3 11783 12220 0.990015 0 48560 0.172159 1
gene 3 12220 6312 0.415218 0 48561 0.434062 1
gene 3 5240 4753 -3.11938 0 48685 -3.11938 0
gene 3 15 6752 0.684285 0 48837 0.684285 1
gene 3 10520 8025 0.571233 0 48871 0.571233 1
gene 2 2253 7170 0.676084 0 48887 0.676084 1
gene 2 10160 12316 0.884524 0 48944 0.157961 1
gene 2 12316 6261 0.362965 0 48945 0.122324 1
gene 2 459 7751 -0.00718701 0 49151 -0.00718701 1
gene 3 3278 5784 -0.277521 0 49197 -0.277521 1
gene 3 298 12388 0.92289 0 49224 0.0293353 1
gene 3 12388 7858 0.67767 0 49225 0.0130227 1
gene 1 11948 10918 0.753991 0 49260 0.753991 1
gene 1 980 12411 0.462689 0 49302 -0.123386 1
gene 1 12411 378 3.89761 0 49303 0.0758455 1
gene 3 9184 12438 0.984241 0 49405 0.0154907 1
gene 3 12438 4931 -0.430862 0 49406 -0.762207 1
gene 2 12411 1466 0.361419 0 49416 0.361419 1
gene 1 11473 10384 0.296164 0 49431 0.296164 1
gene 1 2543 1372 -0.338638 0 49488 -0.338638 1
gene 3 876 7417 0.628468 0 49516 0.628468 1
gene 1 11473 1313 0.719908 0 49791 0.719908 1
gene 1 1784 12534 0.874897 0 49813 -0.0626026 1
gene 1 12534 378 -6.02305 0 49814 0 1
gene 1 24 5807 -0.431272 0 49893 -0.431272 1
gene 2 1840 12559 1.03854 0 49901 0.101041 1
gene 2 12559 7757 1.449 0 49902 0.199366 1
gene 1 15 12596 1.0248 0 50044 0.10146 1
gene 1 12596 298 5.63412 0 50045 1.22647 1
gene 1 2543 12602 0.84258 0 50074 0.150442 1
gene 1 12602 1372 -0.404686 0 50075 -0.196388 1
gene 1 1515 7111 0.821486 0 50100 0.821486 1
gene 3 21 9420 -0.56792 0 50122 -0.56792 1
gene 3 4 12620 0.774469 0 50172 0.047906 1
gene 1 12620 2132 8 0 50173 8 1
gene 2 11006 2806 -1.03124 0 50192 -1.03124 1
gene 2 10017 12629 0.682752 0 50204 -0.0203734 1
gene 2 12629 3861 2.02932 0 50205 0.183797 1
gene 2 14 2931 0.817754 0 50222 0.817754 1
gene 3 7506 12669 0.943374 0 50356 0.307454 1
gene 3 12669 25 1.87441 0 50357 0.970891 1
gene 3 9642 12711 0.894557 0 50506 -0.0429435 1
gene 3 12711 876 -0.657651 0 50507 0 1
gene 3 4944 7315 -0.638869 0 50525 -0.638869 1
gene 1 11233 9939 0.135716 0 50658 0.135716 1
gene 2 2765 12749 1.96601 0 50678 1.57978 1
gene 2 12749 3961 -2.68821 0 50679 -0.0994711 1
gene 2 11412 5807 0.72702 0 50738 0.72702 1
gene 3 11640 8443 0.0720283 0 50890 0.0720283 1
gene 3 697 7106 -0.282319 0 50937 -0.282319 1
gene 1 2834 12824 0.956038 0 50965 0.049788 1
gene 1 12824 6932 2.44752 0 50966 0.631843 1
gene 3 5849 11545 -0.3646 0 51007 -0.3646 1
gene 2 4944 12853 1 0 51051 0 1
gene 2 12853 3254 -1.91245 0 51052 -0.0513046 1
gene 3 8533 12028 0.0177734 0 51161 0.0177734 1
gene 2 9 11506 -0.688953 0 51249 -0.688953 1
gene 2 11783 5976 -2.86858 0 51297 -2.86858 1
gene 2 11948 4204 1.33697 0 51307 1.33697 1
gene 1 8146 11322 0.736138 0 51341 0.736138 1
gene 3 1372 12925 1 0 51359 0 1
gene 3 12925 8833 3.32114 0 51360 1.10132 1
gene 3 772 12939 1 0 51411 0 1
gene 3 12939 3407 -1.51764 0 51412 -0.223425 1
gene 1 18 12945 0.969879 0 51429 0.0323793 1
gene 1 12945 2543 -0.0599971 0 51430 -0.504012 1
gene 3 4 8014 -1.11813 0 51553 -1.11813 1
gene 1 9470 13008 1 0 51667 0 1
gene 1 13008 11942 0.568312 0 51668 -0.181688 1
gene 3 7077 4346 0.31747 0 51679 0.31747 1
gene 1 4 13017 1 0 51709 0 1
gene 1 13017 1931 -4.39836 0 51710 -1.50032 1
gene 3 9317 10064 -0.0321812 0 51782 -0.0321812 1
gene 2 10328 13042 1.3269 0 51803 0.576902 1
gene 2 13042 8123 -0.0351378 0 51804 -0.389099 1
gene 2 10264 13050 0.77684 0 51826 -0.12941 1
gene 2 13050 7858 -1.85758 0 51827 -1.54887 1
gene 2 3 13054 0.452983 0 51837 -0.297017 1
gene 2 13054 4005 5.06349 0 51838 2.43658 1
gene 2 8972 12316 -0.663193 0 51880 -0.663193 1
gene 1 4870 13098 1 0 52043 0 1
gene 1 13098 2333 -1.81514 0 52044 -0.587253 1
gene 2 5935 13103 0.75791 0 52061 -0.0495852 1
gene 2 13103 8832 1.1334 0 52062 0.536984 1
gene 1 1466 6824 0.139178 0 52080 0.139178 1
gene 3 18 10839 -1.73657 0 52176 -1.73657 1
gene 3 4607 12945 -0.171339 0 52215 -0.171339 1
gene 2 10876 13148 2.79265 0 52249 2.79265 1
gene 2 13148 4931 0.450608 0 52250 0.368692 1
gene 3 4151 13161 0.926332 0 52284 -0.011168 1
gene 3 13161 7084 0.669902 0 52285 0.365794 1
gene 3 10773 6911 -0.336814 0 52427 -0.336814 1
gene 1 7146 12534 -0.472512 0 52445 -0.472512 1
gene 1 6225 5849 0.674613 0 52453 0.674613 1
gene 3 5868 6025 0.631128 0 52465 0.631128 1
gene 2 3667 6369 -0.786118 0 52530 -0.786118 1
gene 1 10 3414 0.25525 0 52585 0.25525 1
gene 2 9157 12058 0.266741 0 52658 0.266741 1
gene 1 1647 13258 0.452327 0 52669 -0.203923 1
gene 1 13258 1466 -1.75574 0 52670 -0.202053 1
gene 3 9114 13284 2.91067 0 52774 2.44778 1
gene 3 13284 2253 -4.49872 0 52775 -1.25229 1
gene 2 5976 8945 0.737655 0 52786 0.737655 1
gene 2 1840 13293 0.824993 0 52806 0.10429 1
gene 2 13293 4870 0.0878783 0 52807 0.135941 1
gene 3 12316 7960 1.14498 0 52937 1.14498 1
gene 2 2090 12034 -0.72295 0 53008 -0.72295 1
gene 2 9669 1328 -0.570828 0 53028 -0.570828 1
gene 3 11699 13376 0.905254 0 53117 0.249004 1
gene 3 13376 5550 -0.804647 0 53118 -0.181869 1
gene 3 8533 13394 0.15056 0 53190 -0.59944 1
gene 3 13394 12028 -0.383009 0 53191 -0.276696 1
gene 2 3667 13398 1.66927 0 53203 1.03352 1
gene 2 13398 1931 -2.42106 0 53204 -2.42106 1
gene 3 12134 13405 1.11237 0 53232 0.397527 1
gene 3 13405 3961 -0.515658 0 53233 0.183885 1
gene 1 7803 4315 -0.158028 0 53295 -0.158028 1
gene 1 13098 13423 0.568689 0 53315 -0.181311 1
gene 1 13423 2333 -2.11667 0 53316 -0.844042 1
gene 3 4924 1969 -0.114627 0 53581 -0.114627 1
gene 3 15 13506 1.04331 0 53599 0.480805 1
gene 3 13506 752 3.1537 0 53600 0.124208 1
gene 3 13394 2253 -0.612022 0 53618 -0.612022 1
gene 2 8972 11377 -0.399916 0 53696 -0.399916 1
gene 3 5976 13535 0.603132 0 53720 -0.0531176 1
gene 3 13535 12058 0.864343 0 53721 0 1
gene 2 11006 13394 0.304649 0 53881 0.304649 1
gene 3 1965 13575 0.575946 0 53900 0.200946 1
gene 3 13575 1969 -1.99073 0 53901 -0.365036 1
gene 3 1965 5146 0.814356 0 53955 0.814356 1
gene 2 7423 13054 -0.707598 0 54176 -0.707598 1
gene 2 3695 13636 1.59603 0 54201 0.846033 1
gene 2 13636 4662 -1.43209 0 54202 0 1
gene 3 3554 7821 -1.35244 0 54273 -1.35244 1
gene 2 3145 13666 0.636573 0 54297 -0.101708 1
gene 2 13666 3554 -2.28599 0 54298 -0.695928 1
gene 1 13394 10619 -0.221413 0 54342 -0.221413 1
gene 1 5630 697 -0.0841481 0 54614 -0.0841481 1
gene 2 7 13745 0.976187 0 54625 -0.00818776 1
gene 2 13745 6111 -0.263583 0 54626 0.00755907 1
gene 2 10839 8696 0.333972 0 54663 0.333972 1
gene 2 19 13789 0.532505 0 54782 -0.147182 1
gene 2 13789 1704 4.21657 0 54783 0 1
gene 3 5868 12316 -0.543785 0 54831 -0.543785 1
gene 1 5640 1784 -0.452389 0 54853 -0.452389 1
gene 3 9326 13809 1.25514 0 54875 0.505142 1
gene 1 13809 4702 1.12535 0 54876 0.978126 1
gene 1 2478 3254 0.193443 0 55128 0.193443 1
gene 2 11250 3993 -1.04094 0 55162 -1.04094 1
gene 3 1587 13888 1 0 55195 0 1
gene 3 13888 1647 3.51098 0 55196 0.10729 1
gene 1 6261 149 -0.378946 0 55220 -0.378946 1
gene 3 11579 13900 0.532364 0 55254 -0.217636 1
gene 3 13900 4114 -1.74804 0 55255 -0.292293 1
gene 3 11485 4156 -1.34456 0 55270 -1.34456 1
gene 3 9644 9428 0.58603 0 55376 0.58603 1
gene 2 1587 13949 1.79951 0 55416 1.49189 1
gene 2 13949 56 -1.3347 0 55417 -0.188788 1
gene 1 6741 13405 0.492028 0 55452 0.492028 1
gene 2 2765 13957 1.38371 0 55468 0.633712 1
gene 2 13957 974 -5.14062 0 55469 0 1
gene 3 6597 5899 0.534055 0 55479 0.534055 1
gene 2 3695 7106 0.553043 0 55534 0.553043 1
gene 1 2676 10066 -0.717153 0 55560 -0.717153 1
gene 3 8832 7377 -0.754813 0 55727 -0.754813 1
gene 1 9326 14009 0.981467 0 55745 0.0752167 1
gene 1 14009 13809 0.967171 0 55746 0.217171 1
gene 2 8182 12925 0.0274286 0 55754 0.0274286 1
gene 1 56 14037 0.904552 0 55842 0.166271 1
gene 1 14037 343 -1.10433 0 55843 0 1
gene 3 3 11367 0.149282 0 55865 0.149282 1
gene 3 11666 1049 -0.232077 0 56025 -0.232077 1
gene 1 752 14098 1.53743 0 56095 0.787433 1
gene 1 14098 526 1.77616 0 56096 0.425917 1
gene 3 13957 12925 -0.565671 0 56120 -0.565671 1
gene 3 1412 5178 0.0779131 0 56309 0.0779131 1
gene 2 2806 14160 1.57407 0 56336 0.850432 1
gene 2 14160 772 -0.817871 0 56337 -0.557912 1
gene 2 4750 14165 1.553 0 56349 1.20143 1
gene 2 14165 1704 -1.96071 0 56350 -0.0439383 1
gene 1 12134 12316 -0.643323 0 56357 -0.643323 1
gene 3 4 3001 -0.125266 0 56372 -0.125266 1
gene 1 8243 14186 0.780391 0 56428 0.780391 1
gene 3 14186 26 -1.11422 0 56429 -0.32179 1
gene 2 13 3961 0.881198 0 56449 0.881198 1
gene 2 6 14200 1.12209 0 56469 0.46566 1
gene 2 14200 26 -2.01389 0 56470 -0.863443 1
gene 1 1931 10619 -0.182098 0 56621 -0.182098 1
gene 2 4156 974 0.94641 0 56645 0.94641 1
gene 3 5640 11294 -0.210687 0 56678 -0.210687 1
gene 2 343 14266 1.55531 0 56699 0.805311 1
gene 2 14266 203 8 0 56700 2 1
gene 3 3627 6672 -0.250511 0 56730 -0.250511 1
gene 3 7524 8382 -0.424216 0 56783 -0.424216 1
gene 3 26 12945 -0.799992 0 56797 -0.799992 1
gene 3 9114 14305 1.59692 0 56810 0.846923 1
gene 3 14305 2253 -3.99669 0 56811 -1.86623 1
gene 1 12596 14186 0.00389057 0 56953 0.00389057 1
gene 3 8029 14341 0.424687 0 56977 -0.325313 1
gene 3 14341 8014 2.59277 0 56978 0.921258 1
gene 2 10 10582 0.397926 0 56990 0.397926 1
gene 1 1207 14360 0.858396 0 57042 0.202146 1
gene 1 14360 6824 1.46281 0 57043 0.681132 1
gene 1 13666 13376 -0.0850187 0 57095 -0.0850187 1
gene 2 13506 6824 0.589584 0 57239 0.589584 1
gene 1 8685 1412 -0.336365 0 57260 -0.336365 1
gene 2 13148 752 -0.515798 0 57285 -0.515798 1
gene 1 3 14430 0.820841 0 57303 -0.0404873 1
gene 1 14430 1168 -0.140882 0 57304 0.0838642 1
gene 3 1630 149 0.466112 0 57404 0.466112 1
gene 3 13050 7384 -0.640566 0 57541 -0.640566 1
gene 1 2986 5899 0.918294 0 57562 0.918294 1
gene 1 7139 14505 0.863392 0 57607 0.148549 1
gene 1 14505 5662 -0.813553 0 57608 -0.440782 1
gene 1 7139 14514 0.420371 0 57638 -0.329629 1
gene 1 14514 14505 1 0 57639 0 1
gene 3 7423 11699 -0.272543 0 57654 -0.272543 1
gene 1 2834 14523 1 0 57668 0 1
gene 1 14523 12824 1 0 57669 0 1
gene 1 343 9098 -1.09614 0 57918 -1.09614 1
gene 3 9114 14645 0.959448 0 58190 0.209448 1
gene 3 14645 14305 0.602276 0 58191 -0.147724 1
gene 3 7883 13423 0.0171557 0 58213 0.0171557 1
gene 3 1831 772 1.70397 0 58232 1.70397 1
gene 3 4870 4204 -0.526321 0 58261 -0.526321 1
gene 2 390 14667 0.506442 0 58280 -0.243558 1
gene 2 14667 2631 -0.0854082 0 58281 -0.0854082 1
gene 2 19 14678 1.20423 0 58326 0.363408 1
gene 2 14678 6697 1.88902 0 58327 0.892767 1
gene 1 9570 12629 -0.688264 0 58444 -0.688264 1
gene 1 1049 14710 0.865563 0 58461 0.865563 1
gene 1 14710 9202 1.76711 0 58462 0.390681 1
gene 2 13 14523 0.366419 0 58492 0.366419 1
gene 3 149 14744 1.01848 0 58586 0.356373 1
gene 3 14744 8060 1.70918 0 58587 0 1
gene 2 11412 2676 0.0369229 0 58646 0.0369229 1
gene 3 2420 14770 0.583253 0 58663 -0.0788568 1
gene 3 14770 6152 -0.295968 0 58664 -0.152419 1
gene 1 4745 14776 0.440631 0 58688 -0.29765 1
gene 1 14776 3407 0.11016 0 58689 -0.0780475 1
gene 2 12669 9263 -0.23643 0 58796 -0.23643 1
gene 2 3001 14803 0.543397 0 58819 -0.0897819 1
gene 2 14803 5899 -2.23485 0 58820 -0.113013 1
gene 1 772 6828 -0.776398 0 58845 -0.776398 1
gene 1 7384 3078 -1.40273 0 58903 -1.40273 1
gene 2 208 1372 0.337355 0 59081 0.337355 1
gene 1 8 14880 1.04603 0 59104 0.108533 1
gene 1 14880 5630 1.08191 0 59105 0.928495 1
gene 1 6911 5033 0.863373 0 59134 0.863373 1
gene 2 12620 12534 -0.358782 0 59307 -0.358782 1
gene 2 8533 3145 0.998999 0 59405 0.998999 1
gene 3 7524 14960 1.10744 0 59429 0.181654 1
gene 3 14960 8382 -0.954328 0 59430 -0.205751 1
gene 1 8673 3722 -0.0854018 0 59474 -0.0854018 1
gene 2 12438 11485 0.606101 0 59483 0.606101 1
gene 2 9939 203 -0.420752 0 59704 -0.420752 1
gene 3 11699 15053 0.378902 0 59757 -0.371098 1
gene 3 15053 13376 1 0 59758 0 1
gene 3 9772 15061 0.107509 0 59778 -0.267491 1
gene 3 15061 3987 0.367762 0 59779 -0.00626058 1
gene 2 8025 12629 0.548269 0 59795 0.548269 1
gene 1 15 15073 -0.130962 0 59812 -0.437297 1
gene 1 15073 3134 4.55646 0 59813 0.682564 1
gene 1 6261 15083 1.10037 0 59838 0.217554 1
gene 1 15083 526 2.15762 0 59839 0.490701 1
gene 3 1515 15100 1 0 59898 0 1
gene 1 15100 390 -2.48676 0 59899 -1.33472 1
gene 1 2834 15143 1.03965 0 60037 0.383404 1
gene 1 15143 12824 0.927055 0 60038 0.364555 1
gene 3 4602 15151 1.37651 0 60055 0.626512 1
gene 3 15151 208 1.63504 0 60056 0.465753 1
gene 1 203 13405 -0.987617 0 60079 -0.987617 1
gene 1 6635 15156 1.01724 0 60104 0.267236 1
gene 1 15156 752 -3.62275 0 60105 -1.01522 1
gene 3 9114 11088 -0.202421 0 60150 -0.202421 1
gene 2 7349 15191 1.62857 0 60229 0.93423 1
gene 2 15191 2765 -1.51167 0 60230 -0.221631 1
gene 2 4368 9694 0.922214 0 60373 0.922214 1
gene 2 10839 15226 0.972937 0 60397 -0.0114385 1
gene 2 15226 8696 -0.255837 0 60398 -0.293118 1
gene 3 3 15231 0.0202677 0 60419 -0.446529 1
gene 3 15231 11367 0.149282 0 60420 0 1
gene 2 13054 2253 0.598073 0 60443 0.598073 1
gene 3 6752 15244 1.22778 0 60451 0.477781 1
gene 3 15244 2631 -2.78391 0 60452 -0.0765909 1
gene 1 4 15252 0.774019 0 60487 0.0240193 1
gene 1 15252 13017 2.35489 0 60488 2.35489 1
gene 1 1735 15260 0.116412 0 60513 -0.446088 1
gene 1 15260 8691 3.48389 0 60514 3.48389 1
gene 1 9428 378 -0.565117 0 60528 -0.565117 1
gene 2 6611 15272 0.697686 0 60549 -0.052314 1
gene 2 15272 3961 -4.86628 0 60550 -2.85509 1
gene 3 16 10619 -1.27147 0 60603 -1.27147 1
gene 1 5784 390 -0.560826 0 60700 -0.560826 1
gene 2 7358 3993 -0.338718 0 60706 -0.338718 1
gene 2 5413 15317 1.28383 0 60734 0.533835 1
gene 2 15317 2253 0.653173 0 60735 0.550069 1
gene 1 7103 7900 -0.183102 0 60920 -0.183102 1
gene 1 9098 5142 0.285599 0 61057 0.285599 1
gene 1 9420 7524 -0.956478 0 61075 -0.956478 1
gene 1 9570 15413 2.24055 0 61084 2.24055 1
gene 1 15413 876 -1.30749 0 61085 -0.00300769 1
gene 1 980 12620 -1.00458 0 61099 -1.00458 1
gene 3 2478 15426 0.812955 0 61134 0.118619 1
gene 3 15426 11294 -0.953907 0 61135 -0.858184 1
gene 3 4472 12620 -0.741408 0 61163 -0.741408 1
gene 1 2765 8833 0.797365 0 61355 0.797365 1
gene 1 14430 3078 -0.275938 0 61482 -0.275938 1
gene 3 744 15518 0.798395 0 61497 -0.0766053 1
gene 3 15518 3839 -2.56505 0 61498 0 1
gene 2 15272 8434 0.58266 0 61567 0.58266 1
gene 3 3484 4315 1.08354 0 61657 1.08354 1
gene 1 9570 15564 1.06959 0 61678 0.319586 1
gene 1 15564 12629 -0.0784873 0 61679 0.413514 1
gene 3 3497 4662 0.98331 0 61715 0.98331 1
gene 2 14 396 0.510631 0 61976 0.510631 1
gene 1 7423 11485 -0.395577 0 62039 -0.395577 1
gene 3 6824 15667 1.13964 0 62062 0.202141 1
gene 2 15667 1328 1.15188 0 62063 0.543404 1
gene 1 7377 15752 0.780266 0 62387 0.0419844 1
gene 1 15752 1168 -1.229 0 62388 0 1
gene 1 6911 13745 0.554682 0 62427 0.554682 1
gene 1 459 13376 -0.36287 0 62554 -0.36287 1
gene 1 13809 396 -0.0394288 0 62574 -0.0394288 1
gene 3 539 11367 0.0028989 0 62596 0.0028989 1
gene 2 10839 15820 0.847381 0 62661 0.0544118 1
gene 2 15820 8945 3.5115 0 62662 0.191555 1
gene 3 15260 3667 0.677687 0 62810 0.677687 1
gene 3 7905 15863 -0.149339 0 62845 -0.711839 1
gene 3 15863 1603 -5.11104 0 62846 -0.110249 1
gene 3 5935 9150 0.22998 0 62873 0.22998 1
gene 3 14678 14305 0.345431 0 62911 0.345431 1
gene 2 11378 13957 -1.15579 0 62925 -1.15579 1
gene 2 7384 12629 -0.0562832 0 62998 -0.0562832 1
gene 2 9102 15914 1.23506 0 63035 0.603985 1
gene 2 15914 3145 -3.35082 0 63036 -1.14464 1
gene 2 7905 3001 0.516244 0 63071 0.516244 1
gene 2 12925 772 -0.310251 0 63182 -0.310251 1
gene 1 752 3078 0.486863 0 63395 0.486863 1
gene 2 7103 16003 1.09426 0 63426 0.141134 1
gene 2 16003 7170 -1.41527 0 63427 -0.201895 1
gene 3 2986 3001 -0.753214 0 63449 -0.753214 1
gene 1 12028 3254 -0.0781004 0 63539 -0.0781004 0
gene 1 1328 16045 0.421928 0 63592 -0.0878375 1
gene 1 16045 526 -1.14069 0 63593 -1.14069 1
gene 3 10888 876 0.242233 0 63606 0.242233 1
gene 3 9144 3078 -0.119938 0 63638 -0.119938 1
gene 1 8673 14776 1.19761 0 63725 1.19761 1
gene 2 6312 10839 -0.839011 0 63754 -0.839011 1
gene 3 12945 6672 0.352557 0 63770 0.352557 1
gene 1 4315 14160 0.603745 0 63878 0.603745 1
gene 1 1313 5899 0.302895 0 63892 0.302895 1
gene 2 4148 1466 -0.386968 0 63934 -0.386968 1
gene 3 2765 120 1.10613 0 63986 1.10613 1
gene 3 459 1784 -0.146964 0 64023 -0.146964 1
gene 1 9 16167 1.08176 0 64104 0.381566 1
gene 1 16167 9570 -0.666748 0 64105 -0.666748 1
gene 2 27 14803 0.0675196 0 64307 0.0675196 1
gene 3 6261 12620 -0.615198 0 64385 -0.615198 1
gene 2 7 16242 1.11244 0 64397 0.190562 1
gene 2 16242 6111 -0.564953 0 64398 -0.303161 1
gene 3 14341 9192 0.559859 0 64430 0.559859 1
gene 2 10888 12316 0.693085 0 64625 0.693085 1
gene 2 4356 16306 1 0 64657 0 1
gene 2 16306 4870 -2.22964 0 64658 -0.140033 1
gene 1 14360 13423 -0.586355 0 64688 -0.586355 1
gene 2 7524 12220 -0.383198 0 64710 -0.383198 1
gene 1 286 16326 0.942545 0 64724 -0.01058 1
gene 1 16326 7111 0.482725 0 64725 0.241921 1
gene 3 11783 378 -0.65525 0 64870 -0.65525 1
gene 3 8696 4614 -0.404914 0 64900 -0.404914 1
gene 3 12824 15226 -0.396221 0 64913 -0.396221 1
gene 2 10328 11820 0.628308 0 65051 0.628308 1
gene 2 3278 10918 -1.44333 0 65271 -1.44333 1
gene 1 9202 16485 1 0 65353 0 1
gene 1 16485 208 7.23463 0 65354 2 1
gene 3 4494 1049 -0.146835 0 65367 -0.146835 1
gene 2 9098 16502 0.517454 0 65416 -0.232546 1
gene 2 16502 5899 0.098283 0 65417 0.130785 1
gene 2 8182 8533 -0.673673 0 65435 -0.673673 1
gene 1 14880 13293 -0.186909 0 65462 -0.186909 1
gene 3 4745 11942 2.84355 0 65484 2.84355 1
gene 1 772 7384 0.695318 0 65579 0.695318 1
gene 3 7883 16541 1.58589 0 65608 1.01055 1
gene 3 16541 13423 0.57453 0 65609 0.268026 1
gene 3 8238 5948 0.568267 0 65666 0.568267 1
gene 2 459 16590 0.874468 0 65768 -0.051313 1
gene 2 16590 3145 -5.8493 0 65769 -3.59179 1
gene 1 8261 7900 -0.945238 0 65879 -0.945238 1
gene 1 14186 847 0.138525 0 65894 0.138525 1
gene 2 5935 16624 1 0 65924 0 1
gene 2 16624 13103 -0.00108077 0 65925 -0.468787 1
gene 2 2478 11696 -0.182215 0 66106 -0.182215 1
gene 1 4607 2381 -0.00567693 0 66204 -0.00567693 1
gene 3 15564 15083 1.14964 0 66298 1.14964 1
gene 3 4750 16793 1.50955 0 66640 0.78592 1
gene 3 16793 772 1.21826 0 66641 0.0708642 1
gene 1 2631 8279 1.4371 0 66655 1.4371 1
gene 2 13148 3078 0.0562255 0 66757 0.0562255 1
gene 2 22 9658 -0.71269 0 66807 -0.71269 1
gene 3 11783 16836 1.49316 0 66827 0.790035 1
gene 3 16836 6312 -0.4454 0 66828 -0.42106 1
gene 3 4151 16839 1.47721 0 66841 0.72721 1
gene 3 16839 7084 0.459302 0 66842 0 1
gene 2 6546 9803 0.284961 0 66853 0.284961 1
gene 1 11783 12438 0.927877 0 67099 0.927877 1
gene 1 149 16908 1 0 67126 0 1
gene 1 16908 5413 0.0340277 0 67127 -0.0540794 1
gene 2 12 10376 0.548259 0 67161 0.548259 1
gene 2 13506 9175 -0.0523262 0 67167 -0.0523262 1
gene 3 3839 16932 0.88345 0 67199 0.13345 0
gene 3 16932 120 -0.961357 0 67200 0 1
gene 2 7170 16939 0.863639 0 67225 0.148795 1
gene 2 16939 2090 -3.88005 0 67226 -1.1253 1
gene 3 10384 16003 -0.797618 0 67401 -0.797618 1
gene 2 15053 9326 0.562498 0 67436 0.562498 1
gene 2 4750 16994 0.986071 0 67458 0.262438 1
gene 2 16994 1704 -1.66186 0 67459 -0.177911 1
gene 1 2986 16997 0.819114 0 67470 0.819114 1
gene 1 16997 7139 1.39444 0 67471 0 1
gene 3 3627 11314 -1.09562 0 67533 -1.09562 1
gene 2 2132 10381 -0.438761 0 67644 -0.438761 1
gene 1 11699 9357 -0.400744 0 67656 -0.400744 1
gene 3 9410 11478 0.603658 0 67683 0.603658 1
gene 3 13506 6261 -0.33233 0 67730 -0.33233 1
gene 1 10 17058 1 0 67747 0 1
gene 1 17058 3414 0.48616 0 67748 0 1
gene 3 4 17068 1.0441 0 67784 0.481596 1
gene 3 17068 8014 -0.607529 0 67785 0 1
gene 1 2478 11506 -0.981813 0 67849 -0.981813 1
gene 2 14803 10328 0.379135 0 67876 0.379135 1
gene 3 13008 5662 0.559807 0 68005 0.559807 1
gene 2 13506 17126 1.05172 0 68046 0.0985965 1
gene 2 17126 9175 0.513872 0 68047 0.532804 1
gene 3 1840 17134 1 0 68077 0 1
gene 3 17134 4156 -0.392369 0 68078 -0.451722 1
gene 2 3785 4614 -0.33959 0 68119 -0.33959 1
gene 3 17126 3961 0.355399 0 68128 0.355399 1
gene 3 17126 17149 0.480587 0 68139 -0.240116 1
gene 3 17149 3961 0.441798 0 68140 0.175249 1
gene 3 6 13809 -0.881421 0 68232 -0.881421 1
gene 1 7103 9334 0.453108 0 68293 0.453108 1
gene 3 12945 17198 0.830771 0 68330 0.303427 1
gene 3 17198 6672 0.841454 0 68331 0 1
gene 3 4 17217 0.681627 0 68395 0.181627 1
gene 3 17217 3001 -1.29636 0 68396 -0.901825 1
gene 3 3627 17221 1 0 68414 0 1
gene 3 17221 6672 -0.136245 0 68415 0.179166 1
gene 2 18 17242 0.273441 0 68494 -0.395626 1
gene 2 17242 876 0.162193 0 68495 -0.467899 1
gene 3 16242 5406 -0.711917 0 68576 -0.711917 1
gene 2 13789 16932 -0.866719 0 68591 -0.866719 1
gene 3 12853 11088 -0.734132 0 68616 -0.734132 1
gene 1 8014 17275 0.909753 0 68630 0.0269407 1
gene 1 17275 2253 -3.13973 0 68631 -1.51585 1
gene 2 5347 17294 1 0 68693 0 1
gene 2 17294 10640 0.55535 0 68694 -0.185393 1
gene 1 16306 13535 -0.875568 0 68706 -0.875568 1
gene 1 11294 9973 -0.162846 0 68862 -0.162846 1
gene 1 5849 9157 -0.340426 0 68884 -0.340426 1
gene 3 5240 17339 0.282406 0 68886 -0.332828 1
gene 3 17339 1372 -0.771729 0 68887 -0.144827 1
gene 1 13636 4005 0.723309 0 68910 0.723309 1
gene 1 15 17356 0.617417 0 68953 0.0637064 1
gene 1 17356 4745 2.14644 0 68954 0.536611 1
gene 3 14770 17394 0.263122 0 69073 -0.370057 1
gene 3 17394 6152 -0.380086 0 69074 -0.257044 1
gene 1 10876 13405 0.489605 0 69167 0.489605 1
gene 3 6369 17423 0.752518 0 69187 -0.116501 1
gene 3 17423 772 -7.97694 0 69188 -0.280283 1
gene 3 13666 15151 -0.15451 0 69198 -0.15451 1
gene 2 12620 17483 2.42136 0 69408 2.42136 1
gene 2 17483 12534 -1.22238 0 69409 -0.602678 1
gene 2 7103 6672 0.671213 0 69440 0.671213 1
gene 1 1412 8533 -0.360676 0 69461 -0.360676 1
gene 1 6911 14960 0.508131 0 69504 0.508131 1
gene 2 1328 4870 -0.400379 0 69522 -0.400379 1
gene 3 2090 9658 0.82674 0 69732 0.82674 1
gene 3 11473 17563 1 0 69772 0 1
gene 1 17563 1969 -4.51395 0 69773 -1.44231 1
gene 2 12945 9202 0.334436 0 69783 0.334436 1
gene 1 9473 17603 0.892928 0 69912 0.0101157 1
gene 1 17603 1049 4.3076 0 69913 0.53845 1
gene 2 5849 9428 0.94739 0 70000 0.94739 1
gene 2 10773 1784 -0.626858 0 70022 -0.626858 1
gene 2 8279 5784 0.0338327 0 70039 0.0338327 1
gene 2 298 17627 1.04976 0 70049 0.323198 1
gene 2 17627 744 0.297427 0 70050 0 1
gene 3 14880 149 0.111176 0 70289 0.111176 1
gene 3 7106 25 0.945707 0 70318 0.945707 1
gene 3 8238 17695 1 0 70340 0 1
gene 3 17695 5948 0.39651 0 70341 -0.0480174 1
gene 2 14710 2478 1.782 0 70484 1.782 1
gene 2 9184 7524 0.208635 0 70527 0.208635 1
gene 3 5142 17744 0.977806 0 70562 0.27761 1
gene 3 17744 7146 -0.766221 0 70563 -0.0957777 1
gene 3 12438 12925 -0.613202 0 70598 -0.613202 1
gene 1 9420 17800 0.982345 0 70768 0.258712 1
gene 1 17800 7524 -0.969885 0 70769 -0.242471 1
gene 3 974 15156 0.80644 0 70782 0.80644 1
gene 2 7139 13148 0.395926 0 70869 0.395926 1
gene 2 3981 17826 1 0 70887 0.25 1
gene 2 17826 1250 -1.13509 0 70888 -0.385435 1
gene 1 22 17831 1.11114 0 70902 0.204885 1
gene 2 17831 2765 -2.04651 0 70903 0.0649371 1
gene 3 6 17836 1.65735 0 70925 0.973862 1
gene 3 17836 2631 -2.71692 0 70926 -0.594459 1
gene 3 9361 17844 1.02478 0 70956 0.099001 1
gene 3 17844 2090 -7.03992 0 70957 -4.03992 1
gene 3 9114 17875 0.335853 0 71089 -0.414147 1
gene 3 17875 2253 -4.61441 0 71090 -1.4483 1
gene 1 14710 17356 -0.958428 0 71107 -0.958428 1
gene 3 15518 17890 1.2207 0 71135 0.61476 1
gene 3 17890 3839 -2.85697 0 71136 -0.612556 1
gene 2 8029 6742 0.508951 0 71190 0.508951 1
gene 2 10640 17911 0.968859 0 71248 0.218859 1
gene 2 17911 6741 -0.14799 0 71249 -0.149578 1
gene 3 13888 2543 -0.0586705 0 71303 -0.0586705 1
gene 3 15413 9772 -1.40991 0 71326 -1.40991 1
gene 2 2676 4156 -0.0590612 0 71350 -0.0590612 1
gene 3 14645 7576 0.274595 0 71395 0.274595 1
gene 2 2314 17890 -0.0847264 0 71540 -0.0847264 1
gene 1 5033 9175 0.065752 0 71689 0.065752 1
gene 2 16045 5550 0.46849 0 71831 0.46849 1
gene 3 11314 18060 1 0 71852 0.25 1
gene 3 18060 208 3.69436 0 71853 0 1
gene 1 7524 18087 1 0 71938 0 1
gene 1 18087 4588 -0.830222 0 71939 -0.272995 1
gene 2 18087 17149 0.68888 0 71999 0.68888 1
gene 2 6184 8099 0.152435 0 72150 0.152435 1
gene 1 11820 18179 1.32968 0 72278 0.579679 1
gene 1 18179 2381 -6.07836 0 72279 -1.18005 1
gene 3 1630 2253 -0.811896 0 72306 -0.811896 1
gene 1 7861 18208 1.03874 0 72378 0.0778058 1
gene 1 18208 7423 -0.0160167 0 72379 0.181282 1
gene 2 8434 17875 -0.294474 0 72419 -0.294474 1
gene 1 13161 1412 -0.802507 0 72510 -0.802507 1
gene 1 15752 16502 0.885443 0 72546 0.885443 1
gene 3 10328 7821 -0.0600429 0 72572 -0.0600429 1
gene 2 5640 13636 -0.798837 0 72588 -0.798837 1
gene 1 9184 18262 1.3713 0 72605 0.621301 1
gene 1 18262 8533 0.316645 0 72606 -0.0602054 1
gene 1 17394 13666 -0.678679 0 72635 -0.678679 1
gene 1 8099 7905 -0.451709 0 72650 -0.451709 1
gene 3 8434 13405 1.23397 0 72741 1.23397 1
gene 3 7077 11640 1.2438 0 72758 1.2438 1
gene 3 7077 18298 1.01699 0 72776 0.337301 1
gene 3 18298 4346 -0.209204 0 72777 -0.190343 1
gene 2 17198 16939 -0.217541 0 72793 -0.217541 1
gene 2 6307 18309 1.53702 0 72811 0.78702 1
gene 2 18309 8945 3.56154 0 72812 0 1
gene 1 4 18317 1.26451 0 72837 0.514509 1
gene 1 18317 203 7.98501 0 72838 1.99625 1
gene 3 3414 9150 -0.922898 0 73079 -0.922898 1
gene 1 6597 13148 -0.351961 0 73111 -0.351961 1
gene 3 10531 11699 -0.334603 0 73143 -0.334603 1
gene 2 14505 9642 -0.614944 0 73193 -0.614944 1
gene 1 2834 14360 0.257656 0 73283 0.257656 1
gene 3 11088 17603 -0.478921 0 73392 -0.478921 1
gene 1 2478 149 0.183152 0 73491 0.183152 1
gene 2 459 18493 1.16867 0 73502 0.512416 1
gene 2 18493 3145 -4.70722 0 73503 -2.60764 1
gene 2 752 18497 0.818386 0 73517 -0.0566136 1
gene 2 18497 4156 -0.469103 0 73518 0.0639192 1
gene 1 12749 3078 -0.179133 0 73547 -0.179133 1
gene 1 11640 3957 0.0490363 0 73595 0.0490363 1
gene 2 5240 18559 0.673474 0 73754 -0.0765264 1
gene 2 18559 203 2.11071 0 73755 0 1
gene 3 7576 9114 0.586358 0 73793 0.586358 1
gene 3 4148 15191 0.306043 0 73984 0.306043 1
gene 1 14 7170 0.290097 0 74021 0.290097 1
gene 1 4 18634 1.00099 0 74058 0.0400538 1
gene 1 18634 13017 1.30698 0 74059 0.686219 1
gene 3 1784 15191 -0.556818 0 74109 -0.556818 1
gene 1 3674 7576 -1.03746 0 74142 -1.03746 1
gene 3 2381 18658 1 0 74155 0.25 1
gene 3 18658 1784 -5.55059 0 74156 -0.383104 1
gene 2 18497 15143 -0.755183 0 74216 -0.755183 1
gene 2 8182 18689 1 0 74275 0 1
gene 2 18689 8533 -0.488539 0 74276 -0.295936 1
gene 3 3278 18700 1 0 74343 0 1
gene 2 18700 10918 -0.605214 0 74344 0.12918 1
gene 1 5178 18704 0.584274 0 74356 -0.136429 1
gene 1 18704 6111 0.87199 0 74357 0.647348 1
gene 1 9570 8696 -0.868565 0 74631 -0.868565 1
gene 1 11254 14037 0.591323 0 74646 0.591323 1
gene 1 27 6697 -0.111844 0 74659 -0.111844 1
gene 3 5406 12620 0.766885 0 74728 0.766885 1
gene 3 17695 11088 -0.6769 0 74909 -0.6769 1
gene 3 5807 18840 0.69984 0 74940 -0.00328542 1
gene 3 18840 9326 0.0866989 0 74941 -0.124898 1
gene 2 3078 13423 0.577067 0 74997 0.577067 1
gene 3 8029 18875 0.488552 0 75071 0.126736 1
gene 3 18875 14341 1 0 75072 0.25 1
gene 1 2314 16836 0.13538 0 75191 0.13538 1
gene 1 9570 18902 1 0 75213 0 1
gene 1 18902 12629 -2.35585 0 75214 -2.35585 1
gene 3 8146 18907 1.0208 0 75229 0.0989246 1
gene 3 18907 772 0.281363 0 75230 0.230178 1
gene 1 6828 4870 0.690371 0 75246 0.690371 1
gene 2 4924 12602 -0.774636 0 75262 -0.774636 1
gene 2 12388 7803 0.739462 0 75282 0.739462 1
gene 1 11378 16793 0.871217 0 75297 0.871217 1
gene 3 12602 5240 -0.131102 0 75359 -0.131102 1
gene 3 10017 15260 0.249847 0 75471 0.249847 1
gene 3 6369 18970 1.07441 0 75498 0.374217 1
gene 3 18970 772 -7.91245 0 75499 -0.527393 1
gene 2 2806 18976 1.52931 0 75517 0.779314 1
gene 2 18976 7384 0.886444 0 75518 0 1
gene 1 4 18984 1 0 75556 0 1
gene 1 18984 13017 0.929028 0 75557 0.217114 1
gene 1 14710 6932 -0.0942776 0 75602 -0.0942776 1
gene 3 14200 4156 -1.18976 0 75627 -1.18976 1
gene 1 7106 18840 0.338976 0 75764 0.338976 1
gene 1 13423 19034 -1.72796 0 75783 -1.72796 1
gene 1 19034 2333 -1.63158 0 75784 -0.478261 1
gene 3 4356 19061 1.66256 0 75873 1.66256 1
gene 3 19061 3627 1.01948 0 75874 0.131299 1
gene 2 27 4753 -0.258577 0 75892 -0.258577 1
gene 1 18087 19075 1.30148 0 75919 0.586637 1
gene 1 19075 4588 -0.87034 0 75920 -0.537985 1
gene 2 9943 11322 -0.201715 0 76087 -0.201715 1
gene 2 2708 10888 -0.546299 0 76181 -0.546299 1
gene 2 12620 19135 1 0 76199 0 1
gene 2 19135 12534 -1.41432 0 76200 -0.742092 1
gene 2 8178 15073 -0.36699 0 76376 -0.36699 1
gene 3 2806 16836 -0.358328 0 76401 -0.358328 1
gene 3 4745 12853 0.787939 0 76475 0.787939 1
gene 2 16003 16590 0.524976 0 76580 0.524976 1
gene 1 7524 19242 1.08188 0 76604 0.128758 1
gene 3 19242 4588 -0.192412 0 76605 0.268742 1
gene 3 19061 19247 0.65765 0 76619 -0.0923505 1
gene 3 19247 3627 1.51194 0 76620 0.868772 1
gene 1 1168 15073 -0.917321 0 76637 -0.917321 1
gene 1 3713 19268 0.524294 0 76729 -0.178831 1
gene 1 19268 390 0.986718 0 76730 0.0436545 1
gene 3 6 3254 -0.483716 0 77120 -0.483716 1
gene 2 13745 5550 0.782985 0 77252 0.782985 1
gene 3 8533 19411 0.930895 0 77288 0.274645 1
gene 3 19411 12028 0.00319292 0 77289 0.144944 1
gene 2 10328 19420 1.25052 0 77309 0.375521 1
gene 2 19420 13042 1.13846 0 77310 0.388464 1
gene 1 13103 12058 0.175881 0 77355 0.175881 1
gene 3 18298 12034 0.641554 0 77398 0.641554 1
gene 3 3025 11377 0.435041 0 77554 0.435041 1
gene 2 10 15260 -0.569689 0 77615 -0.569689 1
gene 3 17483 19268 -1.07283 0 77626 -1.07283 1
gene 3 8238 19505 0.798246 0 77667 0.0482457 1
gene 3 19505 5948 0.454712 0 77668 0.0976022 1
gene 3 3278 19515 0.505274 0 77698 -0.221288 1
gene 3 19515 3695 -5.39383 0 77699 -1.989 1
gene 3 19411 3785 -0.389519 0 77861 -0.389519 1
gene 2 8434 19555 0.631949 0 77868 -0.0477386 1
gene 2 19555 17875 0.292881 0 77869 0.0740087 1
gene 2 17695 12620 0.193763 0 77909 0.193763 1
gene 3 13 378 -0.225636 0 77930 -0.225636 1
gene 1 9 17134 -0.630997 0 78147 -0.630997 1
gene 3 8696 19637 1.31653 0 78201 0.824345 1
gene 3 19637 4614 -0.116676 0 78202 0.0850548 1
gene 3 5 19641 1 0 78215 0 1
gene 3 19641 208 1.65913 0 78216 0 1
gene 1 11942 19675 -0.124731 0 78346 -0.486547 1
gene 1 19675 208 -7.14523 0 78347 0 1
gene 3 13050 14744 1.64472 0 78425 1.64472 1
gene 3 9669 19697 1.24192 0 78441 0.562233 1
gene 3 19697 3961 -1.10511 0 78442 -0.397495 1
gene 2 16793 4745 -0.206035 0 78468 -0.206035 1
gene 1 1250 19749 1.08708 0 78647 0.407388 1
gene 1 19749 27 0.0544443 0 78648 0.213241 1
gene 3 16 19792 1 0 78818 0 1
gene 3 19792 7077 -0.830347 0 78819 -0.584278 1
gene 3 12134 19800 1 0 78842 0 1
gene 3 19800 3961 -0.932724 0 78843 0 1
gene 3 17875 19806 1 0 78864 0.25 1
gene 3 19806 2253 -4.32857 0 78865 -1.08214 1
gene 1 675 19820 1.16027 0 78916 0.439563 1
gene 1 19820 25 -4.42328 0 78917 -0.583395 1
gene 1 18970 14667 0.0180101 0 79030 0.0180101 1
gene 1 13789 14523 -0.592248 0 79046 -0.592248 1
gene 3 9 14803 -0.168666 0 79050 -0.168666 1
gene 3 4151 19856 0.892756 0 79076 0.339045 1
gene 3 19856 7084 0.334512 0 79077 -0.0375489 1
gene 3 9420 19901 1 0 79238 0.25 1
gene 3 19901 11699 0.164632 0 79239 -0.148845 1
gene 2 6911 2676 -0.223416 0 79262 -0.223416 1
gene 3 8972 6025 -0.973714 0 79296 -0.973714 1
gene 1 6635 14360 -0.231125 0 79343 -0.231125 1
gene 3 11314 16590 0.133433 0 79365 0.133433 1
gene 1 13809 15244 -0.410737 0 79383 -0.410737 1
gene 1 15 19946 1 0 79434 0.25 1
gene 1 19946 15073 1.14604 0 79435 0.519085 1
gene 3 12945 16793 -0.134363 0 79456 -0.134363 1
gene 2 4849 19965 1 0 79491 0 1
gene 2 19965 1313 1.63458 0 79492 0.408645 1
gene 2 17394 9803 0.186703 0 79516 0.186703 1
gene 2 7478 18309 1.91783 0 79539 1.91783 1
gene 1 19901 5807 -0.853415 0 79566 -0.853415 1
gene 2 8182 20012 1 0 79695 0 1
gene 2 20012 8533 0.0576146 0 79696 0.185942 1
gene 2 3414 7077 -0.300383 0 79708 -0.300383 1
gene 3 4 20032 0.880848 0 79773 -0.0449336 1
gene 3 20032 17068 1 0 79774 0.25 1
gene 2 15100 11412 0.287936 0 79787 0.287936 1
gene 3 11478 11545 -0.680426 0 79907 -0.680426 1
gene 1 15 20067 1 0 79925 0 0
gene 1 20067 298 5.91353 0 79926 0.968549 1
gene 3 7423 20069 0.985962 0 79938 0.359009 1
gene 3 20069 11699 -0.0379322 0 79939 0 1
gene 1 4944 17198 -1.89203 0 80185 -1.89203 1
gene 2 10264 19641 0.428791 0 80212 0.428791 1
