genomestart 1
trait 1 0.332422 0.485617 0.194575 0 0 0 0.427205 0.053126
trait 2 0.19995 0 0.41283 0 0.111905 0 0.091018 0
trait 3 0.309459 0 0.0702194 0.485099 0.055177 0.289998 0.382481 0.260709
node 1 1 1 3
node 2 1 1 1
node 3 3 1 1
node 4 2 1 1
node 5 2 1 1
node 6 2 1 1
node 7 1 1 1
node 8 1 1 1
node 9 3 1 1
node 10 2 1 1
node 11 2 1 1
node 12 1 1 1
node 13 3 1 1
node 14 1 1 1
node 15 2 1 1
node 16 2 1 1
node 17 1 1 1
node 18 1 1 1
node 19 1 1 1
node 20 2 1 1
node 21 3 1 1
node 22 2 1 1
node 23 3 1 1
node 24 3 1 1
node 25 1 0 2
node 26 3 0 2
node 47 3 0 0
node 192 1 0 0
node 206 1 0 0
node 240 1 0 0
gene 1 1 25 6.39107 0 1 6.39107 1
gene 3 2 25 -1.49492 0 2 -1.49492 1
gene 1 3 25 -7.73892 0 3 -7.73892 1
gene 3 4 25 -1.71944 0 4 -1.71944 1
gene 3 5 25 3.92843 0 5 3.92843 1
gene 3 6 25 8 0 6 8 1
gene 1 7 25 -6.49434 0 7 -6.49434 1
gene 1 8 25 6.52995 0 8 6.52995 1
gene 3 9 25 -2.09993 0 9 -2.09993 1
gene 3 10 25 -0.0846812 0 10 -0.0846812 1
gene 2 11 25 -2.33769 0 11 -2.33769 0
gene 1 12 25 4.25568 0 12 4.25568 1
gene 3 13 25 3.75041 0 13 3.75041 1
gene 2 14 25 -4.57607 0 14 -4.57607 1
gene 1 15 25 4.57173 0 15 4.57173 1
gene 2 16 25 3.30601 0 16 3.30601 1
gene 3 17 25 3.58053 0 17 3.58053 1
gene 3 18 25 1.71831 0 18 1.71831 1
gene 3 19 25 1.61268 0 19 1.61268 1
gene 3 20 25 4.63119 0 20 4.63119 1
gene 1 21 25 -3.90464 0 21 -3.90464 1
gene 1 22 25 4.50927 0 22 4.50927 1
gene 2 23 25 -0.632377 0 23 -0.632377 1
gene 3 24 25 0.82969 0 24 0.82969 1
gene 3 1 26 -8 0 25 -8 1
gene 2 2 26 -8 0 26 -8 1
gene 2 3 26 -1.22754 0 27 -1.22754 1
gene 3 4 26 -7.01015 0 28 -7.01015 1
gene 2 5 26 1.17039 0 29 1.17039 0
gene 2 6 26 4.11435 0 30 4.11435 1
gene 3 7 26 -5.77604 0 31 -5.77604 1
gene 1 8 26 0.446099 0 32 0.446099 1
gene 2 9 26 6.78443 0 33 6.78443 1
gene 2 10 26 0.429447 0 34 0.429447 1
gene 1 11 26 -0.376669 0 35 -0.376669 1
gene 2 12 26 5.38062 0 36 5.38062 1
gene 1 13 26 0.0838608 0 37 0.0838608 1
gene 3 14 26 -5.37727 0 38 -5.37727 1
gene 3 15 26 -1.72491 0 39 -1.72491 1
gene 3 16 26 -5.58791 0 40 -5.58791 1
gene 3 17 26 7.01206 0 41 7.01206 1
gene 2 18 26 -3.32668 0 42 -3.32668 0
gene 2 19 26 -2.55982 0 43 -2.55982 1
gene 2 20 26 -3.05524 0 44 -3.05524 1
gene 2 21 26 2.27542 0 45 2.27542 1
gene 1 22 26 0.68215 0 46 0.68215 1
gene 1 23 26 -0.893719 0 47 -0.893719 1
gene 3 24 26 3.09647 0 48 3.09647 1
gene 3 25 26 -3.28009 0 69 -3.28009 1
gene 2 11 47 1.48027 0 112 1.48027 1
gene 2 47 25 0.468703 0 113 0.468703 1
gene 3 22 47 -2.52428 0 145 -2.52428 1
gene 3 20 47 -0.26796 0 200 -0.26796 1
gene 3 1 47 0.0463663 0 215 0.0463663 1
gene 1 6 47 3.24489 0 319 3.24489 1
gene 3 4 47 -0.163347 0 424 -0.163347 1
gene 3 14 47 -0.487274 0 464 -0.487274 1
gene 3 17 47 -0.928828 0 479 -0.928828 1
gene 2 19 47 0.685657 0 510 0.685657 1
gene 3 47 26 0.971381 0 537 0.971381 1
gene 2 18 192 1 0 590 0 1
gene 2 192 26 -2.74346 0 591 0 1
gene 2 5 192 -0.501922 0 621 -0.501922 1
gene 3 8 192 -0.784509 0 632 -0.784509 1
gene 1 3 206 0.000562302 0 638 -0.499438 1
gene 1 206 25 -8 0 639 -4 1
gene 2 47 206 -0.963537 0 700 -0.963537 1
gene 1 6 240 1 0 751 0 1
gene 1 240 47 1.9854 0 752 0 1
gene 1 18 47 -0.671126 0 886 -0.671126 1
genomeend 1
