genomestart 68
trait 1 0.025 0 0.318994 0.893702 0.890819 0 0 0
trait 2 0.662619 0.0152109 0.151863 0.711123 0.392861 0.0046218 1 0.731868
trait 3 0.314922 0.300554 0.626733 0.0336927 0.8179 0.402228 0.383043 1
node 1 3 1 3
node 2 1 1 1
node 3 1 1 1
node 4 1 1 1
node 5 2 1 1
node 6 2 1 1
node 7 1 1 1
node 8 3 1 1
node 9 3 1 1
node 10 1 1 1
node 11 3 1 1
node 12 3 1 1
node 13 1 1 1
node 14 1 1 1
node 15 3 1 1
node 16 3 1 1
node 17 1 1 1
node 18 2 1 1
node 19 2 1 1
node 20 2 1 1
node 21 1 1 1
node 22 1 1 1
node 23 1 1 1
node 24 1 1 1
node 25 1 0 2
node 26 3 0 2
node 37 1 0 0
node 59 1 0 0
node 69 1 0 0
node 75 1 0 0
node 241 1 0 0
node 246 1 0 0
node 254 1 0 0
node 261 1 0 0
node 266 1 0 0
node 367 1 0 0
node 395 1 0 0
node 398 1 0 0
node 411 1 0 0
node 462 1 0 0
node 468 1 0 0
node 471 1 0 0
node 506 1 0 0
node 523 1 0 0
node 543 1 0 0
node 553 1 0 0
node 557 1 0 0
node 632 1 0 0
node 637 1 0 0
node 674 1 0 0
node 689 1 0 0
node 738 1 0 0
node 753 1 0 0
node 806 1 0 0
node 822 1 0 0
node 852 1 0 0
node 926 1 0 0
node 935 1 0 0
node 952 1 0 0
node 960 1 0 0
node 1005 1 0 0
node 1010 1 0 0
node 1028 1 0 0
node 1033 1 0 0
node 1041 1 0 0
node 1128 2 0 0
node 1158 1 0 0
node 1189 3 0 0
node 1192 1 0 0
node 1221 1 0 0
node 1250 1 0 0
node 1373 1 0 0
node 1385 1 0 0
node 1387 1 0 0
node 1401 1 0 0
node 1422 1 0 0
node 1511 1 0 0
node 1515 1 0 0
node 1616 1 0 0
node 1628 1 0 0
node 1631 1 0 0
node 1683 1 0 0
node 1718 1 0 0
node 1734 1 0 0
node 1764 1 0 0
node 1781 1 0 0
node 1929 1 0 0
node 2093 1 0 0
node 2163 1 0 0
node 2180 1 0 0
node 2189 1 0 0
node 2194 1 0 0
node 2198 1 0 0
node 2203 1 0 0
node 2208 1 0 0
node 2265 1 0 0
node 2316 1 0 0
node 2329 1 0 0
node 2411 1 0 0
node 2416 1 0 0
node 2429 1 0 0
node 2512 1 0 0
node 2551 1 0 0
node 2594 1 0 0
node 2613 1 0 0
node 2627 1 0 0
node 2636 1 0 0
node 2674 1 0 0
node 2694 1 0 0
node 2722 1 0 0
node 2767 1 0 0
node 2799 1 0 0
node 2816 1 0 0
node 2865 1 0 0
node 2887 1 0 0
node 2901 1 0 0
node 2914 1 0 0
node 2938 1 0 0
node 2955 1 0 0
node 2973 1 0 0
node 2978 1 0 0
node 3020 1 0 0
node 3073 1 0 0
gene 1 1 25 -7.0513 0 1 -7.0513 1
gene 3 2 25 1.51415 0 2 1.51415 1
gene 1 3 25 1.40841 0 3 1.40841 1
gene 2 4 25 -3.60849 0 4 -3.60849 1
gene 2 5 25 1.50136 0 5 1.50136 1
gene 2 6 25 1.2095 0 6 1.2095 1
gene 3 7 25 -7.01086 0 7 -7.01086 1
gene 1 8 25 -3.72667 0 8 -3.72667 0
gene 1 9 25 3.5209 0 9 3.5209 1
gene 1 10 25 4.60871 0 10 4.60871 1
gene 2 11 25 -2.04372 0 11 -2.04372 1
gene 3 12 25 -1.43547 0 12 -1.43547 1
gene 2 13 25 -0.0993875 0 13 -0.0993875 1
gene 2 14 25 2.10789 0 14 2.10789 1
gene 3 15 25 -3.17846 0 15 -3.17846 0
gene 1 16 25 6.57153 0 16 6.57153 1
gene 3 17 25 0.793057 0 17 0.793057 1
gene 2 18 25 0.910071 0 18 0.910071 1
gene 1 19 25 0.385697 0 19 0.385697 1
gene 1 20 25 7.08992 0 20 7.08992 1
gene 3 21 25 -3.06826 0 21 -3.06826 1
gene 1 22 25 1.11445 0 22 1.11445 1
gene 2 23 25 2.31581 0 23 2.31581 1
gene 2 24 25 -5.07168 0 24 -5.07168 1
gene 1 1 26 -3.02529 0 25 -3.02529 1
gene 1 2 26 -7.69556 0 26 -7.69556 1
gene 3 3 26 -5.85407 0 27 -5.85407 1
gene 3 4 26 2.88934 0 28 2.88934 1
gene 2 5 26 1.44516 0 29 1.44516 1
gene 1 6 26 -0.55267 0 30 -0.55267 1
gene 2 7 26 4.97099 0 31 4.97099 1
gene 3 8 26 -0.842434 0 32 -0.842434 1
gene 1 9 26 3.69468 0 33 3.69468 1
gene 3 10 26 -2.01623 0 34 -2.01623 1
gene 3 11 26 -0.135503 0 35 -0.135503 1
gene 3 12 26 1.65783 0 36 1.65783 1
gene 2 13 26 0.303579 0 37 0.303579 1
gene 2 14 26 3.80889 0 38 3.80889 1
gene 1 15 26 3.12443 0 39 3.12443 1
gene 2 16 26 -1.64367 0 40 -1.64367 1
gene 2 17 26 2.99535 0 41 2.99535 0
gene 3 18 26 3.86999 0 42 3.86999 1
gene 1 19 26 -0.61568 0 43 -0.61568 1
gene 1 20 26 4.58225 0 44 4.58225 1
gene 3 21 26 0.932014 0 45 0.932014 1
gene 1 22 26 -4.70337 0 46 -4.70337 1
gene 3 23 26 0.145826 0 47 0.145826 1
gene 3 24 26 -1.76307 0 48 -1.76307 1
gene 2 18 37 0.0911341 0 76 0.0911341 1
gene 2 37 26 -5.57697 0 77 -5.57697 1
gene 2 22 37 -1.10764 0 91 -1.10764 1
gene 2 7 59 -4.01773 0 152 -4.01773 1
gene 2 59 26 0.271413 0 153 0.271413 1
gene 3 15 69 -0.928968 0 180 -0.928968 1
gene 3 69 25 2.80431 0 181 2.80431 1
gene 1 17 75 -1.35178 0 201 -1.35178 1
gene 2 75 25 0.78276 0 202 0.78276 1
gene 1 69 37 6.57273 0 218 6.57273 1
gene 1 9 37 -4.19509 0 329 -4.19509 1
gene 1 14 59 1.54563 0 374 1.54563 1
gene 1 69 59 -1.17952 0 532 -1.17952 1
gene 3 10 69 1.57147 0 590 1.57147 1
gene 1 15 75 0.214048 0 764 0.214048 1
gene 3 11 59 -0.353501 0 807 -0.353501 1
gene 2 4 69 0.571034 0 812 0.571034 1
gene 3 15 241 3.73943 0 846 3.73943 1
gene 3 241 69 1.18732 0 847 1.18732 1
gene 2 5 246 1.02633 0 862 1.02633 1
gene 2 246 25 1.65083 0 863 1.65083 1
gene 1 8 254 -2.12851 0 889 -2.12851 1
gene 3 254 25 2.06106 0 890 2.06106 1
gene 2 7 261 0.365493 0 916 0.365493 1
gene 2 261 59 -2.04762 0 917 -2.04762 1
gene 2 59 266 -2.35665 0 928 -2.35665 1
gene 2 266 26 0.312548 0 929 0.312548 1
gene 1 13 37 -0.178069 0 946 -0.178069 1
gene 3 2 75 0.598336 0 1073 0.598336 1
gene 2 24 75 2.33021 0 1090 2.33021 1
gene 2 7 266 -0.531595 0 1108 -0.531595 1
gene 2 16 367 1.69041 0 1297 1.57866 1
gene 2 367 26 -3.15845 0 1298 -3.01389 1
gene 3 4 395 1.86942 0 1397 1.79918 1
gene 3 395 26 2.79025 0 1398 2.7128 1
gene 3 11 398 -1.00834 0 1412 -1.04319 1
gene 2 398 25 0.42435 0 1413 0.425715 1
gene 3 23 75 1.11788 0 1437 1.11788 1
gene 2 18 411 2.0909 0 1459 2.00844 1
gene 1 411 25 0.372667 0 1460 0.376306 1
gene 3 37 398 3.59541 0 1472 3.59541 1
gene 2 37 59 -1.07206 0 1489 -1.07206 1
gene 1 13 254 -1.00736 0 1530 -1.00736 1
gene 2 14 411 0.29449 0 1553 0.29449 1
gene 1 10 246 -0.141211 0 1577 -0.141211 1
gene 3 246 59 2.0563 0 1604 2.0563 1
gene 3 12 462 0.0786974 0 1664 -0.0201795 1
gene 3 462 25 -0.807768 0 1665 -0.794803 1
gene 2 398 468 -2.80161 0 1680 -2.84006 1
gene 2 468 25 -0.497453 0 1681 -0.494368 1
gene 2 5 471 3.32815 0 1701 3.31325 1
gene 2 471 246 0.718172 0 1702 0.674049 1
gene 3 19 468 -0.143922 0 1794 -0.143922 1
gene 2 23 398 -1.58297 0 1836 -1.58297 1
gene 1 3 506 -0.334606 0 1846 -0.373873 1
gene 1 506 25 0.0846088 0 1847 -0.0567309 1
gene 3 261 398 -0.291169 0 1865 -0.291169 1
gene 3 367 59 0.260968 0 1919 0.260968 1
gene 1 8 523 3.64145 0 1936 3.61158 1
gene 1 523 254 0.924568 0 1937 0.857202 1
gene 3 14 468 -0.629756 0 1953 -0.629756 1
gene 2 12 367 1.20937 0 1981 1.20937 1
gene 1 69 543 2.74956 0 1999 2.71111 1
gene 1 543 37 5.50721 0 2000 4.52489 1
gene 2 1 261 -0.567989 0 2021 -0.567989 1
gene 2 4 553 3.32281 0 2029 3.30221 1
gene 2 553 25 0.503786 0 2030 0.574026 1
gene 2 24 557 -0.103874 0 2047 -0.142326 1
gene 2 557 75 1.71535 0 2048 1.66076 1
gene 3 15 471 1.46849 0 2189 1.46849 1
gene 1 3 632 1.51015 0 2335 1.47719 1
gene 1 632 506 1.7832 0 2336 1.65752 1
gene 1 8 637 0.257144 0 2352 0.231601 1
gene 1 637 523 3.06908 0 2353 3.04723 1
gene 1 246 398 1.1109 0 2376 1.1109 1
gene 3 3 462 -1.43859 0 2390 -1.43859 1
gene 2 69 26 0.708594 0 2421 0.708594 1
gene 3 22 261 -0.716067 0 2428 -0.716067 1
gene 3 254 241 2.22881 0 2476 2.22881 1
gene 1 19 674 2.02771 0 2501 1.78875 1
gene 1 674 25 -2.27491 0 2502 -2.25526 1
gene 3 3 689 1.52515 0 2570 1.34635 1
gene 3 689 462 0.553852 0 2571 0.607752 1
gene 3 3 241 -0.129583 0 2603 -0.129583 1
gene 2 16 241 -0.331274 0 2692 -0.331274 1
gene 3 3 738 0.963413 0 2766 0.635288 1
gene 3 738 26 -4.87924 0 2767 -4.28331 1
gene 2 523 506 -0.565616 0 2789 -0.565616 1
gene 1 12 753 -0.105824 0 2840 -0.257229 1
gene 2 753 367 1.72357 0 2841 1.50521 1
gene 1 19 246 -0.0674729 0 3026 -0.0674729 1
gene 2 12 806 -0.0675169 0 3056 -0.521618 1
gene 2 806 753 1.66726 0 3057 1.38586 1
gene 3 19 822 1.21823 0 3111 1.05893 1
gene 3 822 468 -1.46047 0 3112 -1.2949 1
gene 1 632 266 1.12248 0 3121 1.12248 1
gene 1 7 395 1.58321 0 3170 1.58321 1
gene 2 14 254 0.770848 0 3183 0.770848 1
gene 2 69 246 0.999719 0 3198 0.999719 1
gene 1 18 632 -0.951659 0 3228 -0.951659 1
gene 3 18 852 1.32399 0 3256 1.13649 1
gene 3 852 26 1.30528 0 3257 0.878929 1
gene 2 674 246 0.0406908 0 3279 0.0406908 1
gene 3 75 241 -0.793049 0 3424 -0.793049 1
gene 1 1 753 -0.439579 0 3472 -0.439579 1
gene 1 246 753 -1.27952 0 3516 -1.27952 1
gene 2 18 926 1.21121 0 3533 0.969022 1
gene 2 926 411 2.07895 0 3534 1.63334 1
gene 1 8 935 -0.188699 0 3565 -0.27659 1
gene 1 935 254 0.584798 0 3566 0.678775 1
gene 1 1 806 1.79646 0 3590 1.79646 1
gene 3 2 952 0.627896 0 3629 0.264615 1
gene 3 952 25 1.7474 0 3630 1.38611 1
gene 2 4 960 0.988557 0 3659 0.877046 1
gene 2 960 553 3.52906 0 3660 3.11315 0
gene 1 557 632 0.441759 0 3759 0.441759 1
gene 2 37 738 0.308351 0 3793 0.308351 1
gene 3 926 468 -0.675285 0 3822 -0.675285 1
gene 1 254 1005 0.308019 0 3872 -0.0884656 1
gene 1 1005 25 2.1242 0 3873 1.34863 1
gene 1 18 1010 1.24493 0 3888 1.14581 1
gene 1 1010 632 -0.133603 0 3889 -0.284536 1
gene 3 19 689 -0.450499 0 3945 -0.450499 1
gene 3 395 1028 1.92823 0 3953 1.81849 1
gene 3 1028 26 0.785751 0 3954 0.258686 1
gene 2 367 1033 1.72201 0 3973 1.53451 1
gene 2 1033 26 -1.59694 0 3974 -0.959189 1
gene 3 9 266 0.0955936 0 3999 0.0955936 1
gene 1 69 1041 0.222168 0 4011 -0.0510025 1
gene 1 1041 59 -0.757342 0 4012 -0.686539 1
gene 2 4 806 0.797383 0 4125 0.797383 1
gene 2 22 1010 -0.5625 0 4218 -0.5625 1
gene 1 5 952 -0.0119144 0 4319 -0.0119144 1
gene 1 632 1128 2.10453 0 4346 1.94047 1
gene 1 1128 506 1.07523 0 4347 0.831107 1
gene 3 26 411 2.28887 0 4381 2.28887 1
gene 1 1010 543 -0.253475 0 4435 -0.253475 1
gene 2 12 1158 -0.784582 0 4462 -1.12833 1
gene 2 1158 806 0.139528 0 4463 -0.0758036 1
gene 3 523 926 -0.498313 0 4520 -0.498313 1
gene 3 22 852 -1.02617 0 4528 -1.02617 1
gene 3 952 1189 1.4442 0 4583 1.3192 1
gene 3 1189 25 3.03383 0 4584 2.82855 1
gene 1 10 1192 1.35395 0 4594 1.01411 1
gene 1 1192 246 0.362359 0 4595 0.725083 1
gene 1 37 1028 -0.266245 0 4618 -0.266245 1
gene 2 20 471 0.665101 0 4695 0.665101 1
gene 2 6 468 -0.0958186 0 4708 -0.0958186 1
gene 2 20 1221 -0.294156 0 4726 -0.472866 1
gene 2 1221 471 1.45788 0 4727 1.35031 1
gene 1 24 398 0.889469 0 4773 0.889469 1
gene 2 523 1250 -0.732433 0 4829 -0.951183 1
gene 2 1250 506 0.871024 0 4830 0.776111 1
gene 2 632 1033 1.14503 0 4856 1.14503 1
gene 1 462 926 -0.0764346 0 4902 -0.0764346 1
gene 2 75 261 1.16093 0 4979 1.16093 1
gene 2 1010 254 1.27796 0 4991 1.27796 1
gene 3 6 1010 -0.423351 0 5008 -0.423351 1
gene 2 23 37 1.89607 0 5192 1.89607 1
gene 3 246 1128 1.0653 0 5239 1.0653 1
gene 1 1189 1005 0.391376 0 5257 0.391376 1
gene 1 411 1373 2.34844 0 5326 2.16094 0
gene 1 1373 25 1.5447 0 5327 0.83538 1
gene 1 37 1033 -0.982278 0 5345 -0.982278 1
gene 2 24 1385 -0.107297 0 5376 -0.353391 1
gene 2 1385 557 0.212839 0 5377 0.217181 1
gene 3 23 1387 1.12972 0 5387 1.03597 1
gene 3 1387 75 -1.05846 0 5388 -0.929811 1
gene 2 9 952 -0.391377 0 5415 -0.391377 1
gene 3 69 1401 1.50408 0 5442 1.00408 1
gene 3 1401 25 1.10272 0 5443 0.738716 1
gene 3 22 462 -0.067645 0 5525 -0.067645 1
gene 2 12 1422 0.596484 0 5554 0.460253 1
gene 2 1422 1158 1.79683 0 5555 1.68355 1
gene 1 1422 246 -0.760857 0 5573 -0.760857 1
gene 1 1250 1158 0.38123 0 5642 0.38123 1
gene 2 471 632 -1.24895 0 5696 -1.24895 1
gene 2 9 674 -0.54462 0 5753 -0.54462 1
gene 1 806 935 0.109811 0 5779 0.109811 1
gene 3 1387 59 0.35128 0 5832 0.35128 1
gene 3 462 806 1.05328 0 5850 1.05328 1
gene 1 1033 822 -0.277633 0 5873 -0.277633 1
gene 2 1128 395 0.224036 0 5902 0.224036 1
gene 1 462 1511 -0.643997 0 5920 -0.925247 1
gene 1 1511 926 0.0473259 0 5921 0.0932702 1
gene 2 18 1515 1.01022 0 5941 0.791474 1
gene 2 1515 411 1.94473 0 5942 1.45418 1
gene 1 632 411 -0.832656 0 5960 -0.832656 1
gene 2 7 1515 -2.73297 0 6015 -2.73297 1
gene 2 1221 1010 0.139749 0 6031 0.139749 1
gene 2 738 1033 -0.82904 0 6069 -0.82904 1
gene 3 6 395 0.323316 0 6119 0.323316 1
gene 3 2 935 1.55991 0 6209 1.55991 1
gene 1 24 806 0.404575 0 6308 0.404575 1
gene 1 261 241 -1.08564 0 6345 -1.08564 1
gene 3 852 1616 1 0 6356 0.5 1
gene 3 1616 26 1.06492 0 6357 0.52604 1
gene 1 6 1628 1.29167 0 6395 0.866866 1
gene 1 1628 26 0.314676 0 6396 -0.254768 1
gene 3 241 1631 0.967554 0 6409 -0.00119595 1
gene 3 1631 69 2.00102 0 6410 1.60443 1
gene 3 4 506 -0.478272 0 6476 -0.478272 1
gene 3 689 1683 -0.0693831 0 6606 -0.506883 1
gene 3 1683 462 0.462373 0 6607 0.00974605 1
gene 2 674 689 -1.24937 0 6637 -1.24937 1
gene 2 16 1718 1.22389 0 6736 0.661387 1
gene 2 1718 241 -0.535511 0 6737 -0.281757 1
gene 3 1387 1734 -0.113095 0 6789 -0.589658 1
gene 3 1734 75 -1.13522 0 6790 -0.448295 1
gene 1 1221 468 -0.956848 0 6897 -0.956848 1
gene 2 69 1005 1.60412 0 6916 1.60412 1
gene 1 738 411 -2.54858 0 6927 -2.54858 1
gene 2 13 1764 2.02557 0 6939 1.65057 1
gene 1 1764 37 -0.396456 0 6940 -0.262398 1
gene 3 674 1041 0.469797 0 6955 0.469797 1
gene 1 37 1781 1 0 6988 0 1
gene 1 1781 1028 1.61227 0 6989 1.33687 1
gene 1 1 1683 0.887445 0 7168 0.887445 1
gene 1 806 960 -2.27358 0 7198 -2.27358 1
gene 1 14 261 0.701793 0 7334 0.701793 1
gene 3 1041 1401 -0.949487 0 7380 -0.949487 1
gene 3 960 632 1.13653 0 7419 1.13653 1
gene 2 22 1929 1.42832 0 7545 0.80283 1
gene 2 1929 37 -1.52012 0 7546 -1.24321 1
gene 1 738 1401 0.276661 0 7583 0.276661 1
gene 2 506 1616 0.274925 0 7900 0.274925 1
gene 3 23 1005 -0.264569 0 7909 -0.264569 1
gene 2 1515 1005 -0.0996963 0 7940 -0.0996963 1
gene 1 1010 398 -0.336438 0 7987 -0.336438 1
gene 2 1387 1250 0.471786 0 8116 0.471786 1
gene 1 19 2093 0.878739 0 8173 -0.0275115 1
gene 1 2093 25 0.385697 0 8174 0 0
gene 1 1929 1422 -0.758862 0 8239 -0.758862 1
gene 1 637 1158 0.150651 0 8261 0.150651 1
gene 3 3 2163 1 0 8437 0 1
gene 3 2163 26 -5.85407 0 8438 0 1
gene 2 254 952 0.297127 0 8485 0.297127 1
gene 1 8 2180 1 0 8496 0.0625 1
gene 1 2180 637 -0.324782 0 8497 -0.042816 1
gene 1 10 2189 0.775483 0 8521 -0.130767 1
gene 1 2189 1192 1.52359 0 8522 0 1
gene 2 5 2194 1 0 8536 0.046875 1
gene 2 2194 246 0.878281 0 8537 0.0151706 1
gene 1 3 2198 -0.573376 0 8551 -1.0265 1
gene 1 2198 632 2.15327 0 8552 0.201869 1
gene 1 1422 2203 1.15044 0 8575 0.244189 1
gene 1 2203 246 -0.712452 0 8576 -0.022925 1
gene 3 689 2208 1 0 8595 0 1
gene 3 2208 1683 -0.0365354 0 8596 0.0317636 1
gene 3 7 411 -0.0753621 0 8618 -0.0753621 1
gene 1 2163 2180 0.708098 0 8707 0.708098 1
gene 1 19 1929 -0.662969 0 8773 -0.662969 1
gene 2 12 2265 1 0 8786 0 1
gene 2 2265 1422 0.278449 0 8787 0.0108466 1
gene 1 2093 462 0.0589698 0 8793 0.0589698 1
gene 2 1158 506 0.0654326 0 8975 0.0654326 1
gene 2 4 2316 1 0 8998 0 1
gene 2 2316 806 0.797383 0 8999 0 1
gene 1 523 241 -0.410695 0 9043 -0.410695 1
gene 2 1250 2329 1 0 9054 0 1
gene 2 2329 506 0.871024 0 9055 0 1
gene 3 2 37 -0.67577 0 9076 -0.67577 1
gene 1 395 411 -0.671554 0 9083 -0.671554 1
gene 3 1 557 0.928384 0 9123 0.928384 1
gene 1 75 1929 -0.913352 0 9132 -0.913352 1
gene 2 20 637 -0.487812 0 9174 -0.487812 1
gene 3 1041 246 -0.0521621 0 9399 -0.0521621 1
gene 1 2189 2411 1 0 9406 0 1
gene 1 2411 1192 1.52359 0 9407 0 1
gene 2 806 2416 1 0 9423 0 1
gene 2 2416 753 1.66726 0 9424 0 1
gene 1 1515 254 -0.202723 0 9449 -0.202723 1
gene 1 6 2429 1 0 9463 0 1
gene 1 2429 1628 1.29167 0 9464 0 1
gene 1 1511 637 0.373991 0 9480 0.373991 1
gene 3 2093 1781 -0.9641 0 9524 -0.9641 1
gene 2 2429 1250 -0.264297 0 9612 -0.264297 1
gene 3 1385 543 0.392642 0 9681 0.392642 1
gene 1 395 398 0.205008 0 9698 0.205008 1
gene 2 11 1628 -0.602486 0 9728 -0.602486 1
gene 2 1221 1158 0.366588 0 9758 0.366588 1
gene 1 254 2512 1 0 9800 0 1
gene 1 2512 1005 0.308019 0 9801 0 1
gene 3 753 557 -0.171273 0 9825 -0.171273 1
gene 2 1683 266 -0.940754 0 9842 -0.940754 1
gene 3 1250 1764 0.212633 0 9853 0.212633 1
gene 3 1192 632 -0.0304153 0 9865 -0.0304153 1
gene 1 1511 2551 1 0 9944 0 1
gene 1 2551 926 0.0473259 0 9945 0 1
gene 3 689 935 0.39531 0 9990 0.39531 1
gene 2 1010 2194 -0.408961 0 10038 -0.408961 1
gene 1 1385 2316 0.705041 0 10061 0.705041 1
gene 3 69 2189 0.346453 0 10119 0.346453 1
gene 1 17 2594 1 0 10126 0 1
gene 1 2594 75 -1.35178 0 10127 0 1
gene 1 6 1128 -0.537679 0 10169 -0.537679 1
gene 3 557 1128 -0.117366 0 10182 -0.117366 1
gene 3 2 2613 1 0 10193 0 1
gene 3 2613 935 1.55991 0 10194 0 1
gene 1 2265 2594 -0.447964 0 10209 -0.447964 1
gene 3 960 2627 1 0 10243 0 1
gene 3 2627 632 1.13653 0 10244 0 1
gene 1 254 2636 1 0 10265 0 1
gene 1 2636 1005 0.308019 0 10266 0 1
gene 3 1515 1028 0.121288 0 10311 0.121288 1
gene 1 6 1028 -0.220547 0 10333 -0.220547 1
gene 3 7 2674 1 0 10434 0 0
gene 3 2674 411 -0.0753621 0 10435 0 1
gene 2 1511 2203 -0.0224055 0 10475 -0.0224055 1
gene 1 254 2694 1 0 10505 0 1
gene 1 2694 2636 1 0 10506 0 1
gene 2 2429 1028 0.541896 0 10523 0.541896 1
gene 3 69 2198 0.837826 0 10535 0.837826 1
gene 1 2189 1128 -0.987281 0 10635 -0.987281 1
gene 2 37 2722 1 0 10640 0 1
gene 2 2722 738 0.308351 0 10641 0 1
gene 1 632 543 -0.638797 0 10652 -0.638797 1
gene 1 6 2767 1 0 10797 0 1
gene 1 2767 1028 -0.220547 0 10798 0 1
gene 3 2180 806 0.250573 0 10815 0.250573 1
gene 2 18 1221 -0.109204 0 10859 -0.109204 1
gene 1 3 2799 1 0 10918 0 1
gene 1 2799 506 -0.334606 0 10919 0 1
gene 1 1128 25 -0.989859 0 10938 -0.989859 1
gene 1 13 398 0.913886 0 10958 0.913886 1
gene 3 1718 26 0.433684 0 10989 0.433684 1
gene 2 13 2816 1 0 11018 0 1
gene 2 2816 25 -0.0993875 0 11019 0 1
gene 3 75 2411 0.96326 0 11043 0.96326 1
gene 2 2194 2180 0.587367 0 11080 0.587367 1
gene 2 553 738 0.169915 0 11139 0.169915 1
gene 3 2180 2865 1 0 11204 0 1
gene 3 2865 806 0.250573 0 11205 0 1
gene 2 2694 1041 -0.217803 0 11283 -0.217803 1
gene 2 4 2887 1 0 11299 0 1
gene 2 2887 553 3.32281 0 11300 0 1
gene 2 1422 1005 -0.220013 0 11337 -0.220013 1
gene 1 632 2901 1 0 11358 0 1
gene 1 2901 1128 2.10453 0 11359 0 1
gene 2 5 2914 1 0 11403 0 1
gene 2 2914 2194 1 0 11404 0 1
gene 2 471 1033 -0.786452 0 11452 -0.786452 1
gene 1 2093 2938 1 0 11493 0 1
gene 1 2938 25 0.385697 0 11494 0 1
gene 2 2627 2265 -0.710816 0 11519 -0.710816 1
gene 1 8 2955 1 0 11556 0 1
gene 1 2955 25 -3.72667 0 11557 0 1
gene 1 1158 674 0.184124 0 11593 0.184124 1
gene 3 7 2973 1 0 11632 0 1
gene 3 2973 2674 1 0 11633 0 1
gene 1 411 2978 1 0 11649 0 1
gene 1 2978 1373 2.34844 0 11650 0 1
gene 3 2901 822 0.952047 0 11685 0.952047 1
gene 2 1511 2265 0.999945 0 11700 0.999945 1
gene 1 753 1189 0.597717 0 11717 0.597717 1
gene 2 1422 2416 0.432648 0 11788 0.432648 1
gene 1 506 2416 0.120444 0 11803 0.120444 1
gene 3 15 3020 1 0 11827 0 1
gene 3 3020 25 -3.17846 0 11828 0 1
gene 3 16 1373 0.121238 0 11878 0.121238 1
gene 1 822 2194 0.700385 0 11913 0.700385 1
gene 2 960 3073 1 0 12032 0 1
gene 2 3073 553 3.52906 0 12033 0 1
gene 1 5 3020 0.958873 0 12063 0.958873 1
gene 1 1628 254 0.754011 0 12102 0.754011 1
genomeend 68
