genomestart 1
trait 1 0.544659 0 0 0 0 0 0 0.0349246
trait 2 0.2 0.499728 0.777964 0 0 0 0.557081 0.976389
trait 3 0.294584 0.00641036 0.29906 0.0413621 0 0.536123 0.0142292 0.00217337
node 1 1 1 3
node 2 1 1 1
node 3 3 1 1
node 4 1 1 1
node 5 2 1 1
node 6 2 1 1
node 7 2 1 1
node 8 1 1 1
node 9 2 1 1
node 10 3 1 1
node 11 1 1 1
node 12 2 1 1
node 13 1 1 1
node 14 3 1 1
node 15 2 1 1
node 16 1 1 1
node 17 2 1 1
node 18 2 1 1
node 19 2 1 1
node 20 2 1 1
node 21 2 1 1
node 22 2 1 1
node 23 3 1 1
node 24 3 1 1
node 25 1 0 2
node 26 2 0 2
node 54 1 0 0
node 65 1 0 0
node 81 1 0 0
node 115 1 0 0
node 124 1 0 0
node 161 1 0 0
node 179 1 0 0
node 202 1 0 0
node 223 2 0 0
node 240 1 0 0
node 299 1 0 0
node 336 1 0 0
node 393 1 0 0
node 455 1 0 0
node 463 1 0 0
node 530 1 0 0
node 576 1 0 0
node 584 1 0 0
node 603 1 0 0
gene 3 1 25 8 0 1 8 1
gene 2 2 25 -6.5803 0 2 -6.5803 1
gene 3 3 25 2.51348 0 3 2.51348 1
gene 3 4 25 -3.94924 0 4 -3.94924 1
gene 1 5 25 -5.5312 0 5 -5.5312 1
gene 1 6 25 -8 0 6 -8 1
gene 1 7 25 0.10175 0 7 0.10175 1
gene 3 8 25 6.86304 0 8 6.86304 1
gene 3 9 25 2.71715 0 9 2.71715 1
gene 2 10 25 2.68432 0 10 2.68432 1
gene 1 11 25 -0.15821 0 11 -0.15821 1
gene 3 12 25 0.214098 0 12 0.214098 1
gene 3 13 25 4.14537 0 13 4.14537 1
gene 3 14 25 -3.68576 0 14 -3.68576 1
gene 2 15 25 -4.07592 0 15 -4.07592 1
gene 1 16 25 2.25353 0 16 2.25353 1
gene 3 17 25 3.67875 0 17 3.67875 0
gene 3 18 25 -0.0756966 0 18 -0.0756966 1
gene 2 19 25 5.31489 0 19 5.31489 1
gene 1 20 25 3.61423 0 20 3.61423 1
gene 3 21 25 -0.130032 0 21 -0.130032 1
gene 3 22 25 8 0 22 8 1
gene 1 23 25 -4.60489 0 23 -4.60489 1
gene 1 24 25 -0.489007 0 24 -0.489007 1
gene 1 1 26 -4.62558 0 25 -4.62558 1
gene 3 2 26 -6.6969 0 26 -6.6969 1
gene 1 3 26 -0.213984 0 27 -0.213984 1
gene 2 4 26 -3.37919 0 28 -3.37919 1
gene 3 5 26 -0.718244 0 29 -0.718244 1
gene 2 6 26 5.49299 0 30 5.49299 1
gene 2 7 26 0.459458 0 31 0.459458 1
gene 2 8 26 -3.58973 0 32 -3.58973 1
gene 3 9 26 -0.485873 0 33 -0.485873 0
gene 1 10 26 2.75702 0 34 2.75702 1
gene 2 11 26 -0.440039 0 35 -0.440039 1
gene 1 12 26 1.65171 0 36 1.65171 1
gene 1 13 26 1.86342 0 37 1.86342 0
gene 3 14 26 0.853792 0 38 0.853792 1
gene 1 15 26 -1.98952 0 39 -1.98952 0
gene 1 16 26 -7.74946 0 40 -7.74946 1
gene 3 17 26 -2.84653 0 41 -2.84653 1
gene 1 18 26 -4.45775 0 42 -4.45775 1
gene 2 19 26 4.58782 0 43 4.58782 1
gene 2 20 26 -8 0 44 -8 1
gene 1 21 26 0.195108 0 45 0.195108 1
gene 3 22 26 4.03294 0 46 4.03294 1
gene 1 23 26 -0.406192 0 47 -0.406192 1
gene 1 24 26 -1.16787 0 48 -1.16787 1
gene 1 26 25 4.90972 0 99 4.90972 1
gene 1 18 54 -8 0 124 -8 1
gene 1 54 25 -3.02667 0 125 -3.02667 1
gene 2 15 54 -6.08856 0 135 -6.08856 1
gene 1 15 65 -2.84741 0 151 -2.84741 1
gene 1 65 26 -2.16875 0 152 -2.16875 1
gene 1 12 81 -0.0999579 0 197 -0.0999579 1
gene 1 81 26 -0.59602 0 198 -0.59602 1
gene 1 3 54 3.54346 0 215 3.54346 0
gene 2 81 25 -5.14685 0 241 -5.14685 0
gene 3 19 65 -3.62852 0 291 -3.62852 0
gene 1 21 115 3.6407 0 310 3.6407 1
gene 1 115 26 -4.21253 0 311 -4.21253 1
gene 1 81 124 -3.84841 0 334 -3.84841 1
gene 2 124 26 0.875463 0 335 0.875463 1
gene 1 65 25 -6.17854 0 382 -6.17854 1
gene 1 21 161 1.53781 0 456 1.53781 1
gene 1 161 115 0.512341 0 457 0.512341 1
gene 1 18 179 1.76092 0 512 1.76092 1
gene 1 179 54 1.31537 0 513 1.31537 1
gene 1 20 81 -0.500873 0 578 -0.500873 1
gene 1 18 202 -0.0621473 0 593 -0.0621473 1
gene 1 202 25 2.60221 0 594 2.60221 1
gene 1 26 223 -2.40704 0 676 -2.40704 1
gene 1 223 25 -0.662728 0 677 -0.662728 0
gene 3 4 161 -0.867167 0 712 -0.867167 1
gene 3 17 240 -1.55552 0 742 -1.55552 1
gene 3 240 25 -0.557009 0 743 -0.557009 1
gene 1 15 299 -0.071867 0 1000 -0.071867 1
gene 1 299 26 0.775186 0 1001 0.775186 1
gene 1 299 25 -1.63284 0 1113 -1.63284 1
gene 1 18 336 0.467101 0 1126 0.467101 1
gene 1 336 54 -0.504508 0 1127 -0.504508 1
gene 3 21 81 1.31714 0 1183 1.31714 1
gene 2 7 393 2.09428 0 1322 2.09428 1
gene 2 393 26 -2.31745 0 1323 -2.31745 1
gene 1 223 455 1 0 1553 0 1
gene 1 455 25 -0.401587 0 1554 0 1
gene 1 15 463 1 0 1582 0 1
gene 1 463 26 -4.28119 0 1583 -4.28119 1
gene 3 336 124 0.840598 0 1693 0.840598 1
gene 3 3 124 0.0625427 0 1712 0.0625427 1
gene 2 81 223 0.0106161 0 1729 0.0106161 0
gene 3 19 530 1 0 1889 0 1
gene 3 530 65 -3.16782 0 1890 -3.16782 1
gene 3 1 223 -0.0126247 0 2072 -0.0126247 1
gene 3 455 240 -0.733857 0 2080 -0.733857 1
gene 1 13 576 1 0 2093 0 1
gene 1 576 26 1.86342 0 2094 0 1
gene 1 3 584 1 0 2124 0 1
gene 1 584 54 3.54346 0 2125 0 1
gene 2 81 603 1 0 2183 0 1
gene 2 603 223 0.0106161 0 2184 0 1
genomeend 1
