genomestart 63
trait 1 0.297263 0 0.247634 0.323546 0.804482 0.799196 0.695976 0.0754346
trait 2 0.673279 0.0380576 0.295804 0.895821 0 0.864766 0.809833 0.306695
trait 3 0.552065 0.453652 0.8188 0.489675 0.0846773 0.499807 0.150926 0.176528
node 1 1 1 3
node 2 2 1 1
node 3 3 1 1
node 4 1 1 1
node 5 1 1 1
node 6 2 1 1
node 7 1 1 1
node 8 3 1 1
node 9 1 1 1
node 10 3 1 1
node 11 3 1 1
node 12 1 1 1
node 13 3 1 1
node 14 1 1 1
node 15 3 1 1
node 16 1 1 1
node 17 3 1 1
node 18 1 1 1
node 19 2 1 1
node 20 1 1 1
node 21 1 1 1
node 22 1 1 1
node 23 1 1 1
node 24 3 1 1
node 25 1 0 2
node 26 3 0 2
node 31 1 0 0
node 70 1 0 0
node 93 2 0 0
node 162 3 0 0
node 198 3 0 0
node 242 1 0 0
node 257 1 0 0
node 261 3 0 0
node 263 1 0 0
node 269 1 0 0
node 290 1 0 0
node 339 1 0 0
node 366 2 0 0
node 371 1 0 0
node 377 1 0 0
node 476 1 0 0
node 551 1 0 0
node 633 1 0 0
node 701 1 0 0
node 752 1 0 0
node 755 1 0 0
node 785 3 0 0
node 808 1 0 0
node 1018 1 0 0
node 1032 1 0 0
node 1075 1 0 0
node 1140 1 0 0
node 1169 1 0 0
node 1228 2 0 0
node 1281 1 0 0
node 1305 1 0 0
node 1348 1 0 0
node 1351 1 0 0
node 1419 1 0 0
node 1442 1 0 0
node 1562 3 0 0
node 1641 1 0 0
node 1653 1 0 0
node 1691 1 0 0
node 1708 1 0 0
node 1756 1 0 0
node 1811 3 0 0
node 1874 3 0 0
node 1880 1 0 0
node 1950 1 0 0
node 2001 1 0 0
node 2046 1 0 0
node 2068 1 0 0
node 2073 1 0 0
node 2142 1 0 0
node 2189 1 0 0
node 2271 1 0 0
node 2278 2 0 0
node 2355 1 0 0
node 2404 1 0 0
node 2436 1 0 0
node 2441 1 0 0
node 2444 1 0 0
node 2501 1 0 0
node 2624 1 0 0
node 2668 1 0 0
node 2708 1 0 0
node 2720 1 0 0
node 2726 1 0 0
node 2791 1 0 0
node 2803 1 0 0
node 2817 1 0 0
node 2836 1 0 0
node 2859 1 0 0
node 3028 1 0 0
node 3039 1 0 0
node 3159 1 0 0
node 3169 3 0 0
node 3175 1 0 0
node 3353 1 0 0
node 3373 1 0 0
node 3445 1 0 0
node 3456 1 0 0
node 3497 1 0 0
node 3517 1 0 0
node 3540 1 0 0
node 3563 1 0 0
node 3581 1 0 0
node 3616 1 0 0
node 3658 1 0 0
node 3700 1 0 0
node 3775 1 0 0
node 3814 1 0 0
node 3849 1 0 0
node 3944 3 0 0
node 4039 1 0 0
node 4063 1 0 0
node 4080 1 0 0
node 4186 1 0 0
node 4207 1 0 0
node 4215 1 0 0
node 4279 1 0 0
node 4446 1 0 0
node 4451 1 0 0
node 4473 1 0 0
node 4483 1 0 0
node 4496 1 0 0
node 4520 1 0 0
node 4539 1 0 0
node 4604 1 0 0
node 4681 1 0 0
node 4745 1 0 0
node 4748 1 0 0
node 4752 1 0 0
node 4758 1 0 0
node 4769 1 0 0
node 4783 1 0 0
node 4786 1 0 0
node 4793 1 0 0
node 4800 1 0 0
node 4831 1 0 0
node 4862 1 0 0
node 4871 1 0 0
node 4887 1 0 0
node 4940 1 0 0
node 5003 1 0 0
node 5013 1 0 0
node 5110 1 0 0
node 5159 1 0 0
node 5178 1 0 0
node 5195 1 0 0
node 5203 1 0 0
node 5223 1 0 0
node 5233 1 0 0
node 5308 1 0 0
node 5329 1 0 0
node 5378 1 0 0
node 5403 1 0 0
node 5422 1 0 0
node 5432 1 0 0
node 5484 1 0 0
node 5492 1 0 0
node 5521 1 0 0
node 5528 1 0 0
node 5594 1 0 0
node 5610 1 0 0
node 5632 1 0 0
node 5696 1 0 0
node 5712 1 0 0
node 5739 1 0 0
node 5757 1 0 0
node 5767 1 0 0
node 5785 1 0 0
node 5824 1 0 0
node 5867 1 0 0
node 5887 1 0 0
node 5964 1 0 0
node 5971 1 0 0
node 6013 1 0 0
node 6029 1 0 0
node 6035 1 0 0
node 6084 1 0 0
node 6094 1 0 0
node 6119 1 0 0
node 6184 1 0 0
node 6238 1 0 0
node 6258 1 0 0
node 6268 1 0 0
node 6281 1 0 0
node 6350 1 0 0
node 6388 1 0 0
node 6400 1 0 0
node 6422 1 0 0
node 6446 1 0 0
node 6480 1 0 0
node 6505 1 0 0
node 6521 1 0 0
node 6526 1 0 0
node 6590 1 0 0
node 6604 1 0 0
node 6668 1 0 0
node 6672 1 0 0
node 6722 1 0 0
node 6749 1 0 0
node 6765 1 0 0
node 6772 1 0 0
node 6784 1 0 0
node 6824 1 0 0
node 6857 1 0 0
node 6908 1 0 0
node 6951 1 0 0
node 6963 1 0 0
node 6992 1 0 0
node 7004 1 0 0
node 7008 1 0 0
node 7090 1 0 0
node 7100 1 0 0
node 7107 1 0 0
node 7172 1 0 0
node 7247 1 0 0
node 7260 1 0 0
node 7278 1 0 0
node 7295 1 0 0
node 7299 1 0 0
node 7327 1 0 0
node 7335 1 0 0
node 7418 1 0 0
node 7457 1 0 0
node 7486 1 0 0
node 7493 1 0 0
node 7499 1 0 0
node 7602 1 0 0
node 7673 1 0 0
node 7691 1 0 0
node 7707 1 0 0
node 7731 1 0 0
node 7751 1 0 0
node 7792 1 0 0
node 7805 1 0 0
node 7810 1 0 0
node 7835 3 0 0
node 7845 1 0 0
node 7886 2 0 0
node 7933 1 0 0
node 7966 1 0 0
node 8052 1 0 0
node 8106 1 0 0
node 8120 1 0 0
node 8124 1 0 0
node 8130 1 0 0
node 8203 1 0 0
node 8215 1 0 0
node 8311 3 0 0
node 8360 1 0 0
node 8373 1 0 0
node 8533 1 0 0
node 8583 1 0 0
node 8593 2 0 0
node 8604 1 0 0
node 8654 1 0 0
node 8699 1 0 0
node 8730 1 0 0
node 8768 1 0 0
node 8803 1 0 0
node 8884 1 0 0
node 8908 1 0 0
node 8927 1 0 0
node 8959 1 0 0
node 8968 1 0 0
node 9039 1 0 0
node 9054 1 0 0
node 9106 1 0 0
node 9136 3 0 0
node 9140 1 0 0
node 9205 1 0 0
node 9241 1 0 0
node 9260 1 0 0
node 9275 1 0 0
node 9320 1 0 0
node 9330 1 0 0
node 9340 1 0 0
node 9347 1 0 0
node 9371 1 0 0
node 9414 1 0 0
node 9438 1 0 0
node 9482 1 0 0
node 9540 1 0 0
node 9546 1 0 0
node 9679 1 0 0
node 9729 1 0 0
node 9746 1 0 0
node 9753 1 0 0
node 9792 1 0 0
node 9823 1 0 0
node 9851 1 0 0
node 9861 1 0 0
node 9880 1 0 0
node 9895 1 0 0
node 9956 1 0 0
node 9985 1 0 0
node 10048 1 0 0
node 10057 1 0 0
node 10096 1 0 0
node 10115 1 0 0
node 10138 1 0 0
node 10148 1 0 0
node 10243 1 0 0
node 10348 1 0 0
node 10405 1 0 0
node 10484 1 0 0
node 10493 1 0 0
node 10518 1 0 0
node 10554 1 0 0
node 10570 1 0 0
node 10642 1 0 0
node 10671 1 0 0
node 10696 1 0 0
node 10722 1 0 0
node 10814 1 0 0
node 10819 1 0 0
node 10831 1 0 0
node 10839 1 0 0
node 10907 1 0 0
node 10953 1 0 0
node 10963 1 0 0
node 10990 1 0 0
node 11053 1 0 0
node 11060 1 0 0
node 11094 1 0 0
node 11179 1 0 0
node 11189 1 0 0
node 11191 1 0 0
node 11222 1 0 0
node 11247 1 0 0
node 11253 1 0 0
node 11325 1 0 0
node 11331 1 0 0
node 11333 1 0 0
node 11389 1 0 0
node 11395 1 0 0
node 11418 1 0 0
node 11461 1 0 0
node 11471 1 0 0
node 11500 1 0 0
node 11553 1 0 0
node 11636 1 0 0
node 11643 1 0 0
node 11677 1 0 0
node 11681 1 0 0
node 11752 1 0 0
node 11810 1 0 0
node 11863 1 0 0
node 11869 1 0 0
node 11932 1 0 0
node 11944 1 0 0
node 11972 1 0 0
node 11983 1 0 0
node 12015 1 0 0
node 12088 1 0 0
node 12111 1 0 0
node 12163 1 0 0
node 12170 1 0 0
node 12178 1 0 0
node 12211 1 0 0
node 12370 1 0 0
node 12388 1 0 0
node 12466 1 0 0
node 12471 1 0 0
node 12490 1 0 0
node 12499 1 0 0
node 12517 1 0 0
node 12570 1 0 0
node 12622 1 0 0
node 12636 1 0 0
node 12645 1 0 0
node 12740 1 0 0
node 12742 1 0 0
node 12785 1 0 0
node 12790 1 0 0
node 12868 1 0 0
node 12928 1 0 0
node 12936 1 0 0
node 12945 1 0 0
gene 3 1 25 -1.05936 0 1 -1.05936 1
gene 2 2 25 0.393775 0 2 0.393775 1
gene 2 3 25 -5.07769 0 3 -5.07769 1
gene 3 4 25 -3.51248 0 4 -3.51248 1
gene 1 5 25 4.02286 0 5 4.02286 1
gene 1 6 25 6.45038 0 6 6.45038 1
gene 1 7 25 -1.04902 0 7 -1.04902 1
gene 3 8 25 6.07627 0 8 6.07627 1
gene 2 9 25 -0.0866005 0 9 -0.0866005 1
gene 2 10 25 5.59249 0 10 5.59249 1
gene 2 11 25 -6.69698 0 11 -6.69698 1
gene 1 12 25 2.2092 0 12 2.2092 1
gene 1 13 25 5.7618 0 13 5.7618 1
gene 2 14 25 1.84528 0 14 1.84528 1
gene 3 15 25 6.36269 0 15 6.36269 1
gene 1 16 25 -2.0842 0 16 -2.0842 1
gene 1 17 25 0.0848152 0 17 0.0848152 1
gene 1 18 25 5.30268 0 18 5.30268 1
gene 2 19 25 2.98221 0 19 2.98221 0
gene 2 20 25 6.88394 0 20 6.88394 1
gene 3 21 25 -0.711144 0 21 -0.711144 1
gene 2 22 25 4.46716 0 22 4.46716 1
gene 1 23 25 -0.516603 0 23 -0.516603 1
gene 1 24 25 -6.48626 0 24 -6.48626 1
gene 1 1 26 -5.84675 0 25 -5.84675 1
gene 2 2 26 -7.96051 0 26 -7.96051 1
gene 1 3 26 -0.746513 0 27 -0.746513 1
gene 2 4 26 -5.28861 0 28 -5.28861 1
gene 2 5 26 2.05029 0 29 2.05029 1
gene 3 6 26 7.79592 0 30 7.79592 1
gene 3 7 26 -1.21844 0 31 -1.21844 1
gene 1 8 26 -0.0965066 0 32 -0.0965066 1
gene 1 9 26 0.694823 0 33 0.694823 1
gene 3 10 26 2.57795 0 34 2.57795 1
gene 3 11 26 -6.90391 0 35 -6.90391 1
gene 3 12 26 1.21509 0 36 1.21509 1
gene 1 13 26 0.217444 0 37 0.217444 1
gene 3 14 26 6.12477 0 38 6.12477 1
gene 2 15 26 -1.5539 0 39 -1.5539 1
gene 2 16 26 3.60928 0 40 3.60928 1
gene 1 17 26 -0.522415 0 41 -0.522415 1
gene 3 18 26 -4.12665 0 42 -4.12665 1
gene 2 19 26 1.36487 0 43 1.36487 1
gene 1 20 26 0.392064 0 44 0.392064 1
gene 2 21 26 -1.5803 0 45 -1.5803 1
gene 3 22 26 -3.77508 0 46 -3.77508 1
gene 2 23 26 7.61128 0 47 7.61128 1
gene 2 24 26 -6.50855 0 48 -6.50855 1
gene 3 14 31 -1.23059 0 58 -1.23059 1
gene 3 31 26 0.939142 0 59 0.939142 1
gene 3 7 31 -5.61624 0 78 -5.61624 1
gene 1 12 31 1.74915 0 120 1.74915 1
gene 1 15 31 -1.47972 0 139 -1.47972 1
gene 2 4 70 -2.59014 0 182 -2.59014 1
gene 2 70 26 5.63623 0 183 5.63623 1
gene 1 24 93 1.58169 0 253 1.58169 1
gene 1 93 25 -4.68972 0 254 -4.68972 1
gene 2 93 31 2.69585 0 451 2.69585 1
gene 1 15 70 -0.280689 0 478 -0.280689 1
gene 2 4 162 2.63848 0 510 2.63848 1
gene 2 162 70 -3.34764 0 511 -3.34764 1
gene 2 4 93 0.383895 0 584 0.383895 1
gene 3 31 198 0.888362 0 646 0.888362 1
gene 3 198 26 -1.75095 0 647 -1.75095 1
gene 1 15 198 -1.72636 0 811 -1.72636 1
gene 2 2 242 -2.92011 0 825 -2.92011 1
gene 2 242 25 -0.427924 0 826 -0.427924 1
gene 3 18 198 -0.506948 0 858 -0.506948 1
gene 2 9 257 -2.19068 0 889 -2.19068 1
gene 2 257 26 5.39968 0 890 5.39968 1
gene 2 4 261 0.113377 0 904 0.113377 1
gene 2 261 70 1.13194 0 905 1.13194 1
gene 1 19 263 2.40634 0 913 2.40634 1
gene 2 263 25 -1.91786 0 914 -1.91786 1
gene 3 12 269 5.33243 0 938 5.33243 1
gene 3 269 26 1.28501 0 939 1.28501 1
gene 3 20 257 0.411496 0 1000 0.411496 1
gene 3 7 290 -0.542915 0 1014 -0.542915 1
gene 3 290 31 -3.78196 0 1015 -3.78196 1
gene 1 20 242 1.06686 0 1168 1.06686 1
gene 1 7 339 0.0230986 0 1182 0.0230986 1
gene 1 339 25 2.29329 0 1183 2.29329 1
gene 3 3 93 -1.47201 0 1248 -1.47201 1
gene 3 10 366 1.17344 0 1296 1.17344 1
gene 3 366 26 0.721138 0 1297 0.721138 1
gene 1 21 371 1.33318 0 1319 1.33318 1
gene 3 371 25 -6.61002 0 1320 -6.61002 1
gene 2 4 377 1.49876 0 1345 1.49876 1
gene 2 377 162 1.19822 0 1346 1.19822 1
gene 1 339 31 1.3567 0 1513 1.3567 1
gene 1 261 242 0.519993 0 1565 0.519993 1
gene 1 12 198 -2.10582 0 1593 -2.10582 1
gene 2 371 242 -0.828379 0 1690 -0.828379 1
gene 2 15 263 -1.1715 0 1703 -1.1715 1
gene 1 24 476 -2.206 0 1723 -2.206 1
gene 1 476 26 0.329451 0 1724 0.329451 1
gene 1 339 551 -1.64436 0 2011 -1.64436 1
gene 3 551 31 -0.454964 0 2012 -0.454964 1
gene 3 10 257 -1.2527 0 2127 -1.2527 1
gene 3 22 263 -0.367729 0 2131 -0.367729 1
gene 3 18 269 3.52306 0 2151 3.52306 1
gene 2 198 263 -0.0509245 0 2385 -0.0509245 1
gene 2 257 633 -0.990632 0 2407 -0.990632 1
gene 1 633 26 2.02617 0 2408 2.02617 1
gene 2 18 633 -1.5206 0 2493 -1.5206 1
gene 2 20 263 1.85833 0 2511 1.85833 1
gene 1 6 701 -1.17941 0 2646 -1.17941 1
gene 1 701 25 0.113586 0 2647 0.113586 1
gene 1 261 752 1.41269 0 2823 1.41269 1
gene 1 752 242 2.19596 0 2824 2.19596 1
gene 3 371 755 4.29128 0 2831 4.29128 1
gene 3 755 25 -3.49844 0 2832 -3.49844 1
gene 3 3 785 -0.419081 0 2923 -0.419081 1
gene 3 785 93 -3.8869 0 2924 -3.8869 1
gene 2 20 290 2.16894 0 2959 2.16894 1
gene 2 18 785 2.41182 0 2999 2.41182 1
gene 3 269 808 -0.896987 0 3014 -0.896987 1
gene 3 808 26 3.58197 0 3015 3.58197 1
gene 1 21 808 2.41548 0 3245 2.41548 1
gene 2 8 257 1.07903 0 3258 1.07903 1
gene 1 70 755 -1.33275 0 3279 -1.33275 1
gene 1 377 263 0.370376 0 3287 0.370376 1
gene 1 8 701 1.144 0 3319 1.144 1
gene 2 269 162 3.18401 0 3346 3.18401 1
gene 1 339 701 -1.41138 0 3545 -1.41138 1
gene 3 31 269 -0.592839 0 3566 -0.592839 1
gene 3 701 70 -0.83266 0 3584 -0.83266 1
gene 1 701 755 3.1442 0 3655 3.1442 1
gene 2 18 31 2.60986 0 3766 2.60986 1
gene 2 15 551 -1.18841 0 3801 -1.18841 1
gene 1 5 1018 0.852893 0 3807 0.765775 1
gene 1 1018 25 1.01715 0 3808 0.781314 1
gene 1 261 1032 1.69742 0 3865 1.56367 1
gene 1 1032 242 -1.14625 0 3866 -1.17034 1
gene 2 22 808 0.396919 0 3880 0.396919 1
gene 3 5 290 1.76048 0 3888 1.76048 1
gene 3 18 1075 -0.3623 0 4003 -0.481776 1
gene 3 1075 269 3.01984 0 4004 2.74546 1
gene 2 2 1075 -1.37129 0 4269 -1.37129 1
gene 3 339 1140 2.2223 0 4282 2.1329 1
gene 3 1140 551 0.798391 0 4283 0.919254 1
gene 1 15 1018 -1.81871 0 4366 -1.81871 1
gene 2 377 1169 0.316313 0 4382 0.278976 1
gene 2 1169 162 -2.95513 0 4383 -2.92472 1
gene 2 162 476 0.139628 0 4561 0.139628 1
gene 2 18 1228 -0.173185 0 4597 -0.403897 1
gene 2 1228 31 -1.01345 0 4598 -1.03505 1
gene 2 23 633 0.0266371 0 4612 0.0266371 1
gene 2 242 1281 1.2989 0 4773 1.24122 1
gene 3 1281 25 -0.627025 0 4774 -0.654059 1
gene 2 261 269 0.0985511 0 4859 0.0985511 1
gene 1 18 1305 0.804507 0 4885 0.774091 1
gene 2 1305 785 2.15115 0 4886 2.09552 1
gene 3 22 551 -0.0569251 0 4907 -0.0569251 1
gene 2 377 785 -0.960012 0 5031 -0.960012 1
gene 3 371 1348 1.04681 0 5051 0.98361 1
gene 3 1348 25 -1.90382 0 5052 -1.37757 1
gene 1 16 1351 2.06293 0 5067 2.00705 1
gene 1 1351 25 -3.11138 0 5068 -2.93634 1
gene 3 10 1348 -0.281495 0 5125 -0.281495 1
gene 3 371 1140 -0.398881 0 5182 -0.398881 1
gene 1 7 1140 -1.67281 0 5199 -1.67281 1
gene 1 377 476 1.06033 0 5212 1.06033 1
gene 2 377 1419 1.97897 0 5347 1.88937 1
gene 2 1419 785 -0.925186 0 5348 -0.675102 1
gene 1 290 261 -0.285759 0 5386 -0.285759 1
gene 3 1140 1442 1.34309 0 5420 1.15852 1
gene 1 1442 551 0.822358 0 5421 0.899783 1
gene 2 24 752 -1.19453 0 5457 -1.19453 1
gene 1 269 476 1.13755 0 5536 1.13755 1
gene 1 23 70 -0.306959 0 5554 -0.306959 1
gene 1 1419 551 0.976615 0 5806 0.976615 1
gene 2 18 1562 0.185802 0 5943 0.0632921 1
gene 2 1562 31 1.02792 0 5944 0.944506 1
gene 3 1348 551 0.0868627 0 5972 0.0868627 1
gene 2 14 551 -0.410207 0 6101 -0.410207 1
gene 1 263 1351 -1.61293 0 6129 -1.61293 1
gene 1 12 1641 0.933837 0 6262 0.674972 1
gene 1 1641 31 1.29705 0 6263 1.18138 1
gene 1 21 1641 -1.6027 0 6285 -1.6027 1
gene 2 4 1653 2.54162 0 6311 2.39227 1
gene 3 1653 70 -1.01225 0 6312 -0.73332 1
gene 1 10 1419 -0.276075 0 6347 -0.276075 1
gene 1 23 366 2.47646 0 6483 2.47646 1
gene 1 24 1691 1.84928 0 6495 1.68724 1
gene 1 1691 476 -3.54307 0 6496 -3.1469 1
gene 2 20 1708 1.91103 0 6564 1.5137 1
gene 2 1708 263 0.549192 0 6565 0.445302 1
gene 2 23 701 -0.320114 0 6695 -0.320114 1
gene 1 16 1641 0.07593 0 6717 0.07593 1
gene 2 377 1756 0.996079 0 6746 0.836777 1
gene 2 1756 162 -1.26793 0 6747 -1.14476 1
gene 1 15 1811 1.65054 0 6948 1.35185 1
gene 1 1811 31 -1.45053 0 6949 -1.14121 1
gene 2 18 1874 1.07775 0 7178 0.500969 1
gene 2 1874 1228 1.67818 0 7179 1.68689 1
gene 2 18 1880 1.61751 0 7200 1.19271 1
gene 2 1880 633 -0.806251 0 7201 -0.606682 1
gene 3 16 339 0.994223 0 7225 0.994223 1
gene 3 14 1018 -0.445346 0 7360 -0.445346 1
gene 1 257 1140 -0.553453 0 7448 -0.553453 1
gene 3 16 162 1.42083 0 7464 1.42083 1
gene 1 263 1950 0.502146 0 7517 0.339926 1
gene 1 1950 1351 -0.0915126 0 7518 0.203388 1
gene 3 1305 290 -3.17519 0 7695 -3.17519 1
gene 2 377 2001 1.95439 0 7734 1.62626 1
gene 2 2001 785 -0.588514 0 7735 -0.477474 1
gene 2 70 633 0.867315 0 7809 0.867315 1
gene 3 339 2046 1.90137 0 7902 1.48984 1
gene 3 2046 1140 0.306987 0 7903 -0.251144 1
gene 2 15 2068 -0.150744 0 7988 -0.469347 1
gene 2 2068 551 -0.459451 0 7989 -0.340875 1
gene 2 1 269 0.258007 0 8016 0.258007 1
gene 3 1641 1169 0.622547 0 8022 0.622547 1
gene 2 4 2073 0.107611 0 8032 -0.317194 1
gene 2 2073 93 1.08404 0 8033 1.01175 1
gene 1 1305 366 0.74907 0 8059 0.74907 1
gene 3 6 1442 -0.484347 0 8279 -0.484347 1
gene 2 2 198 -0.371866 0 8296 -0.371866 1
gene 3 3 2142 0.929365 0 8327 0.580892 1
gene 3 2142 93 -0.22403 0 8328 -0.196429 1
gene 3 22 366 1.77965 0 8472 1.77965 1
gene 3 1305 2189 0.928768 0 8493 0.730098 1
gene 3 2189 290 -2.59501 0 8494 -2.44189 1
gene 1 24 551 1.28306 0 8550 1.28306 1
gene 3 701 162 -0.738853 0 8601 -0.738853 1
gene 2 5 1169 0.40849 0 8814 0.40849 1
gene 1 12 2271 2.18905 0 8851 1.84921 1
gene 1 2271 198 -3.22253 0 8852 -2.71412 1
gene 2 2 2278 1.68391 0 8869 1.27376 1
gene 2 2278 1075 -0.702597 0 8870 -0.424763 1
gene 2 257 1348 -0.0283831 0 8947 -0.0283831 1
gene 2 2142 2189 0.673374 0 8977 0.673374 1
gene 1 23 290 -1.02874 0 9119 -1.02874 1
gene 1 1032 1653 -0.983283 0 9133 -0.983283 1
gene 3 12 2355 0.351207 0 9168 0.0475383 1
gene 3 2355 269 5.02381 0 9169 3.54248 1
gene 3 2001 1950 0.968819 0 9185 0.968819 1
gene 2 93 1653 -0.174148 0 9234 -0.174148 1
gene 1 10 2404 0.950345 0 9339 0.373562 1
gene 1 2404 257 -0.315967 0 9340 -0.116938 1
gene 3 18 1442 -1.44656 0 9431 -1.44656 1
gene 3 17 785 -0.57192 0 9451 -0.57192 1
gene 2 20 2436 -0.272442 0 9482 -0.426251 1
gene 2 2436 290 1.44899 0 9483 0.963114 1
gene 1 2142 25 0.0319199 0 9495 0.0319199 1
gene 1 1032 2441 0.46674 0 9503 -0.129268 1
gene 1 2441 242 0.381498 0 9504 0.138658 1
gene 3 31 2444 1.60189 0 9518 1.48654 1
gene 3 2444 26 0.396637 0 9519 0.00704279 1
gene 3 1880 476 -0.355771 0 9578 -0.355771 1
gene 3 269 2501 -0.0245472 0 9741 -0.343151 1
gene 3 2501 808 -2.22482 0 9742 -2.08163 1
gene 2 23 2068 0.166682 0 9775 0.166682 1
gene 1 2444 269 -1.13912 0 9982 -1.13912 1
gene 1 1691 371 1.13186 0 10138 1.13186 1
gene 2 2068 633 -0.159552 0 10174 -0.159552 1
gene 2 20 2624 0.829437 0 10205 0.511566 1
gene 2 2624 263 -1.03345 0 10206 -1.30915 1
gene 2 2278 290 0.556817 0 10225 0.556817 1
gene 2 366 1708 0.38383 0 10263 0.38383 1
gene 1 2441 2501 1.64732 0 10361 1.64732 1
gene 3 198 2668 3.11826 0 10370 2.97406 1
gene 3 2668 26 -1.80078 0 10371 -1.45641 1
gene 2 366 752 0.165415 0 10413 0.165415 1
gene 1 1419 2001 -0.563693 0 10529 -0.563693 1
gene 1 261 2708 0.69621 0 10549 0.377607 1
gene 1 2708 242 -1.11306 0 10550 -1.26236 1
gene 1 24 2720 1.41172 0 10594 1.16481 1
gene 1 2720 551 0.367868 0 10595 0.46421 1
gene 1 23 2726 0.0578528 0 10612 -0.249764 1
gene 1 2726 290 0.44381 0 10613 0.297443 1
gene 3 1708 808 -0.0699104 0 10623 -0.0699104 1
gene 2 1305 2001 0.0560616 0 10860 0.0560616 1
gene 2 2073 2791 0.646564 0 10866 -0.203045 1
gene 2 2791 93 0.15207 0 10867 0.02732 1
gene 1 261 2803 0.647697 0 10919 -0.121346 1
gene 1 2803 1032 0.857666 0 10920 0.426115 1
gene 1 1018 1653 -0.788536 0 10946 -0.788536 1
gene 1 1691 2817 0.925826 0 10978 0.585983 1
gene 1 2817 371 1.37448 0 10979 1.20799 1
gene 3 1691 551 -0.084689 0 10993 -0.084689 1
gene 3 1281 2073 -0.422761 0 11065 -0.422761 1
gene 3 2001 2836 1.01455 0 11089 0.271138 1
gene 3 2836 1950 -0.526471 0 11090 -0.578896 1
gene 2 15 269 -1.21617 0 11156 -1.21617 1
gene 2 20 2859 0.718978 0 11170 0.401107 1
gene 2 2859 2436 -1.01632 0 11171 -0.87453 1
gene 2 1880 2708 1.24061 0 11371 1.24061 1
gene 3 242 2444 -0.435048 0 11399 -0.435048 1
gene 2 11 1348 -1.16999 0 11478 -1.16999 1
gene 3 752 1169 0.106094 0 11490 0.106094 1
gene 1 8 31 -1.80817 0 11522 -1.80817 1
gene 2 2708 1562 -0.394764 0 11679 -0.394764 1
gene 3 2817 2720 0.811183 0 11729 0.811183 1
gene 1 7 2817 -0.294057 0 11743 -0.294057 1
gene 1 10 2720 -0.559994 0 11792 -0.559994 1
gene 2 20 3028 0.953672 0 11821 0.624448 1
gene 2 3028 1708 1.22047 0 11822 0.370859 1
gene 3 12 3039 1.83342 0 11849 1.25663 1
gene 3 3039 269 3.31783 0 11850 1.37031 1
gene 3 1140 1419 -0.615408 0 12017 -0.615408 1
gene 1 2720 755 -0.474453 0 12029 -0.474453 1
gene 2 2444 2668 0.0844885 0 12045 0.0844885 1
gene 1 269 2668 0.140699 0 12169 0.140699 1
gene 3 257 785 0.465233 0 12327 0.465233 1
gene 1 1691 3159 0.710264 0 12340 0.112883 1
gene 1 3159 476 -2.31624 0 12341 -1.28201 1
gene 3 371 3169 0.795464 0 12371 0.49746 1
gene 3 3169 1348 0.757496 0 12372 0.595725 1
gene 3 1032 1708 0.0079837 0 12392 0.0079837 1
gene 2 2859 3175 1.44709 0 12403 1.04976 1
gene 2 3175 2436 0.202249 0 12404 0.299827 1
gene 1 12 1562 -1.40889 0 12414 -1.40889 1
gene 1 3169 269 1.35828 0 12524 1.35828 1
gene 2 3159 1351 -0.142914 0 12813 -0.142914 1
gene 2 23 2791 -0.583495 0 12889 -0.583495 1
gene 1 16 2404 0.247682 0 13030 0.247682 1
gene 3 31 3353 0.899033 0 13051 0.301651 1
gene 3 3353 198 1.2056 0 13052 0.538986 1
gene 2 261 366 1.1218 0 13067 1.1218 1
gene 1 2624 2836 -0.725418 0 13103 -0.725418 1
gene 1 377 2444 0.814024 0 13113 0.814024 1
gene 2 93 3373 0.721401 0 13146 0.0841937 1
gene 2 3373 1653 0.227345 0 13147 0.0382066 1
gene 1 24 3039 0.00810961 0 13175 0.00810961 1
gene 2 1305 1562 1.24673 0 13412 1.24673 1
gene 2 93 3445 0.677348 0 13426 0.18516 1
gene 2 3445 31 2.89875 0 13427 0.612063 1
gene 3 2726 2444 0.143472 0 13443 0.143472 1
gene 2 3445 3456 0.919909 0 13468 0.0702994 1
gene 2 3456 31 2.48545 0 13469 0.277612 1
gene 2 2073 3497 0.791894 0 13616 -0.0284181 1
gene 2 3497 93 1.24488 0 13617 0.13881 1
gene 1 2068 1811 0.750796 0 13702 0.750796 1
gene 2 1228 3517 0.54216 0 13727 0.0499725 1
gene 2 3517 31 -0.833231 0 13728 -0.183136 1
gene 2 2404 2068 1.03445 0 13742 1.03445 1
gene 3 6 3540 1.01176 0 13801 0.355505 1
gene 3 3540 1442 -0.349196 0 13802 -0.231157 1
gene 2 1756 1874 -0.330531 0 13884 -0.330531 1
gene 2 3445 3563 1.42281 0 13895 0.673205 1
gene 2 3563 3456 1.0509 0 13896 0.201293 1
gene 1 257 3039 0.621551 0 13998 0.621551 1
gene 3 269 3581 0.664799 0 14014 0.186894 1
gene 3 3581 2501 0.245195 0 14015 -0.0979181 1
gene 1 1018 3616 1.14259 0 14149 0.527354 1
gene 1 3616 25 1.04393 0 14150 0.151783 1
gene 3 242 93 0.368975 0 14180 0.368975 1
gene 3 198 3658 1.45629 0 14279 0.979484 1
gene 3 3658 2668 1.68062 0 14280 0.274384 1
gene 1 13 2859 0.715099 0 14431 0.715099 1
gene 1 15 3700 0.611653 0 14463 -0.0680345 1
gene 1 3700 1811 1.67536 0 14464 0.71664 1
gene 1 1641 3581 0.0755464 0 14586 0.0755464 1
gene 1 1419 1562 -0.0441871 0 14630 -0.0441871 1
gene 3 2271 70 -0.32067 0 14719 -0.32067 1
gene 2 93 3775 1.39305 0 14744 0.572737 1
gene 2 3775 31 2.85638 0 14745 1.09011 1
gene 1 14 3445 0.371608 0 14755 0.371608 1
gene 3 371 3814 1.07803 0 14880 0.440827 1
gene 3 3814 1348 0.927604 0 14881 0.298775 1
gene 2 1305 1708 0.543616 0 14891 0.543616 1
gene 1 2278 263 -0.418241 0 14911 -0.418241 1
gene 3 3169 3159 -0.624429 0 15018 -0.624429 1
gene 1 261 3849 1.63537 0 15025 1.00475 1
gene 1 3849 2708 -0.199448 0 15026 -0.297597 1
gene 1 6 2142 0.167674 0 15068 0.167674 1
gene 2 1281 3658 0.335362 0 15127 0.335362 1
gene 1 3497 3039 -0.524489 0 15209 -0.524489 1
gene 2 2726 3373 -0.22979 0 15307 -0.22979 1
gene 2 20 3944 0.951627 0 15379 0.131315 1
gene 2 3944 2624 0.988149 0 15380 0.11022 1
gene 3 3814 70 -0.541912 0 15402 -0.541912 1
gene 2 2803 1653 -1.42884 0 15541 -1.42884 1
gene 1 3944 1811 0.472474 0 15706 0.472474 1
gene 2 1708 4039 0.586142 0 15727 -0.0723053 1
gene 2 4039 263 1.00989 0 15728 0.244974 1
gene 3 4039 2501 -1.21238 0 15801 -1.21238 1
gene 1 2624 4063 1.38902 0 15811 0.768659 1
gene 1 4063 2836 -0.223641 0 15812 0.208637 1
gene 3 2501 1018 -0.428869 0 15840 -0.428869 1
gene 2 3944 4080 1.21076 0 15879 0.573555 1
gene 2 4080 2624 0.993578 0 15880 0.0873276 1
gene 1 3563 1641 0.457018 0 15893 0.457018 1
gene 3 242 2720 -0.611774 0 15927 -0.611774 1
gene 2 2836 1032 1.09847 0 16047 1.09847 1
gene 3 2068 3517 0.594801 0 16244 0.594801 1
gene 2 3944 3373 0.200767 0 16319 0.200767 1
gene 2 3028 4186 0.995257 0 16335 0.174945 1
gene 2 4186 1708 1.12767 0 16336 0.283794 1
gene 2 19 4207 0.718491 0 16400 -0.156509 1
gene 1 4207 263 2.40247 0 16401 0.857864 1
gene 1 10 4215 1.07081 0 16422 0.414561 1
gene 1 4215 2720 -0.46105 0 16423 -0.162521 1
gene 3 366 3616 0.224913 0 16594 0.224913 1
gene 1 7 3616 0.657564 0 16623 0.657564 1
gene 1 19 2668 -0.146801 0 16647 -0.146801 1
gene 3 17 4279 0.902299 0 16663 0.024369 1
gene 3 4279 785 -0.287008 0 16664 0.0885218 1
gene 1 9 2046 -0.0822172 0 16920 -0.0822172 1
gene 1 1075 785 -0.202751 0 16937 -0.202751 1
gene 2 4186 3563 0.487465 0 16979 0.487465 1
gene 2 22 3353 0.222038 0 17033 0.222038 1
gene 3 10 4446 1.02064 0 17273 0.200331 1
gene 3 4446 1348 0.416051 0 17274 0.432909 1
gene 1 24 4451 0.853212 0 17286 0.21747 1
gene 1 4451 476 -2.28315 0 17287 -0.860868 1
gene 2 4446 2817 0.221209 0 17340 0.221209 1
gene 2 2 4473 1.09238 0 17366 0.24472 1
gene 2 4473 1075 -1.42843 0 17367 -0.287589 1
gene 2 3944 4483 0.995913 0 17395 0.230288 1
gene 2 4483 4080 1.0408 0 17396 0.22049 1
gene 3 31 4496 0.729737 0 17431 -0.145263 1
gene 3 4496 269 -0.611214 0 17432 -0.283465 1
gene 1 1691 1811 -0.869841 0 17541 -0.869841 1
gene 3 1641 2668 0.159037 0 17549 0.159037 1
gene 2 785 3700 0.174495 0 17555 0.174495 1
gene 2 1562 4520 0.896897 0 17571 0.0472878 1
gene 2 4520 31 1.26508 0 17572 0.0730001 1
gene 2 20 4186 -0.631028 0 17643 -0.631028 1
gene 2 1305 4539 0.934269 0 17650 0.19086 1
gene 2 4539 1708 -0.521429 0 17651 -0.661585 1
gene 1 20 4539 -0.714205 0 17671 -0.714205 1
gene 2 1281 4604 1.04527 0 17916 0.389016 1
gene 2 4604 3658 0.297848 0 17917 0.137109 1
gene 1 4063 2278 -0.7756 0 17964 -0.7756 1
gene 2 5 3028 0.167884 0 18150 0.167884 1
gene 1 1419 2068 -0.842671 0 18197 -0.842671 1
gene 3 4483 2708 -0.12413 0 18216 -0.12413 1
gene 1 3700 4681 0.541321 0 18243 -0.0739131 1
gene 1 4681 1811 1.19192 0 18244 -0.132034 1
gene 2 2001 4681 -0.171641 0 18441 -0.171641 1
gene 1 1691 26 0.873589 0 18468 0.873589 1
gene 2 18 4745 0.577609 0 18489 -0.140164 1
gene 2 4745 1880 1.9343 0 18490 0.347894 1
gene 2 2 4748 0.844538 0 18500 -0.00507105 1
gene 2 4748 4473 0.979856 0 18501 0.159544 1
gene 1 701 4752 1.16795 0 18514 0.629617 1
gene 1 4752 755 3.16053 0 18515 0.472628 1
gene 2 8 1228 0.157261 0 18522 0.157261 1
gene 3 1140 4758 0.913002 0 18536 0.0633925 1
gene 3 4758 551 0.439121 0 18537 0.0340467 1
gene 1 2142 2444 0.679564 0 18551 0.679564 1
gene 2 162 4769 0.905101 0 18569 0.055492 1
gene 2 4769 70 -2.82597 0 18570 -0.322992 1
gene 1 22 1018 -0.0395258 0 18585 -0.0395258 1
gene 1 701 4783 1.08209 0 18611 0.28912 1
gene 3 4783 70 -1.32948 0 18612 -0.868747 1
gene 1 10 4786 0.777122 0 18622 0.139915 1
gene 1 4786 1419 0.12259 0 18623 0.226776 1
gene 3 1281 31 -1.02995 0 18633 -1.02995 1
gene 3 7 4793 1.12677 0 18649 0.279111 1
gene 3 4793 31 -6.02507 0 18650 -0.863041 1
gene 3 10 3849 -0.377528 0 18656 -0.377528 1
gene 1 1442 4800 0.965231 0 18671 0.328024 1
gene 1 4800 551 0.132879 0 18672 0.0100967 1
gene 2 31 4681 -0.800067 0 18754 -0.800067 1
gene 2 4 4831 1.29612 0 18827 0.660375 1
gene 2 4831 261 0.214534 0 18828 0.0234164 1
gene 3 4783 2791 -0.0203205 0 18841 -0.0203205 1
gene 1 366 3775 0.486809 0 18864 0.486809 1
gene 1 10 4862 0.972686 0 18954 0.254913 1
gene 1 4862 4786 1.04588 0 18955 0.366189 1
gene 1 1691 4871 0.919667 0 19006 0.0134168 1
gene 1 4871 3159 0.441935 0 19007 -0.0823218 1
gene 3 1950 2444 -1.12833 0 19033 -1.12833 1
gene 3 3039 4887 1.10226 0 19076 0.252653 1
gene 3 4887 269 3.08355 0 19077 0.0929901 1
gene 3 3581 3373 -0.479224 0 19111 -0.479224 1
gene 3 4496 4940 1.02672 0 19270 0.15587 1
gene 3 4940 269 -0.311273 0 19271 0.0508122 1
gene 1 13 2720 -0.144078 0 19328 -0.144078 1
gene 2 2859 785 -0.315548 0 19343 -0.315548 1
gene 3 4748 4520 0.0570864 0 19350 0.0570864 1
gene 3 4887 1351 -0.25766 0 19361 -0.25766 1
gene 2 242 4871 0.154055 0 19374 0.154055 1
gene 3 4 242 1.42845 0 19511 1.42845 1
gene 2 8 5003 1.25633 0 19543 0.381329 1
gene 2 5003 1228 0.0732534 0 19544 -0.0140053 1
gene 3 7 377 0.538862 0 19568 0.538862 1
gene 2 2271 3540 0.794484 0 19601 0.794484 1
gene 2 1281 5013 1.00756 0 19607 0.132559 1
gene 2 5013 3658 0.199642 0 19608 0.0243012 1
gene 2 1811 633 1.33817 0 19615 1.33817 1
gene 3 1562 1228 0.113026 0 19634 0.113026 1
gene 1 1756 476 -0.933868 0 19650 -0.933868 1
gene 1 4871 4446 0.117891 0 19780 0.117891 1
gene 3 13 4473 -0.607457 0 19794 -0.607457 1
gene 1 3849 1811 -0.813511 0 19902 -0.813511 1
gene 2 4748 1032 -0.945203 0 19934 -0.945203 1
gene 2 15 5110 1.25493 0 19973 0.379932 1
gene 2 5110 551 -1.27688 0 19974 -0.212151 1
gene 1 4940 4539 -0.678554 0 19993 -0.678554 1
gene 1 4793 1032 -0.0680823 0 20016 -0.0680823 1
gene 3 2726 633 0.876194 0 20058 0.876194 1
gene 2 12 4279 -0.70367 0 20086 -0.70367 1
gene 2 2142 5159 1.26304 0 20164 0.606795 1
gene 2 5159 2189 0.233273 0 20165 -0.227296 1
gene 1 1442 4483 0.81702 0 20195 0.81702 1
gene 3 21 1442 -0.573108 0 20271 -0.573108 1
gene 1 7 5178 0.789599 0 20274 0.0239736 1
gene 1 5178 1140 -2.00344 0 20275 -0.187822 1
gene 2 2142 5195 0.753941 0 20324 0.0976911 1
gene 2 5195 5159 1 0 20325 0.125 1
gene 1 339 5203 1.16417 0 20346 0.257922 1
gene 1 5203 25 1.8371 0 20347 -0.0983308 1
gene 2 2720 476 0.665304 0 20364 0.665304 0
gene 2 4745 755 -0.729494 0 20386 -0.729494 1
gene 2 20 5223 1.05841 0 20408 0.152159 1
gene 2 5223 1708 1.71459 0 20409 0.664748 1
gene 1 785 4758 0.324973 0 20423 0.324973 1
gene 1 15 5233 0.987011 0 20441 0.112011 1
gene 1 5233 3700 0.590015 0 20442 0.0421365 1
gene 1 3159 2073 1.08814 0 20477 1.08814 1
gene 2 1811 1562 1.0586 0 20555 1.0586 1
gene 3 2444 4887 -0.642544 0 20576 -0.642544 1
gene 1 4940 2441 0.206642 0 20613 0.206642 1
gene 3 752 269 -0.235376 0 20638 -0.235376 1
gene 2 2720 269 0.86335 0 20654 0.86335 1
gene 2 785 198 0.791864 0 20727 0.791864 1
gene 1 339 5308 0.731261 0 20770 -0.143739 1
gene 1 5308 31 1.59287 0 20771 0.161536 1
gene 2 808 3169 -0.232474 0 20790 -0.232474 1
gene 3 4681 2404 0.765292 0 20816 0.765292 1
gene 3 377 551 -0.443185 0 20861 -0.443185 1
gene 1 8 5329 1 0 20866 0.125 1
gene 1 5329 701 1.4205 0 20867 0.301957 1
gene 3 8 70 -0.238048 0 20877 -0.238048 1
gene 3 5013 257 -0.502827 0 20906 -0.502827 1
gene 2 2859 5378 0.901661 0 21028 0.221974 1
gene 2 5378 2436 -1.03047 0 21029 -0.387865 1
gene 1 2624 4758 -0.479164 0 21037 -0.479164 1
gene 1 5233 5403 1 0 21170 0.125 1
gene 1 5403 3700 0.947976 0 21171 0.217471 1
gene 2 257 5422 1.38467 0 21224 0.704983 1
gene 2 5422 1348 -0.124975 0 21225 -0.0489321 1
gene 3 16 5432 1.14181 0 21255 0.266811 1
gene 3 5432 162 1.5449 0 21256 0.455175 1
gene 2 3445 2726 -0.750052 0 21444 -0.750052 1
gene 1 19 5484 0.715315 0 21479 -0.159685 1
gene 1 5484 2668 -0.169587 0 21480 -0.0301971 1
gene 1 1419 5492 1 0 21503 0.125 1
gene 1 5492 2068 -0.735357 0 21504 -0.0689398 1
gene 1 1756 4080 -0.352756 0 21523 -0.352756 1
gene 1 261 5521 1.14567 0 21622 0.270666 1
gene 1 5521 2803 0.67235 0 21623 -0.0819551 1
gene 1 339 5528 0.794098 0 21645 0.137848 0
gene 1 5528 5203 0.790498 0 21646 -0.0024705 1
gene 2 755 1756 0.542726 0 21686 0.542726 1
gene 3 476 551 0.974447 0 21702 0.974447 1
gene 1 5422 2068 -0.360815 0 21757 -0.360815 1
gene 3 755 5484 0.311488 0 21783 0.311488 1
gene 3 3353 2720 0.931004 0 21795 0.931004 1
gene 1 5223 3159 -0.994091 0 21855 -0.994091 1
gene 1 5378 4063 -0.39296 0 21864 -0.39296 1
gene 1 20 5594 1.00596 0 21909 0.326269 1
gene 1 5594 4539 -0.285031 0 21910 0.188997 1
gene 3 17 5610 1.21146 0 21965 0.305211 1
gene 3 5610 785 -0.417079 0 21966 -0.139366 1
gene 1 31 4940 -0.75014 0 22054 -0.75014 1
gene 3 1880 5632 0.814003 0 22081 -0.0922475 1
gene 3 5632 476 -0.79351 0 22082 -0.251965 1
gene 3 4215 261 0.597658 0 22095 0.597658 1
gene 2 5195 785 0.823084 0 22154 0.823084 1
gene 3 20 2836 0.601529 0 22187 0.601529 1
gene 3 1351 4604 -0.760941 0 22357 -0.760941 1
gene 1 1032 5696 1.15601 0 22362 0.363043 1
gene 1 5696 1653 -1.42317 0 22363 -0.161378 1
gene 2 755 1641 0.0375578 0 22382 0.0375578 1
gene 3 4483 5712 0.573483 0 22424 -0.106204 1
gene 3 5712 2708 -0.706068 0 22425 -0.513431 1
gene 1 14 2444 -0.542883 0 22438 -0.542883 1
gene 1 1756 3159 0.964163 0 22462 0.964163 1
gene 1 3700 5739 1.13639 0 22527 0.261385 1
gene 1 5739 1811 1.68242 0 22528 0.442073 1
gene 3 1018 3445 -0.18832 0 22570 -0.18832 1
gene 3 4496 5757 1 0 22606 0.125 1
gene 3 5757 4940 1.04991 0 22607 0.131238 1
gene 1 19 2836 1.20259 0 22649 1.20259 1
gene 2 20 5767 1 0 22659 0.125 1
gene 2 5767 290 1.9464 0 22660 0.55346 1
gene 3 31 1018 -0.279541 0 22687 -0.279541 1
gene 2 2 5785 1.36089 0 22729 0.681205 1
gene 2 5785 242 -2.82772 0 22730 0.0333161 1
gene 1 1691 3039 0.405856 0 22851 0.405856 1
gene 3 3540 5824 1 0 22857 0.09375 1
gene 3 5824 1442 -0.234691 0 22858 0.0365682 1
gene 3 3456 5696 0.61527 0 22876 0.61527 1
gene 3 4831 3775 -0.688896 0 22903 -0.688896 1
gene 3 476 4279 0.448709 0 22952 0.448709 1
gene 3 10 5867 1.01721 0 23013 0.11096 1
gene 3 5867 4446 1.02622 0 23014 0.119972 1
gene 2 2189 4063 0.638985 0 23104 0.638985 1
gene 2 2859 5887 0.915529 0 23115 0.00927893 1
gene 2 5887 785 -0.667889 0 23116 -0.0458863 1
gene 3 1 3700 -0.458495 0 23188 -0.458495 1
gene 1 1018 5757 0.561287 0 23230 0.561287 1
gene 1 2046 5003 0.613277 0 23382 0.613277 1
gene 2 1281 5964 1.01574 0 23439 0.140742 1
gene 2 5964 5013 1.44865 0 23440 0.76896 1
gene 3 20 5971 0.683763 0 23463 0.0275127 1
gene 2 5971 5767 1.73672 0 23464 1.08047 1
gene 2 3445 6013 0.517451 0 23601 -0.232549 1
gene 2 6013 31 2.28414 0 23602 0.11008 1
gene 1 2441 6029 0.714509 0 23646 -0.035491 1
gene 1 6029 242 0.381498 0 23647 0 1
gene 1 2708 701 -0.0664916 0 23669 -0.0664916 1
gene 3 371 6035 1 0 23677 0 1
gene 3 6035 1348 1.04681 0 23678 0 1
gene 2 2708 4758 0.780713 0 23707 0.780713 1
gene 2 3517 2444 1.15218 0 23730 1.15218 1
gene 3 4496 6084 1 0 23889 0 1
gene 3 6084 5757 0.50923 0 23890 -0.24077 1
gene 2 5767 6094 1 0 23916 0 1
gene 2 6094 290 1.91285 0 23917 0 1
gene 2 5824 3775 0.0260397 0 24001 0.0260397 1
gene 3 70 2444 -0.401733 0 24014 -0.401733 1
gene 1 3700 6119 1 0 24026 0 1
gene 1 6119 4681 1.09556 0 24027 0 1
gene 2 2501 3658 -0.44523 0 24182 -0.44523 1
gene 2 1281 6184 1 0 24298 0 1
gene 2 6184 5964 0.856849 0 24299 0.0950428 1
gene 3 2444 6238 1.53094 0 24488 0.87469 1
gene 3 6238 26 0.396637 0 24489 0 1
gene 1 15 6258 1 0 24562 0 1
gene 1 6258 70 0.39639 0 24563 0.398134 1
gene 1 198 2046 0.0478672 0 24609 0.0478672 1
gene 1 1075 6268 1 0 24626 0 1
gene 1 6268 785 -0.627323 0 24627 -0.47526 1
gene 1 1305 6281 1.07766 0 24665 0.327659 1
gene 1 6281 366 0.74907 0 24666 0 1
gene 2 4783 5964 0.273311 0 24673 0.273311 1
gene 2 3 3658 -0.523056 0 24823 -0.523056 1
gene 1 5594 3581 1.18875 0 24901 1.18875 1
gene 3 6238 6013 -0.118019 0 24913 -0.118019 1
gene 1 5223 1032 0.344546 0 24917 0.344546 1
gene 2 4604 3581 -0.541889 0 24933 -0.541889 1
gene 1 6084 5610 0.461975 0 24952 0.461975 1
gene 2 3373 6350 1 0 24977 0 1
gene 2 6350 1653 0.227345 0 24978 0 1
gene 2 5422 6388 1.22658 0 25110 0.476583 1
gene 2 6388 1348 -0.124975 0 25111 0 1
gene 2 22 6400 1 0 25143 0 1
gene 2 6400 3353 0.465745 0 25144 0.299216 1
gene 2 3700 3039 0.524718 0 25185 0.524718 1
gene 3 1811 5233 0.643495 0 25204 0.643495 1
gene 1 1018 162 -0.818846 0 25232 -0.818846 1
gene 2 8 6422 1 0 25245 0 1
gene 2 6422 257 1.07903 0 25246 0 1
gene 2 93 4887 -0.876015 0 25257 -0.876015 1
gene 3 3159 5422 0.242082 0 25317 0.242082 1
gene 2 1562 6446 1.02469 0 25339 0.274694 1
gene 2 6446 4520 0.896897 0 25340 0 1
gene 3 14 4063 0.572767 0 25413 0.572767 1
gene 3 752 6480 1 0 25434 0 1
gene 3 6480 269 -0.518051 0 25435 0.0826321 1
gene 3 2189 5867 0.289838 0 25453 0.289838 1
gene 2 4887 6119 -0.647653 0 25470 -0.647653 1
gene 2 4039 6084 -0.744064 0 25484 -0.744064 1
gene 2 4831 6505 1 0 25513 0 1
gene 2 6505 261 0.214534 0 25514 0 1
gene 2 5422 5521 0.230445 0 25553 0.230445 1
gene 2 18 6521 1 0 25598 0 1
gene 3 6521 4745 0.904985 0 25599 0.318107 1
gene 1 1032 6526 1.11901 0 25614 0.369005 1
gene 1 6526 242 -1.14625 0 25615 0 1
gene 2 263 5964 -0.241452 0 25762 -0.241452 1
gene 3 5632 31 -0.473945 0 25769 -0.473945 1
gene 2 2001 6119 -0.169102 0 25785 -0.169102 1
gene 3 11 3658 -0.719427 0 25860 -0.719427 1
gene 1 15 6590 1 0 25878 0 1
gene 1 6590 198 -1.72636 0 25879 0 1
gene 3 4783 6604 1 0 25921 0 1
gene 3 6604 2791 -0.0203205 0 25922 0 1
gene 1 3658 2803 0.572963 0 25928 0.572963 1
gene 1 5 3373 -0.319322 0 26157 -0.319322 1
gene 1 1691 6668 1.07771 0 26177 0.202711 1
gene 1 6668 2817 0.6699 0 26178 -0.140198 1
gene 1 24 6672 1 0 26186 0 1
gene 1 6672 4451 0.689183 0 26187 0 1
gene 1 1442 6722 1 0 26352 0 1
gene 1 6722 4800 0.827533 0 26353 0 1
gene 1 9 3775 -0.724107 0 26367 -0.724107 1
gene 2 17 4080 0.381612 0 26395 0.381612 1
gene 1 701 5971 -0.28805 0 26455 -0.28805 1
gene 2 5964 3616 0.486803 0 26468 0.486803 1
gene 1 6084 6749 1 0 26501 0 1
gene 1 6749 5610 0.461975 0 26502 0 1
gene 3 5203 4496 -0.191129 0 26511 -0.191129 1
gene 3 5013 6765 0.443773 0 26559 -0.306227 1
gene 3 6765 257 -0.502827 0 26560 0 1
gene 1 5178 6772 0.446587 0 26579 -0.303413 1
gene 1 6772 1140 -2.00344 0 26580 0 1
gene 3 1281 6784 1 0 26614 0 1
gene 3 6784 31 -0.452055 0 26615 0 1
gene 3 16 2046 -0.620972 0 26634 -0.620972 1
gene 1 3540 3700 0.610683 0 26664 0.610683 1
gene 1 1305 269 -1.11755 0 26765 -1.11755 1
gene 3 3353 6824 1.19766 0 26785 0.322657 1
gene 2 6824 2720 0.45042 0 26786 -0.247834 1
gene 2 2624 6857 0.690094 0 26907 -0.0599055 1
gene 2 6857 263 -0.931874 0 26908 -0.0276028 1
gene 2 1018 5110 0.714911 0 26988 0.714911 1
gene 2 2803 3039 0.64789 0 27095 0.64789 1
gene 1 20 6908 1 0 27115 0 1
gene 1 6908 4539 -0.714205 0 27116 0 1
gene 2 4604 6951 1.07435 0 27257 0.199347 1
gene 2 6951 3658 0.297848 0 27258 0 1
gene 2 5223 6963 0.465087 0 27304 -0.284913 1
gene 2 6963 1708 1.74945 0 27305 0.599594 1
gene 3 339 6992 1 0 27384 0 1
gene 3 6992 2046 1.90137 0 27385 0 1
gene 2 3775 6749 -0.314251 0 27420 -0.314251 1
gene 2 1140 2271 0.214659 0 27434 0.214659 1
gene 2 4039 3353 0.0249406 0 27442 0.0249406 1
gene 1 5484 7004 1 0 27465 0 1
gene 1 7004 2668 -0.0125729 0 27466 0 1
gene 2 2278 7008 1.49573 0 27480 0.839478 1
gene 2 7008 290 0.556817 0 27481 0 1
gene 2 2817 1562 0.396235 0 27664 0.396235 1
gene 1 6784 5233 -0.526278 0 27742 -0.526278 1
gene 2 1562 7090 1.27775 0 27776 0.402755 1
gene 2 7090 31 1.02792 0 27777 0 1
gene 1 3944 7100 1 0 27802 0 1
gene 2 7100 4483 1.14283 0 27803 0 1
gene 1 701 7107 1 0 27826 0 1
gene 1 7107 4752 0.854142 0 27827 0 1
gene 2 5696 6668 -1.10923 0 27899 -1.10923 1
gene 3 339 5110 -0.759977 0 28074 -0.759977 1
gene 1 14 7172 1 0 28099 0 1
gene 1 7172 2444 -0.542883 0 28100 0 1
gene 1 6772 2271 -0.182467 0 28108 -0.182467 1
gene 2 1811 5013 0.06416 0 28142 0.06416 1
gene 3 242 31 -0.577588 0 28157 -0.577588 1
gene 1 4207 6013 -0.116915 0 28178 -0.116915 1
gene 1 2436 4186 -0.750895 0 28385 -0.750895 1
gene 3 2668 7247 1 0 28420 0 1
gene 3 7247 26 -1.80078 0 28421 0 1
gene 3 31 7260 1 0 28463 0 1
gene 3 7260 26 0.939142 0 28464 0 1
gene 2 1305 7278 0.887466 0 28517 0.137466 1
gene 2 7278 4539 1.00429 0 28518 0 1
gene 3 8 7295 1 0 28571 0 1
gene 3 7295 70 -0.154236 0 28572 0.0243 1
gene 1 24 7299 1 0 28591 0 1
gene 1 7299 6672 1 0 28592 0 1
gene 1 3028 3159 -0.925695 0 28625 -0.925695 1
gene 3 1691 3456 0.646689 0 28699 0.646689 1
gene 2 1756 7327 1 0 28719 0 1
gene 2 7327 1874 -0.330531 0 28720 0 1
gene 2 6013 7335 0.644957 0 28742 -0.105043 1
gene 2 7335 31 3.26764 0 28743 1.09358 1
gene 1 7107 551 -0.40347 0 28767 -0.40347 1
gene 2 1708 1228 0.161194 0 28867 0.161194 1
gene 1 24 2708 -0.715516 0 28876 -0.715516 1
gene 2 6013 6526 -0.0157284 0 28974 -0.0157284 1
gene 1 3517 3373 0.990688 0 28994 0.990688 1
gene 2 4446 162 -0.0845132 0 29033 -0.0845132 1
gene 1 16 7418 1 0 29083 0 1
gene 1 7418 2404 0.247682 0 29084 0 1
gene 2 633 3540 -0.395863 0 29099 -0.395863 1
gene 2 6824 4793 -0.1463 0 29230 -0.1463 1
gene 2 16 808 0.0170792 0 29249 0.0170792 1
gene 1 4940 7457 0.807581 0 29263 -0.0674189 1
gene 1 7457 2441 0.232071 0 29264 0.0964622 1
gene 3 6238 7486 1 0 29373 0 1
gene 3 7486 26 0.396637 0 29374 0 1
gene 1 1032 7493 0.83769 0 29392 0.0876898 1
gene 1 7493 2441 0.46674 0 29393 0 1
gene 3 1562 7499 1.09914 0 29416 0.349138 1
gene 3 7499 1228 0.724534 0 29417 0.639765 1
gene 1 5867 5632 -0.59195 0 29463 -0.59195 1
gene 2 5013 6281 -0.257499 0 29522 -0.257499 1
gene 3 7172 7299 -0.0642263 0 29628 -0.0642263 1
gene 3 5528 785 -0.769955 0 29669 -0.769955 1
gene 1 3028 7335 0.102715 0 29844 0.102715 1
gene 3 1140 7602 1 0 29855 0 1
gene 3 7602 1419 -0.208737 0 29856 0 1
gene 2 2444 633 0.879059 0 29990 0.879059 1
gene 2 377 4473 -0.575991 0 30032 -0.575991 1
gene 1 17 6446 -0.0602137 0 30105 -0.0602137 1
gene 3 12 7673 1 0 30134 0 1
gene 3 7673 269 5.92811 0 30135 0 1
gene 3 4831 7691 1 0 30206 0 1
gene 3 7691 3775 -0.143643 0 30207 0.373028 1
gene 2 1442 7008 0.158578 0 30260 0.158578 1
gene 1 24 7707 0.575317 0 30270 -0.174683 1
gene 1 7707 3039 -0.583985 0 30271 -0.590067 1
gene 2 6505 5422 -0.131612 0 30287 -0.131612 1
gene 2 7499 3353 -0.830095 0 30379 -0.830095 1
gene 1 6590 7731 1 0 30399 0 1
gene 1 7731 198 -1.72636 0 30400 0 1
gene 3 7602 7457 0.365689 0 30439 0.365689 1
gene 1 2791 6963 -0.373233 0 30460 -0.373233 1
gene 1 2803 7751 1.0448 0 30484 0.169796 1
gene 1 7751 1032 0.857666 0 30485 0 1
gene 3 18 7792 1 0 30618 0 1
gene 3 7792 269 3.52306 0 30619 0 1
gene 2 5422 7805 1 0 30663 0 1
gene 2 7805 6388 1 0 30664 0 0
gene 1 1075 3028 0.265279 0 30695 0.265279 1
gene 3 7792 7810 1.14824 0 30715 0.398241 1
gene 3 7810 269 3.59622 0 30716 0.513541 1
gene 2 5867 6422 -0.626085 0 30746 -0.626085 1
gene 3 3658 7278 -0.810682 0 30755 -0.810682 1
gene 3 1691 3658 -0.292159 0 30773 -0.292159 1
gene 2 2836 7835 0.534502 0 30798 -0.121748 1
gene 2 7835 1032 0.916053 0 30799 0 1
gene 2 1708 7845 1 0 30827 0 1
gene 2 7845 263 0.68018 0 30828 0 1
gene 3 371 7886 1 0 30983 0 1
gene 3 7886 3169 0.795464 0 30984 0 1
gene 3 5223 2817 0.105647 0 31001 0.105647 1
gene 3 1442 7090 -0.924782 0 31048 -0.924782 1
gene 1 6119 1653 0.30546 0 31057 0.30546 1
gene 2 4862 5492 -1.00137 0 31075 -1.00137 1
gene 3 3581 4758 -0.00843135 0 31092 -0.00843135 1
gene 2 12 6084 0.928616 0 31129 0.928616 1
gene 2 11 6268 0.661556 0 31136 0.661556 1
gene 3 6784 7933 0.867855 0 31155 -0.00714525 1
gene 3 7933 31 -0.617489 0 31156 -0.278448 1
gene 1 7751 26 0.843683 0 31171 0.843683 1
gene 2 7 5110 -0.962034 0 31229 -0.962034 1
gene 3 2720 4748 0.623373 0 31252 0.623373 1
gene 3 26 1351 0.720638 0 31279 0.720638 1
gene 3 3 7966 1 0 31312 0 1
gene 3 7966 785 0.131466 0 31313 0.445777 1
gene 2 4039 7247 -0.261606 0 31488 -0.261606 1
gene 1 5964 257 -0.760083 0 31562 -0.760083 1
gene 3 4 7100 -0.201314 0 31580 -0.201314 1
gene 2 1305 8052 1 0 31615 0 1
gene 2 8052 1562 1.06888 0 31616 0.512207 1
gene 3 7751 5003 0.0355652 0 31685 0.0355652 1
gene 2 4758 6422 -0.209788 0 31754 -0.209788 1
gene 1 5887 4483 0.953427 0 31781 0.953427 1
gene 1 3849 8106 1 0 31826 0 1
gene 1 8106 1811 -0.58755 0 31827 -0.0794907 1
gene 1 6238 6992 -0.356989 0 31874 -0.356989 1
gene 3 755 8120 1 0 31889 0 1
gene 3 8120 5484 0.311488 0 31890 0 1
gene 1 4800 8124 0.985006 0 31914 0.235006 0
gene 1 8124 551 -0.372493 0 31915 -0.459695 1
gene 3 1691 2441 0.539905 0 31929 0.539905 1
gene 3 3353 8130 1 0 31937 0 1
gene 3 8130 2720 0.931004 0 31938 0 1
gene 1 6590 3353 -0.194907 0 32169 -0.194907 1
gene 1 8130 5003 0.85746 0 32204 0.85746 1
gene 3 1691 8203 1 0 32228 0 1
gene 3 8203 551 0.150726 0 32229 0 1
gene 2 3775 8215 1 0 32257 0 1
gene 2 8215 31 2.61959 0 32258 0 1
gene 3 22 3028 -0.0969649 0 32356 -0.0969649 1
gene 2 242 7486 -0.780465 0 32475 -0.780465 1
gene 1 7886 7008 -0.0403856 0 32500 -0.0403856 1
gene 3 2836 5178 -0.670161 0 32508 -0.670161 1
gene 2 2441 6672 0.310761 0 32524 0.310761 1
gene 1 269 7486 0.907827 0 32557 0.907827 1
gene 3 7327 7260 -0.0353475 0 32568 -0.0353475 1
gene 2 3944 8311 1 0 32655 0 1
gene 2 8311 7100 1 0 32656 0 1
gene 1 4800 5785 -0.244228 0 32778 -0.244228 1
gene 1 2001 8203 -0.357973 0 32818 -0.357973 1
gene 1 6258 8360 1 0 32827 0 1
gene 1 8360 70 -0.00232522 0 32828 0 1
gene 2 785 8373 1 0 32871 0 1
gene 2 8373 198 0.230613 0 32872 -0.363285 1
gene 2 2142 1880 0.407383 0 32886 0.407383 1
gene 2 7691 7100 -0.843187 0 32909 -0.843187 1
gene 2 2836 633 0.659701 0 33115 0.659701 1
gene 2 1442 6400 0.54207 0 33149 0.54207 1
gene 1 6772 5739 0.127946 0 33172 0.127946 1
gene 2 4063 6400 -0.978066 0 33210 -0.978066 1
gene 2 4940 6350 0.963277 0 33349 0.963277 1
gene 2 7295 5159 -0.853393 0 33439 -0.853393 1
gene 3 93 4748 0.0982608 0 33447 0.0982608 1
gene 1 6668 5403 0.856584 0 33459 0.856584 1
gene 2 1 4793 -0.383689 0 33476 -0.383689 1
gene 1 1442 8533 0.882617 0 33514 0.132617 1
gene 1 8533 6722 1.00267 0 33515 0.127667 1
gene 2 2189 4887 0.0487301 0 33535 0.0487301 1
gene 1 4 5003 0.822034 0 33573 0.822034 1
gene 1 7602 6590 0.894942 0 33616 0.894942 1
gene 2 4783 7008 0.57405 0 33711 0.57405 1
gene 1 1419 8583 1 0 33749 0 1
gene 1 8583 1562 -0.0441871 0 33750 0 1
gene 3 3456 8593 1 0 33775 0 1
gene 3 8593 5696 0.61527 0 33776 0 1
gene 2 2001 8604 1.02132 0 33816 0.271321 1
gene 2 8604 6119 0.111544 0 33817 0 1
gene 3 2046 5329 -0.0378456 0 34019 -0.0378456 1
gene 1 5329 8654 1 0 34047 0 1
gene 1 8654 701 1.87115 0 34048 0 1
gene 2 3353 26 -0.579128 0 34075 -0.579128 1
gene 3 8120 6281 0.644246 0 34121 0.644246 1
gene 2 5964 6765 -0.604829 0 34136 -0.604829 1
gene 3 22 8699 1 0 34210 0 1
gene 3 8699 366 2.05494 0 34211 0.720202 1
gene 1 785 366 -0.565015 0 34323 -0.565015 1
gene 2 5528 7731 1.05516 0 34342 1.05516 1
gene 2 22 8730 1 0 34354 0 1
gene 2 8730 6400 1 0 34355 0 1
gene 2 1641 7691 -0.217177 0 34446 -0.217177 1
gene 3 16 8768 1.03348 0 34487 0.283482 1
gene 3 8768 5432 1.44523 0 34488 0.588868 1
gene 3 24 7792 0.323922 0 34499 0.323922 1
gene 2 4758 1348 -1.48731 0 34600 -1.48731 1
gene 2 5422 8803 1 0 34633 0 1
gene 2 8803 6388 1 0 34634 0 1
gene 2 4473 4039 -0.406334 0 34697 -0.406334 1
gene 3 6013 26 0.616389 0 34772 0.616389 1
gene 1 15 8884 1.48014 0 34958 0.730143 1
gene 1 8884 198 -1.72636 0 34959 0 1
gene 1 7247 3456 0.819295 0 35014 0.819295 1
gene 1 8 8908 1 0 35040 0 1
gene 1 8908 5329 1 0 35041 0 1
gene 2 20 8927 0.438381 0 35098 -0.311619 1
gene 2 8927 290 1.77602 0 35099 0 1
gene 1 1442 8124 -0.334007 0 35230 -0.334007 1
gene 1 24 8959 0.756679 0 35265 0.0066786 1
gene 1 8959 551 1.1228 0 35266 0.354549 1
gene 3 10 8968 0.492977 0 35297 -0.257023 1
gene 3 8968 4446 0.727824 0 35298 -0.165239 1
gene 3 5712 2836 0.108281 0 35554 0.108281 1
gene 1 2441 9039 1 0 35573 0 1
gene 1 9039 6029 1 0 35574 0 1
gene 2 6388 8052 0.153848 0 35609 0.153848 1
gene 3 339 9054 1 0 35636 0 1
gene 3 9054 2046 1.90137 0 35637 0 1
gene 1 6238 8654 0.422069 0 35837 0.422069 1
gene 2 4539 9106 1.61378 0 35874 0.863778 1
gene 1 9106 1708 0.019203 0 35875 0 1
gene 1 5195 6184 0.262135 0 35936 0.262135 1
gene 3 1351 9136 1 0 35966 0 1
gene 3 9136 4604 -0.464304 0 35967 0.151495 1
gene 1 6084 9140 1 0 35980 0.125 1
gene 1 9140 6749 1.14029 0 35981 0.265286 1
gene 3 3159 7100 0.894638 0 36034 0.894638 1
gene 3 1950 2436 0.523352 0 36171 0.523352 1
gene 1 6084 5484 -0.0644331 0 36193 -0.0644331 1
gene 3 2668 4769 0.0354684 0 36213 0.0354684 1
gene 2 5712 5110 0.0292843 0 36247 0.0292843 1
gene 2 2501 9205 1 0 36262 0 1
gene 2 9205 3658 -0.44523 0 36263 0 1
gene 1 7295 1562 0.808029 0 36352 0.808029 1
gene 2 3700 9241 1 0 36370 0 1
gene 2 9241 3039 0.703289 0 36371 0 1
gene 1 2668 7691 0.554372 0 36385 0.554372 1
gene 1 6268 3497 0.353758 0 36431 0.353758 1
gene 2 8604 755 -0.14211 0 36468 -0.14211 1
gene 2 20 9260 1 0 36487 0.125 1
gene 2 9260 5971 0.941401 0 36488 0 1
gene 2 5110 9275 1.17161 0 36544 0.421613 1
gene 2 9275 551 -1.27688 0 36545 0 1
gene 1 701 9320 1.3084 0 36699 0.652152 1
gene 1 9320 4783 1.15394 0 36700 0 1
gene 1 3849 6526 -0.510402 0 36739 -0.510402 1
gene 2 2836 9330 1 0 36761 0 1
gene 2 9330 7835 1 0 36762 0 1
gene 3 4831 7090 0.96737 0 36777 0.96737 1
gene 2 2073 9340 1.0699 0 36796 0.413655 1
gene 2 9340 2791 0.646564 0 36797 0 1
gene 1 6281 9347 1 0 36816 0 1
gene 1 9347 366 0.74907 0 36817 0 1
gene 2 12 3373 -0.532241 0 36864 -0.532241 1
gene 1 7 9371 0.683353 0 36895 -0.066647 1
gene 3 9371 4793 1.12677 0 36896 0 1
gene 3 3028 5971 0.777857 0 37046 0.777857 1
gene 1 93 7100 0.29213 0 37092 0.29213 1
gene 3 2501 9414 1 0 37101 0 1
gene 3 9414 808 -2.61504 0 37102 -0.652408 1
gene 3 31 9438 1.39122 0 37190 0.641219 1
gene 3 9438 7260 1 0 37191 0 1
gene 3 31 70 -0.930697 0 37355 -0.930697 1
gene 3 2189 9482 1 0 37388 0 0
gene 3 9482 290 -2.19768 0 37389 -0.251425 1
gene 1 701 9540 1 0 37637 0 1
gene 1 9540 4783 1.15394 0 37638 0 1
gene 2 4080 9546 1 0 37654 0 1
gene 2 9546 2624 0.993578 0 37655 0 1
gene 2 6350 8124 0.816679 0 37669 0.816679 1
gene 1 2817 6084 -0.182358 0 37854 -0.182358 1
gene 2 7278 1169 -0.67272 0 37916 -0.67272 1
gene 3 2189 9260 0.285843 0 37949 0.285843 1
gene 2 4752 2068 0.712537 0 37983 0.712537 1
gene 2 8583 6590 -0.452795 0 37992 -0.452795 1
gene 2 10 3700 -0.672522 0 38001 -0.672522 1
gene 2 8884 8593 -0.111972 0 38179 -0.111972 1
gene 1 1419 9679 1 0 38204 0 1
gene 1 9679 2001 -0.563693 0 38205 0 1
gene 3 6908 7691 0.0388466 0 38381 0.0388466 1
gene 3 3540 9729 1 0 38392 0 1
gene 3 9729 5824 1 0 38393 0 1
gene 2 6446 9746 1 0 38454 0 1
gene 2 9746 4520 0.846047 0 38455 0.061262 1
gene 2 9482 4039 -0.0382579 0 38497 -0.0382579 1
gene 1 5308 9753 1 0 38521 0 1
gene 1 9753 31 1.59287 0 38522 0 1
gene 1 6784 1811 0.533955 0 38547 0.533955 1
gene 1 5964 269 0.0134202 0 38625 0.0134202 1
gene 3 9140 257 0.0767211 0 38641 0.0767211 1
gene 2 9205 7792 -0.975289 0 38653 -0.975289 1
gene 1 7805 6350 0.380968 0 38668 0.380968 1
gene 2 4039 9792 1.04739 0 38681 0.172389 1
gene 3 9792 3353 0.0249406 0 38682 0 1
gene 2 21 7792 -0.0384604 0 38789 -0.0384604 1
gene 1 8 9823 1 0 38813 0.25 1
gene 1 9823 8908 1 0 38814 0 1
gene 3 9746 7845 0.048291 0 38843 0.048291 1
gene 1 3 9753 0.21548 0 38853 0.21548 1
gene 3 1281 9851 1 0 38919 0 1
gene 3 9851 2073 -0.419422 0 38920 -0.104855 1
gene 2 1874 8311 1.10203 0 38940 1.10203 1
gene 1 4793 9861 0.533399 0 38952 -0.216601 1
gene 1 9861 1032 0.00458657 0 38953 0.0641586 1
gene 1 3849 9880 1 0 39022 0 1
gene 1 9880 1811 -0.774186 0 39023 -0.193546 1
gene 3 4207 4539 0.294023 0 39080 0.294023 1
gene 3 5528 9347 -0.596743 0 39094 -0.596743 1
gene 2 5159 9895 1.16137 0 39109 0.286374 1
gene 2 9895 2189 -0.0210516 0 39110 -0.174137 1
gene 1 1032 9956 1.25876 0 39314 0.383759 1
gene 1 9956 6526 1.36526 0 39315 0.615258 1
gene 3 6590 9205 -0.678362 0 39400 -0.678362 1
gene 3 9895 3456 -0.452007 0 39436 -0.452007 1
gene 2 3028 9985 1 0 39460 0.25 1
gene 2 9985 4186 0.995257 0 39461 0.248814 1
gene 3 1950 5594 -0.539528 0 39595 -0.539528 1
gene 1 4186 8106 -0.846642 0 39616 -0.846642 1
gene 1 6480 6505 -0.399959 0 39670 -0.399959 1
gene 2 3616 2791 -0.489757 0 39682 -0.489757 1
gene 1 261 10048 1 0 39706 0 1
gene 1 10048 1032 1.72637 0 39707 0.453308 1
gene 1 2441 10057 1 0 39730 0 1
gene 1 10057 242 0.191554 0 39731 -0.0945696 1
gene 3 7707 5521 -0.246192 0 39827 -0.246192 1
gene 2 2726 10096 0.945696 0 39876 0.195696 1
gene 2 10096 3373 -0.22979 0 39877 0 1
gene 2 2436 9340 0.503928 0 39912 0.503928 1
gene 2 5195 10115 1.25721 0 39941 0.507206 1
gene 2 10115 5159 1.5625 0 39942 0.812501 1
gene 3 6722 7673 0.76047 0 40018 0.76047 1
gene 1 3700 10138 1 0 40048 0 1
gene 1 10138 5739 1.13639 0 40049 0 1
gene 3 8927 9205 -0.411996 0 40065 -0.411996 1
gene 1 16 10148 1 0 40092 0 1
gene 1 10148 7418 1 0 40093 0 1
gene 3 24 6268 0.0127604 0 40303 0.0127604 1
gene 1 8130 4207 0.551942 0 40312 0.551942 1
gene 2 3373 10243 1 0 40460 0 1
gene 2 10243 1653 0.227345 0 40461 0.0568362 1
gene 1 1442 6029 -1.11723 0 40606 -1.11723 1
gene 1 752 1811 -0.739448 0 40639 -0.739448 1
gene 3 8730 7278 -0.386761 0 40711 -0.386761 1
gene 3 10243 4887 0.94502 0 40912 0.94502 1
gene 2 7499 10348 1 0 40933 0.25 1
gene 2 10348 3353 -0.830095 0 40934 0 1
gene 1 15 701 -0.463061 0 40959 -0.463061 1
gene 2 8203 7278 0.31423 0 41019 0.31423 1
gene 1 3581 8215 0.938982 0 41045 0.938982 1
gene 1 17 7100 -0.347439 0 41088 -0.347439 1
gene 1 7107 8927 0.249773 0 41130 0.249773 1
gene 2 3445 10405 1 0 41143 0.25 1
gene 2 10405 6013 1 0 41144 0 1
gene 3 9679 8699 0.94251 0 41264 0.94251 1
gene 3 1305 9340 0.128132 0 41394 0.128132 1
gene 1 261 9260 -0.359512 0 41423 -0.359512 1
gene 3 198 10484 1 0 41445 0.25 1
gene 3 10484 3658 1.34135 0 41446 0 1
gene 2 5178 4279 -0.0355125 0 41471 -0.0355125 1
gene 1 339 10493 1 0 41477 0 1
gene 1 10493 701 -1.28995 0 41478 0 1
gene 2 7731 25 -0.0378706 0 41514 -0.0378706 1
gene 2 7260 1708 -0.777342 0 41542 -0.777342 1
gene 2 5013 10518 1 0 41553 0 0
gene 2 10518 6281 -0.257499 0 41554 0 1
gene 2 21 10554 1 0 41687 0 1
gene 2 10554 7792 -0.0384604 0 41688 0 1
gene 1 6521 6258 0.513915 0 41708 0.513915 1
gene 3 2444 6446 -0.891838 0 41746 -0.891838 1
gene 2 2791 4681 0.0628564 0 41760 0.0628564 1
gene 3 3540 10570 1 0 41782 0 1
gene 3 10570 1442 -0.349196 0 41783 0 1
gene 1 5632 8908 -0.805668 0 42046 -0.805668 1
gene 2 3517 10642 1 0 42059 0 1
gene 2 10642 31 -0.833231 0 42060 0 1
gene 3 5003 4496 0.283762 0 42080 0.283762 1
gene 1 1691 2046 0.934536 0 42141 0.934536 1
gene 1 12 10671 1.16897 0 42150 0.418968 1
gene 1 10671 2271 2.18905 0 42151 0 1
gene 1 1691 10696 1 0 42252 0 1
gene 1 10696 371 1.03683 0 42253 0 1
gene 2 6963 1169 -0.275942 0 42272 -0.275942 1
gene 3 9241 7335 -0.901348 0 42323 -0.901348 1
gene 2 5528 6604 0.653195 0 42347 0.653195 1
gene 2 1880 10722 1 0 42375 0 1
gene 2 10722 2708 1.24061 0 42376 0 1
gene 3 2046 7299 -0.574099 0 42559 -0.574099 1
gene 2 4446 5785 0.226912 0 42661 0.226912 1
gene 1 8130 6784 -0.467316 0 42692 -0.467316 1
gene 2 4039 10814 1.3423 0 42711 0.592301 1
gene 2 10814 9792 0.827337 0 42712 0.0417954 1
gene 1 8130 10819 1.45115 0 42734 0.701146 1
gene 1 10819 6784 -0.467316 0 42735 0 1
gene 2 9792 7691 0.724404 0 42745 0.724404 1
gene 3 6784 10831 1.01016 0 42789 0.260162 1
gene 3 10831 7933 0.844459 0 42790 0.193568 1
gene 2 9895 7933 0.595678 0 42794 0.595678 1
gene 3 9371 10839 1 0 42815 0 1
gene 3 10839 4793 1.12677 0 42816 0 1
gene 3 242 8803 0.0110574 0 42968 0.0110574 1
gene 1 9729 8311 1.01338 0 43068 1.01338 1
gene 2 8 10907 1 0 43103 0 1
gene 2 10907 257 0.763765 0 43104 -0.0455058 1
gene 2 1708 8593 1.28038 0 43283 1.28038 1
gene 1 2624 10953 1 0 43293 0 1
gene 1 10953 4758 -0.479164 0 43294 0 1
gene 2 7499 10963 1 0 43323 0 1
gene 2 10963 3353 -0.830095 0 43324 0 1
gene 2 17 366 0.369923 0 43348 0.369923 1
gene 2 10115 10990 1 0 43426 0 1
gene 2 10990 5159 1 0 43427 0 1
gene 2 4748 8052 0.836217 0 43451 0.836217 1
gene 2 7247 1756 0.318653 0 43477 0.318653 1
gene 1 7886 7673 0.903335 0 43656 0.903335 1
gene 2 8 11053 1 0 43667 0 1
gene 2 11053 5003 0.67829 0 43668 -0.263957 1
gene 1 10493 11060 1 0 43692 0 1
gene 1 11060 701 -1.28995 0 43693 0 1
gene 2 20 3581 -0.554595 0 43832 -0.554595 1
gene 2 3159 11094 1 0 43852 0 1
gene 2 11094 1351 0.111917 0 43853 0.219102 1
gene 2 5403 3456 0.430974 0 43876 0.430974 1
gene 1 4871 2501 0.576712 0 43904 0.576712 1
gene 2 4520 8959 -0.416062 0 44129 -0.416062 1
gene 3 31 11179 1 0 44147 0 1
gene 3 11179 4496 0.729737 0 44148 0 1
gene 1 6281 4279 -0.186911 0 44168 -0.186911 1
gene 1 1641 11189 1 0 44183 0 1
gene 1 11189 31 1.29705 0 44184 0.324264 1
gene 1 13 11191 1 0 44192 0.25 1
gene 1 11191 2720 -0.144078 0 44193 0 1
gene 1 8 11222 1 0 44300 0 1
gene 1 11222 9823 0.891309 0 44301 0.141309 1
gene 2 5521 5432 0.906915 0 44437 0.906915 1
gene 2 3159 11247 1 0 44445 0 1
gene 2 11247 11094 1 0 44446 0 1
gene 1 6908 11253 1 0 44467 0 1
gene 1 11253 4539 -0.714205 0 44468 0 1
gene 3 7886 9438 0.54287 0 44482 0.54287 1
gene 3 7260 10096 0.852023 0 44520 0.852023 1
gene 2 7090 9414 -0.155407 0 44543 -0.155407 1
gene 2 5594 5521 0.697622 0 44595 0.697622 1
gene 1 1708 269 -0.275116 0 44733 -0.275116 1
gene 1 5964 11325 1 0 44752 0 1
gene 1 11325 269 0.0134202 0 44753 0 1
gene 3 3353 11331 1 0 44773 0 1
gene 3 11331 198 1.2056 0 44774 0 1
gene 2 3563 11333 1 0 44794 0 1
gene 2 11333 3456 1.0509 0 44795 0 1
gene 3 2803 9371 0.496976 0 44868 0.496976 1
gene 1 9729 2444 0.147039 0 45039 0.147039 1
gene 2 7327 11389 1 0 45055 0 1
gene 2 11389 1874 -0.330531 0 45056 0 1
gene 1 5632 11395 1 0 45076 0 1
gene 1 11395 8908 -0.805668 0 45077 0 1
gene 2 3456 11418 1 0 45154 0 1
gene 2 11418 31 2.48545 0 45155 0 1
gene 3 4745 2501 -0.358151 0 45332 -0.358151 1
gene 1 1756 11461 1 0 45351 0 1
gene 1 11461 3159 0.964163 0 45352 0 1
gene 1 2001 11471 1 0 45386 0 1
gene 1 11471 8203 -0.357973 0 45387 0 1
gene 1 7751 11500 1 0 45478 0 1
gene 1 11500 26 0.843683 0 45479 0 1
gene 2 1 8959 -0.265567 0 45498 -0.265567 1
gene 1 11189 3540 0.267424 0 45635 0.267424 1
gene 3 6505 9414 0.0710533 0 45655 0.0710533 1
gene 2 2278 11553 1 0 45694 0 1
gene 2 11553 290 0.556817 0 45695 0 1
gene 3 7499 6258 -0.610939 0 45736 -0.610939 1
gene 3 8968 11636 1 0 46009 0 1
gene 3 11636 4446 0.727824 0 46010 0 1
gene 3 4 11643 1 0 46034 0 1
gene 3 11643 242 1.42845 0 46035 0 1
gene 2 263 11191 -0.192795 0 46164 -0.192795 1
gene 1 1419 11677 1 0 46174 0 1
gene 1 11677 551 0.976615 0 46175 0 1
gene 3 7751 11681 1 0 46197 0 1
gene 3 11681 5003 0.0355652 0 46198 0 1
gene 2 5887 1691 0.440216 0 46275 0.440216 1
gene 3 11389 366 -0.912752 0 46327 -0.912752 1
gene 1 9956 11752 1 0 46452 0 1
gene 1 11752 6526 1.36526 0 46453 0 1
gene 2 1305 6400 -0.497934 0 46483 -0.497934 1
gene 2 8604 6258 -0.523813 0 46510 -0.523813 1
gene 1 1018 11810 1 0 46693 0 1
gene 1 11810 3616 1.14259 0 46694 0 1
gene 2 2803 8311 0.0556367 0 46709 0.0556367 1
gene 1 366 1756 0.333669 0 46798 0.333669 1
gene 3 7810 6400 0.645244 0 46918 0.645244 1
gene 3 1351 11863 1 0 46943 0 1
gene 3 11863 4604 -0.760941 0 46944 0 1
gene 3 10642 2271 -0.294167 0 46964 -0.294167 1
gene 1 3700 11869 1 0 46978 0 1
gene 1 11869 10138 1 0 46979 0 1
gene 3 10057 6521 -0.213744 0 47016 -0.213744 1
gene 2 6505 8106 -0.0248531 0 47031 -0.0248531 1
gene 2 1305 4039 -0.907656 0 47214 -0.907656 1
gene 3 7691 11932 1 0 47237 0 1
gene 3 11932 3775 -0.143643 0 47238 0 1
gene 2 5594 11944 1 0 47275 0 1
gene 2 11944 5521 0.697622 0 47276 0 1
gene 2 11189 2278 -0.859083 0 47294 -0.859083 1
gene 3 7602 11972 1 0 47382 0 1
gene 3 11972 1419 -0.208737 0 47383 0 1
gene 2 242 11983 1 0 47417 0 1
gene 2 11983 7486 -0.780465 0 47418 0 1
gene 1 290 11179 -0.595797 0 47537 -0.595797 1
gene 1 3700 12015 1 0 47556 0 1
gene 1 12015 10138 1 0 47557 0 1
gene 1 11944 6824 0.184042 0 47582 0.184042 1
gene 3 6281 5484 0.000396376 0 47627 0.000396376 1
gene 3 11395 8959 0.26866 0 47820 0.26866 1
gene 3 12 12088 1 0 47840 0 1
gene 3 12088 2355 0.351207 0 47841 0 1
gene 3 13 12111 1 0 47911 0 1
gene 3 12111 4473 -0.607457 0 47912 0 1
gene 2 31 12163 1 0 48109 0 1
gene 2 12163 4681 -0.800067 0 48110 0 1
gene 1 1708 633 -0.393186 0 48144 -0.393186 1
gene 2 1305 12170 1 0 48158 0 1
gene 2 12170 785 2.15115 0 48159 0 1
gene 1 3849 12178 1 0 48189 0 1
gene 1 12178 1811 -0.813511 0 48190 0 1
gene 3 3563 8884 0.119379 0 48289 0.119379 1
gene 2 17 12211 1 0 48301 0 1
gene 2 12211 366 0.369923 0 48302 0 1
gene 2 12178 3169 0.0595183 0 48324 0.0595183 1
gene 1 11643 377 -0.193935 0 48407 -0.193935 1
gene 1 10115 12111 0.581117 0 48427 0.581117 1
gene 1 5785 6722 0.205212 0 48554 0.205212 1
gene 2 3159 7418 0.615749 0 48695 0.615749 1
gene 3 5159 5971 0.588648 0 48721 0.588648 1
gene 3 752 11972 0.887689 0 48771 0.887689 1
gene 1 9371 11471 -0.0946035 0 48929 -0.0946035 1
gene 3 20 12370 1 0 48974 0 1
gene 3 12370 5971 0.683763 0 48975 0 1
gene 2 1305 12388 1 0 49077 0 1
gene 2 12388 2001 0.0560616 0 49078 0 1
gene 2 339 4862 -0.89503 0 49141 -0.89503 1
gene 3 9895 5308 -0.0297485 0 49167 -0.0297485 1
gene 1 3169 9054 0.24596 0 49350 0.24596 1
gene 2 8215 11636 -0.195775 0 49368 -0.195775 1
gene 2 1442 12466 1 0 49381 0 1
gene 2 12466 6400 0.54207 0 49382 0 1
gene 2 5195 12471 1 0 49397 0 1
gene 2 12471 785 0.823084 0 49398 0 1
gene 2 5195 12490 1 0 49452 0 1
gene 2 12490 12471 1 0 49453 0 1
gene 3 1032 12499 1 0 49477 0 1
gene 3 12499 1708 0.0079837 0 49478 0 1
gene 2 9482 2271 0.793727 0 49490 0.793727 1
gene 1 5308 12517 1 0 49521 0 1
gene 1 12517 9753 1 0 49522 0 1
gene 1 1562 10554 -0.474737 0 49675 -0.474737 1
gene 1 11331 6084 0.411116 0 49755 0.411116 1
gene 1 261 12570 1 0 49766 0 1
gene 1 12570 2803 0.647697 0 49767 0 1
gene 2 3563 5712 -0.565284 0 49970 -0.565284 1
gene 2 5013 12622 1 0 49986 0 1
gene 2 12622 10518 1 0 49987 0 1
gene 2 11053 6521 0.386585 0 50007 0.386585 1
gene 1 1562 12570 0.125225 0 50014 0.125225 1
gene 1 8 12636 1 0 50036 0 0
gene 1 12636 701 1.144 0 50037 0 1
gene 3 8 12645 1 0 50068 0 1
gene 3 12645 70 -0.238048 0 50069 0 1
gene 1 7008 12517 0.943696 0 50293 0.943696 1
gene 2 8373 1811 0.858764 0 50313 0.858764 1
gene 1 10057 12740 1 0 50449 0 1
gene 1 12740 242 0.191554 0 50450 0 1
gene 2 2720 12742 1 0 50458 0 1
gene 2 12742 476 0.665304 0 50459 0 1
gene 3 9895 11944 0.903461 0 50486 0.903461 1
gene 3 4039 11395 -0.487959 0 50501 -0.487959 1
gene 2 3944 10554 0.311307 0 50565 0.311307 1
gene 3 11932 8203 -0.626851 0 50618 -0.626851 1
gene 1 339 12785 1 0 50643 0 1
gene 1 12785 5528 0.794098 0 50644 0 1
gene 3 4 12790 1 0 50666 0 1
gene 3 12790 242 1.42845 0 50667 0 1
gene 2 6013 9140 -0.16798 0 50683 -0.16798 1
gene 2 5528 8908 -0.863702 0 50734 -0.863702 1
gene 2 6505 9371 0.142015 0 50943 0.142015 1
gene 3 1950 12868 1 0 50954 0 1
gene 3 12868 5594 -0.539528 0 50955 0 1
gene 1 12742 9823 -0.515905 0 50966 -0.515905 1
gene 2 8908 8730 0.964835 0 50997 0.964835 1
gene 3 2189 12928 1 0 51168 0 1
gene 3 12928 9482 1 0 51169 0 1
gene 1 6400 6857 0.115367 0 51205 0.115367 1
gene 2 7805 12936 1 0 51233 0 1
gene 2 12936 6388 1 0 51234 0 1
gene 1 8 12945 1 0 51265 0 1
gene 1 12945 12636 1 0 51266 0 1
genomeend 63
