genomestart 5
trait 1 0.1 0 0 0 0 0 0 0 
trait 2 0.295678 0.388502 0.763415 0.0269042 0.359442 0 0 0 
trait 3 0.3 0 0 0.403559 0.868038 0 0 0 
node 1 3 1 3
node 2 3 1 1
node 3 1 1 1
node 4 3 1 1
node 5 2 1 1
node 6 2 1 1
node 7 3 1 1
node 8 1 1 1
node 9 2 1 1
node 10 2 1 1
node 11 3 1 1
node 12 2 1 1
node 13 3 1 1
node 14 1 1 1
node 15 1 1 1
node 16 1 1 1
node 17 1 1 1
node 18 1 1 1
node 19 3 1 1
node 20 1 1 1
node 21 2 1 1
node 22 2 1 1
node 23 2 1 1
node 24 3 1 1
node 25 3 0 2
node 26 2 0 2
node 45 1 0 0
node 66 1 0 0
gene 3 1 25 -2.19313 0 1 -2.19313 1
gene 2 2 25 2.32816 0 2 2.32816 1
gene 3 3 25 -8 0 3 -8 1
gene 3 4 25 0.963665 0 4 0.963665 1
gene 2 5 25 -0.7557 0 5 -0.7557 1
gene 1 6 25 2.20235 0 6 2.20235 1
gene 3 7 25 7.32427 0 7 7.32427 1
gene 3 8 25 5.48542 0 8 5.48542 1
gene 3 9 25 4.88555 0 9 4.88555 1
gene 1 10 25 6.13457 0 10 6.13457 1
gene 3 11 25 -2.88971 0 11 -2.88971 1
gene 1 12 25 3.17896 0 12 3.17896 1
gene 3 13 25 2.23745 0 13 2.23745 1
gene 1 14 25 6.76543 0 14 6.76543 1
gene 2 15 25 -0.6275 0 15 -0.6275 1
gene 3 16 25 2.68262 0 16 2.68262 1
gene 2 17 25 -6.16604 0 17 -6.16604 1
gene 3 18 25 1.54598 0 18 1.54598 1
gene 2 19 25 -1.26242 0 19 -1.26242 1
gene 3 20 25 6.7446 0 20 6.7446 1
gene 2 21 25 -3.85947 0 21 -3.85947 1
gene 2 22 25 -0.198684 0 22 -0.198684 1
gene 3 23 25 -4.1987 0 23 -4.1987 1
gene 2 24 25 -2.93846 0 24 -2.93846 1
gene 2 1 26 3.69444 0 25 3.69444 1
gene 3 2 26 -7.20045 0 26 -7.20045 1
gene 3 3 26 -2.66297 0 27 -2.66297 1
gene 2 4 26 -8 0 28 -8 1
gene 1 5 26 1.96628 0 29 1.96628 1
gene 2 6 26 0.158356 0 30 0.158356 1
gene 3 7 26 -0.752276 0 31 -0.752276 1
gene 2 8 26 3.59596 0 32 3.59596 1
gene 2 9 26 3.42529 0 33 3.42529 1
gene 1 10 26 1.76098 0 34 1.76098 1
gene 1 11 26 0.79164 0 35 0.79164 1
gene 1 12 26 1.94243 0 36 1.94243 1
gene 1 13 26 -0.679073 0 37 -0.679073 1
gene 1 14 26 -2.32069 0 38 -2.32069 1
gene 3 15 26 1.46107 0 39 1.46107 1
gene 1 16 26 2.20965 0 40 2.20965 1
gene 2 17 26 4.71937 0 41 4.71937 1
gene 2 18 26 -2.66597 0 42 -2.66597 1
gene 1 19 26 2.67329 0 43 2.67329 1
gene 2 20 26 -0.0239258 0 44 -0.0239258 1
gene 2 21 26 0.609289 0 45 0.609289 1
gene 3 22 26 2.78511 0 46 2.78511 1
gene 1 23 26 -1.26144 0 47 -1.26144 1
gene 2 24 26 -3.43127 0 48 -3.43127 1
gene 2 2 45 0.259845 0 94 0.259845 1
gene 2 45 25 -1.26259 0 95 -1.26259 1
gene 2 25 26 3.46857 0 98 3.46857 1
gene 2 19 66 1.3781 0 152 1.3781 1
gene 2 66 25 -1.06668 0 153 -1.06668 1
gene 3 45 66 -0.734687 0 164 -0.734687 1
gene 3 8 66 0.98328 0 457 0.98328 1
gene 1 9 66 -5.25345 0 520 -5.25345 1
gene 1 24 45 1.88761 0 587 1.88761 1
genomeend 5
